tree
version=v4
num_class=1
num_tree_per_iteration=1
label_index=0
max_feature_idx=30
objective=tweedie
feature_names=Column_0 Column_1 Column_2 Column_3 Column_4 Column_5 Column_6 Column_7 Column_8 Column_9 Column_10 Column_11 Column_12 Column_13 Column_14 Column_15 Column_16 Column_17 Column_18 Column_19 Column_20 Column_21 Column_22 Column_23 Column_24 Column_25 Column_26 Column_27 Column_28 Column_29 Column_30
feature_infos=[1:31] [0:17] [0:6] [0:1] [0:1] [0:1] [0:1] [0:1] [0:371.875] [0:371.875] [0:371.875] [0:371.875] [0:371.875] [0:371.875] [0:371.875] [1:12] [0:371.875] [0:364.75] [0:364.5] [0:371.875] [0:371.875] [0:175.44413757324219] [0:190.42362976074219] [2.0018797004198868e-13:91.905548095703125] [0:192] [0.00051048252498731017:1.8684734106063843] [0:142.02302551269531] [1:52] [2023:2024] [0:1] [0:17]
tree_sizes=6511 6807 6820 6823 6820 6827 6850 6836 6844 6836 6843 6854 6832 6851 6811 6846 6846 6843 6871 6874 6855 6870 6831 6854 6843 6854 6834 6853 6875 6831 6874 6881 6875 6885 6889 6859

Tree=0
num_leaves=63
num_cat=0
split_feature=16 10 21 16 10 10 23 23 26 8 23 21 23 10 10 0 10 0 24 0 15 10 24 26 2 2 21 12 17 24 21 22 2 29 23 10 17 17 8 26 0 24 26 24 15 2 19 8 26 2 16 25 19 16 15 8 8 29 2 8 17 21
split_gain=971046 105551 87095.7 13843.2 13578.6 13196.6 8008.08 6969 6556.54 7905.24 4526.11 4093.73 3305.09 3303.82 3203.64 3080.46 2827.61 2743.83 2616.06 7009.04 4709.56 2355.49 2276.82 2224.88 3188.93 2221.71 1804.11 1817.82 1698.22 1691.47 1641.39 1609.38 1574.62 1466.82 1392.22 1379.39 1376.35 1376.29 1198.83 1049.34 1020.86 1020.62 966.515 931.401 918.656 911.525 954.612 846.262 902.018 787.132 762.455 721.916 683.644 650.075 810.72 632.91 631.667 588.982 585.957 567.593 557.265 553.163
threshold=21.500000000000004 33.250000000000007 2.3617179393768315 125.81250000000001 11.500000000000002 6.5000000000000009 23.742011070251468 0.95018798112869274 3.3157894611358647 13.250000000000002 90.383930206298842 12.160168647766115 4.3853383064270028 2.7500000000000004 1.5000000000000002 23.500000000000004 54.500000000000007 7.5000000000000009 177.50000000000003 23.500000000000004 2.5000000000000004 1.5000000000000002 147.50000000000003 21.041117668151859 1.5000000000000002 1.5000000000000002 31.047022819519047 125.81250000000001 0.16071429103612903 27.500000000000004 36.921878814697273 38.937145233154304 1.5000000000000002 0.98214286565780651 4.1353384256362924 186.12500000000003 4.9330356121063241 1.1250000000000002 4.5000000000000009 37.384046554565437 25.500000000000004 145.50000000000003 9.2631578445434588 92.500000000000014 3.5000000000000004 1.5000000000000002 18.008928298950199 3.5625000000000004 0.75986841320991527 2.5000000000000004 40.500000000000007 1.5782742500305178 60.383928298950202 93.062500000000014 6.5000000000000009 23.500000000000004 34.500000000000007 0.91071426868438732 1.5000000000000002 40.500000000000007 6.4330356121063241 25.186054229736332
decision_type=2 2 2 2 2 2 2 2 2 2 2 2 2 2 2 2 2 2 2 2 2 2 2 2 2 2 2 2 2 2 2 2 2 2 2 2 2 2 2 2 2 2 2 2 2 2 2 2 2 2 2 2 2 2 2 2 2 2 2 2 2 2
left_child=2 4 7 16 8 6 14 28 61 21 13 45 -7 18 39 -12 59 37 33 -20 -21 25 -19 29 -25 41 40 44 -1 49 56 55 -14 -9 -16 -5 -15 -8 57 47 43 -10 -39 -27 -28 -6 -47 48 -4 -11 -23 -33 -18 54 -46 -26 -13 -24 -36 -3 -34 -2
right_child=1 3 5 35 11 12 17 10 9 23 15 30 32 36 34 -17 52 22 19 20 -22 50 38 24 31 26 27 -29 -30 -31 -32 51 60 -35 58 -37 -38 42 -40 -41 -42 -43 -44 -45 53 46 -48 -49 -50 -51 -52 -53 -54 -55 -56 -57 -58 -59 -60 -61 -62 -63
leaf_value=1.8208414495196721 1.9518950987837291 1.9801512298555577 1.9094010298816095 2.0261590590253276 1.9536772494542167 1.8811394604107905 2.0277432218843447 1.838551180125487 1.8386356179943535 1.8250689074579722 1.8204512321522048 1.9602302330964481 1.9252397153006973 1.8540858709181229 1.8644929981207989 2.0143418851925055 2.0014921450101744 1.9444386117746597 1.8242119412160529 1.8203141784093264 1.9693198875097917 1.9057582615164708 1.8484169000283877 1.8615662227300287 1.92225173100277 1.8928751542723736 1.8740641285536042 1.8314600052344219 1.8305793671326038 1.9290600735940902 2.0005719003949496 1.9992493759816914 1.8868892574552782 1.823945235163132 1.8958409250856765 2.0447854872350768 1.8951183204082893 2.0099115749723411 1.9225212697372565 1.9338322488959794 1.9231178709963099 1.9032576076289123 1.9091331556994418 1.8443730778243168 1.9532197976836496 1.9210354955292637 1.9489358085139348 1.8673522786333867 1.8483384924402559 1.9124613116425409 1.9332652416820706 1.9502739011446835 2.0149801367659408 1.9616651031743615 1.8718919849616784 1.9566398562434042 1.9771804102718811 1.942757055163566 1.8783871283687852 1.9939448455956337 1.9084626992041427 1.9991382175704711
leaf_weight=89498.880002975464 818.89483428001404 17651.478907346725 618.58160972595215 24536.364490032196 9520.7651143074036 10385.497818231583 721.78673243522644 55189.012873411179 3114.0636918544769 622.87657856941223 302.59894847869873 16518.951374292374 15070.520466566086 18856.872759342194 17419.289238452911 629.72660446166992 29044.97388958931 2025.1088242530823 3933.7412004470825 726.23747634887695 1957.9930012226105 9108.8946280479431 2020.5241849422455 853.24475145339966 1888.1093213558197 1734.4328844547272 564.35758280754089 502.36724305152893 89768.844947338104 6713.5845935344696 3962.3103723526001 3003.7472789287567 4235.7905871868134 24996.475896835327 6478.2454869747162 16871.478025913239 2291.9094762802124 338.99516296386719 982.9531512260437 418.07545757293701 936.32021641731262 759.69475531578064 793.85527658462524 2304.4389398097992 650.38578510284424 7078.6681940555573 5413.4548602104187 9166.4404237270355 26187.866834878922 438.28421115875244 3482.3864183425903 1009.5535163879395 14041.976513624191 1900.0683827400208 577.93426990509033 4615.9777500629425 8279.1299662590027 179.35813140869141 18653.097516059875 13053.983507633209 10201.464114665985 2606.3621892929077
leaf_count=18106 99 1428 121 939 802 1375 33 10231 622 154 115 1546 1813 3277 2355 44 1682 162 1470 276 278 1158 677 126 256 244 78 92 18869 721 237 161 691 5609 920 364 333 14 213 55 144 188 165 601 55 757 563 1542 5509 102 351 102 927 139 90 457 640 33 2805 903 1194 136
internal_value=1.89164 1.97807 1.84694 2.01061 1.94021 1.88163 1.8706 1.83178 1.9212 1.9161 1.84176 1.95825 1.9054 1.84081 1.86604 1.9514 1.99762 1.92161 1.83649 1.86671 1.92899 1.89794 1.90301 1.94041 1.9545 1.88305 1.89646 1.92061 1.82572 1.91979 1.97067 1.96204 1.91394 1.834 1.87536 2.03375 1.85853 1.97382 1.87664 1.85515 1.8761 1.85131 1.93937 1.8652 1.93275 1.94202 1.93313 1.85423 1.84975 1.86115 1.91337 1.98695 2.00589 1.94334 1.91497 1.94666 1.96589 1.85613 1.88289 1.98602 1.90213 1.98786
internal_weight=628229 214180 414050 115200 98979.3 125897 86004.2 288152 48206 44780.7 108885 50773.3 39893.3 107952 78941.6 932.326 73792.4 7062.58 86803.5 6617.97 2684.23 25635.3 5207.94 19145.4 11370.6 13044.1 9170.31 4195.11 179268 7774.75 28760.4 10517.4 29507.8 80185.5 42550.6 41407.8 21148.8 1854.64 3182.84 36391 4975.19 3873.76 1132.85 4038.87 3692.75 22012.9 12492.1 35972.9 26806.4 1061.16 12591.3 4013.3 43087 3128.39 1228.32 6504.09 24798.1 2199.88 25131.3 30705.5 14437.3 3425.26
internal_count=95149 16864 78285 6243 10621 19677 14604 58608 6076 5841 21633 4545 5073 21474 13307 159 4940 1297 17864 2024 554 3762 1085 2079 1102 2253 1443 454 36975 977 2423 976 3698 15840 6080 1303 3610 212 923 7227 989 810 179 845 362 2122 1320 7172 5630 256 1509 263 2609 284 145 713 2186 710 3725 2331 1885 235
is_linear=0
shrinkage=1


Tree=1
num_leaves=63
num_cat=0
split_feature=16 21 19 19 16 17 23 27 17 15 2 12 8 23 8 23 0 8 24 8 2 17 25 19 27 13 2 2 13 23 8 0 27 24 25 23 15 0 27 27 2 2 24 24 23 17 21 27 2 25 24 19 2 19 2 2 25 25 8 29 2 0
split_gain=889633 77563.3 75932.4 19048.4 11977.9 9878.26 6511.31 8839.51 6368.56 6112.47 5731.79 3744.49 3071.12 3036.18 2834.13 2790.12 2602.42 2423.34 2413.35 2057.52 1897.39 1825.41 1740.68 1736.21 1345.2 1328.04 1418.04 1734.21 1317.92 1278.97 1262.64 1230.52 1227.66 1205.82 1495.01 1333.59 1204.46 1198.64 1144.44 1120.72 1116.12 1104.28 1390.92 998.718 1190.41 991.249 978.672 957.145 946.268 945.961 938.318 933.825 878.137 913.09 862.592 1549.88 1161.11 1466.46 1122.62 1111.32 844.475 811.131
threshold=20.312500000000004 2.1980330944061284 31.330357551574711 72.375000000000014 33.750000000000007 6.4330356121063241 13.45277261734009 11.500000000000002 0.69642856717109691 3.5000000000000004 1.5000000000000002 11.500000000000002 11.500000000000002 20.267857551574711 46.500000000000007 23.742011070251468 24.500000000000004 13.250000000000002 147.50000000000003 165.81250000000003 1.5000000000000002 2.5044642686843877 1.6429706215858462 2.2946429252624516 12.500000000000002 0.50000000000075007 4.5000000000000009 1.5000000000000002 11.500000000000002 4.3853383064270028 4.5000000000000009 8.5000000000000018 8.5000000000000018 97.500000000000014 1.4671308398246767 17.097744941711429 11.500000000000002 5.5000000000000009 17.500000000000004 37.500000000000007 1.0000000180025095e-35 1.5000000000000002 26.500000000000004 162.50000000000003 20.973919868469242 17.361607551574711 3.1617875038136849e-06 10.500000000000002 5.5000000000000009 1.589035212993622 146.50000000000003 1.2500000000000002 1.0000000180025095e-35 54.598215103149421 4.5000000000000009 1.5000000000000002 1.6429706215858462 1.4671308398246767 7.7500000000000009 0.62500000000000011 1.0000000180025095e-35 23.500000000000004
decision_type=2 2 2 2 2 2 2 2 2 2 2 2 2 2 2 2 2 2 2 2 2 2 2 2 2 2 2 2 2 2 2 2 2 2 2 2 2 2 2 2 2 2 2 2 2 2 2 2 2 2 2 2 2 2 2 2 2 2 2 2 2 2
left_child=1 6 4 14 12 10 8 -8 46 16 15 25 41 23 28 29 61 22 -15 -5 -7 60 24 -12 32 26 27 33 54 -3 38 36 -13 34 -6 -36 -20 -17 -30 -27 -19 42 -2 44 -43 -14 -1 -34 -26 -29 -40 -31 -16 -54 55 56 57 -4 59 -57 -10 -9
right_child=2 5 3 19 11 20 7 9 21 -11 13 17 45 18 52 37 -18 40 31 -21 -22 -23 -24 -25 48 39 -28 49 30 51 -32 -33 47 -35 35 -37 -38 -39 50 -41 -42 43 -44 -45 -46 -47 -48 -49 -50 -51 -52 -53 53 -55 -56 58 -58 -59 -60 -61 -62 -63
leaf_value=-0.070230914369757341 -0.046292737675242307 -0.016207933779642483 0.10100937038595036 0.12651565617301339 0.091644632092758249 0.03033302524482644 -0.069920648298236951 -0.071188155732136146 -0.040998308776549794 -0.035652032075828829 -0.045784278483747977 0.042036838072498306 0.037558758925736346 0.050091414930427625 0.11775511164099742 0.11793070958518129 0.11009855377140301 0.090476418069864145 -0.028926610058238461 0.14932411723979805 0.0037515775736769127 -0.027632052936149815 -0.040303985569998833 -0.026633252439897333 0.042878225554316439 0.056219195856925974 0.10134657782965667 0.062248458834832134 -0.020667926080916624 -0.028301243918848147 0.080507742983555744 -0.038628595508753888 -0.062623239773419312 0.10159770813074312 0.08771575398596311 -0.058260596150419397 0.089800112078483124 0.030057628311039166 0.038009170446242413 0.08644987125751627 0.057755163436943951 0.0077120729890525598 0.042070016150014246 -0.023620085516516967 0.044733770649764443 0.06114458202910536 -0.062512543214656158 0.023023341122178891 0.091438224407638602 0.0079711793830183602 0.10103334851480157 0.010276613036056759 0.091981041299551689 0.10995030921001436 0.11118594469766244 -0.0014771526375816216 0.13572747728299411 0.022327468648625379 0.08238138218078131 0.080169542670064348 -0.054988048354818068 0.067987847046090649
leaf_weight=100103.46626782417 481.87558507919312 14829.036120891571 3906.0107793807983 21560.98797750473 977.37400341033936 9972.6574742794037 3958.7962172031403 296.10750246047974 12723.819223403931 1816.2096872329712 16384.276001214981 1359.4893190860748 17804.59351348877 2051.2455697059631 8461.9421904087067 574.15438079833984 1989.7585153579712 3324.3472208976746 417.9631450176239 18384.446934938431 20538.070126533508 7832.1070196628571 716.2210545539856 42648.784326791763 8283.8865098953247 10509.968902826309 7814.2019939422607 3003.9280772209167 537.47774744033813 1811.8711180686951 15084.519870281219 2296.6247787475586 752.30942106246948 4926.3603091239929 245.01005554199219 428.81606483459473 435.13544964790344 1196.306485414505 1748.5565812587738 4336.4528636932373 12132.052865982056 10933.462367773056 5756.4144973754883 1899.8851840496063 2708.5889780521393 5946.1531476974487 69858.824380397797 574.64030575752258 1141.7446312904358 1095.802579164505 892.5330057144165 11644.83339548111 17150.003084659576 12114.948135375977 5061.5178389549255 994.0387966632843 1886.1902961730957 698.76414179801941 3423.614631652832 716.63346576690674 71460.763730764389 160.70816659927368
leaf_count=21218 169 2104 199 1148 37 1131 1565 118 2296 601 3557 116 1769 194 427 43 173 221 131 459 2830 1405 117 6840 986 985 486 332 93 456 1302 767 176 340 29 107 52 233 162 368 1135 1187 566 580 300 591 16251 51 85 156 88 1777 1194 809 242 103 35 128 280 41 13784 24
internal_value=-2.45512e-05 -0.0448895 0.0806107 0.109278 0.0504797 -0.0122882 -0.0599473 -0.0161306 -0.0613223 0.0338282 -0.02029 0.0648492 0.0310308 -0.0287226 0.0940302 -0.00226816 0.0854002 0.0514644 0.00789926 0.137016 0.0124406 -0.0507259 0.0353951 -0.0319492 0.0398744 0.0762034 0.0851506 0.0732892 0.0837641 -0.00608027 0.0744712 -0.0195854 0.00865849 0.0892002 0.0521731 -0.00513078 0.0316659 0.0586051 0.0458071 0.0650544 0.0647982 0.0174691 0.0352381 0.0103351 0.0150654 0.0434659 -0.0670589 -0.0255443 0.0487695 0.0477464 0.0593378 0.0050806 0.103538 0.0994234 0.0939299 0.0864078 0.102652 0.089077 0.0658555 0.0327531 -0.0528741 -0.0221844
internal_weight=614777 395002 219776 112622 107154 124801 270201 8221.58 261979 4262.78 94290.2 61622.6 45531 64234 72676.8 30056.2 2446.57 28284.7 5200.97 39945.4 30510.7 92016.7 12828.3 59033.1 12112.1 33337.9 18491.5 10677.3 34949.9 28285.7 18263.1 3149.72 2686.44 6577.56 1651.2 673.826 853.099 1770.46 3178.57 14846.4 15456.4 21780.2 6238.29 15541.9 13642.1 23750.7 169962 1326.95 9425.63 4099.73 2641.09 13456.7 37726.9 29265 16686.8 11625.3 6490.97 4604.77 5134.29 1710.67 84184.6 456.816
internal_count=95149 77550 17599 6710 10889 20115 57435 2481 54954 916 16154 5727 5162 11541 5103 4613 315 2887 1144 1607 3961 17485 1531 10397 1414 2840 1487 1001 2673 4337 1645 950 343 513 173 136 183 276 343 1353 1356 2802 735 2067 1487 2360 37469 227 1071 488 250 2233 2430 2003 1028 786 362 327 424 144 16080 142
is_linear=0
shrinkage=0.05


Tree=2
num_leaves=63
num_cat=0
split_feature=16 10 21 10 10 10 23 23 27 17 15 8 21 21 0 10 10 12 0 10 7 10 10 24 21 19 21 17 18 27 21 23 23 24 16 17 12 18 8 21 8 25 14 19 0 23 21 8 19 24 0 25 29 23 19 27 16 8 23 7 17 13
split_gain=813457 108892 71238.3 15600.3 13249.4 9174.83 6458.8 6231.01 8339.41 6655.29 5575.41 5459.8 4012.76 2833.61 2634.9 2540.74 2396.87 2871.74 2339.36 2264.33 2208.39 2129.27 1733.63 1569.88 1411.01 1403 1222.81 1204.99 1200 1113.4 1052.66 1036.47 973.622 1255.03 967.772 881.743 835.287 1936 908.912 835.115 826.256 796.453 1015.75 764.702 756.377 732.128 695.224 684.913 682.912 627.392 613.577 567.437 558.365 555.349 783.996 523.814 523.374 477.784 475.511 573.111 459.99 459.343
threshold=19.500000000000004 33.250000000000007 2.1980330944061284 102.56250000000001 13.250000000000002 5.5000000000000009 23.742011070251468 13.45277261734009 11.500000000000002 0.69642856717109691 3.5000000000000004 24.500000000000004 12.160168647766115 3.9353027343750004 7.5000000000000009 53.500000000000007 3.5625000000000004 0.50000000000075007 24.500000000000004 1.5000000000000002 1.0000000180025095e-35 2.7500000000000004 202.00000000000003 147.50000000000003 27.015060424804691 18.294643402099613 21.865940093994144 1.1250000000000002 37.176338195800788 12.500000000000002 3.1617875038136849e-06 4.1353384256362924 6.651315689086915 144.50000000000003 142.75000000000003 4.9330356121063241 89.500000000000014 39.553571701049812 4.5000000000000009 32.093961715698249 4.5000000000000009 1.6429706215858462 44.500000000000007 57.232141494750984 23.500000000000004 7.2021851539611825 25.186054229736332 1.5000000000000002 17.446428298950199 152.50000000000003 21.500000000000004 1.3886365890502932 0.91071426868438732 21.538416862487797 32.732143402099616 49.500000000000007 133.50000000000003 56.500000000000007 17.097744941711429 1.0000000180025095e-35 1.553571403026581 31.500000000000004
decision_type=2 2 2 2 2 2 2 2 2 2 2 2 2 2 2 2 2 2 2 2 2 2 2 2 2 2 2 2 2 2 2 2 2 2 2 2 2 2 2 2 2 2 2 2 2 2 2 2 2 2 2 2 2 2 2 2 2 2 2 2 2 2
left_child=2 4 7 15 11 6 19 9 -9 30 18 16 48 -7 27 46 17 20 44 32 28 60 -5 39 55 -18 -22 -8 -2 -19 -1 -21 47 58 41 -23 38 -38 -31 -16 52 42 53 -17 -10 -15 -3 -4 -6 -29 -40 -20 -25 -13 57 -14 61 -55 -34 -60 -11 -26
right_child=1 3 5 22 12 13 14 8 10 21 -12 34 24 45 23 43 25 29 51 31 26 35 -24 40 56 -27 -28 49 -30 36 -32 -33 33 -35 -36 -37 37 -39 50 -41 -42 -43 -44 -45 -46 -47 -48 -49 -50 -51 -52 -53 -54 54 -56 -57 -58 -59 59 -61 -62 -63
leaf_value=-0.07014426653464545 0.0022407697893039617 0.081426110870690169 -0.049930442189933991 0.12802264557113391 0.038193713728310985 -0.0098980373999831405 0.12888041177983642 -0.069812597741517574 -0.071175916010754847 -0.055806573850436442 -0.034555338657844541 0.026617226093221081 0.063824492925055348 0.0070824627402400839 0.0028231279968126527 0.099352040326544669 0.020582518755973632 -0.036430933379180609 0.1238653704473528 -0.026997057719628272 0.013803484225504939 -0.037713018576535653 0.15011485283822151 -0.044052123969237904 0.096412124373389682 0.049930874451132728 0.094409617867353468 0.069286995823312478 0.061877812663885506 -0.021017007233570601 -0.061960286006152554 -0.010024781869642665 -0.019742615275386909 -0.043121783554450156 0.099333616822981377 -0.00045125551157896589 0.067235824776334593 -0.043499377076114037 -0.0048281947314079681 0.071233045074327719 0.026487193336761802 0.0043525445624005349 0.071072570873814328 0.11305118619988577 0.064070128593616243 0.024435805074960477 0.098523410370846498 -0.032524823203120584 0.055889306814547873 -0.014962738728342796 0.035235840520442291 0.06655798141872675 0.048345914329807463 0.04824821481082045 0.010297397504582331 0.098321161089841541 0.12021821812629135 0.08366027906264506 -0.010013088731487771 0.045224801506987468 -0.046564819661872037 0.066444812763252481
leaf_weight=95336.081093072891 5061.5475549697876 22875.016592741013 12448.924853801727 24514.370309829712 15480.033445835114 16049.906317472458 698.85073471069336 3771.4091312885284 281.71357488632202 54250.93429350853 1781.1002871990204 3768.515709400177 18647.305001735687 10582.144908189774 785.77624893188477 26347.545153141022 17396.132672309875 2956.0833020210266 1333.1302044391632 17042.520195007324 672.39663147926331 15191.450593709946 14016.031482696533 1771.0175704956055 3476.5065183639526 5317.2127921581268 1568.9701480865479 740.59856128692627 1011.2120513916016 5522.826587677002 67029.318326473236 19053.340584754944 5792.1166286468506 5651.1732280254364 962.52685046195984 1772.9538359642029 1162.4292478561401 596.53331470489502 2567.9222092628479 1031.3157014846802 739.96270298957825 993.80372166633606 4186.1423001289368 16762.799917697906 162.03508377075195 14282.298558712006 8079.0669169425964 10369.548645496368 8430.4181325435638 314.32295632362366 1520.9098353385925 645.16243386268616 179.30548477172852 2573.0741391181946 919.25562500953674 1172.5578320026398 1345.5471663475037 1518.6014399528503 1455.4914827346802 692.04120492935181 17967.067676544189 2041.77277135849
leaf_count=21218 852 1826 2641 907 1501 2255 34 1565 118 10615 601 488 1637 1375 75 1578 1979 529 80 2411 126 2903 300 621 213 490 102 74 78 1003 16251 2954 785 1987 91 257 101 106 412 79 163 92 337 1125 24 1800 507 1721 831 90 185 93 33 262 114 74 64 96 284 98 3710 228
internal_value=-4.88884e-05 0.0756219 -0.0446419 0.110256 0.0404479 -0.0127288 -0.0227063 -0.0593587 -0.0158434 -0.0607382 0.0325874 0.0246115 0.0593139 0.00647938 0.0260135 0.0968297 0.0159793 0.00446623 0.0819561 -0.0269138 0.02784 -0.0497632 0.136063 0.00577549 0.0726442 0.0274549 0.0702452 0.0779942 0.0121798 -0.00909911 -0.0667661 -0.0180387 -0.0357117 -0.025114 0.0508457 -0.033819 -0.00199092 0.0296778 -0.00778887 0.0416679 -0.0184737 0.0474955 0.0508018 0.104681 -0.0217577 0.0170509 0.0858916 -0.0420225 0.044435 0.0441937 0.0100793 0.105219 -0.035537 0.0411295 0.052036 0.0658702 0.0921924 0.0614084 -0.0122928 0.00780005 -0.053508 0.0853382
internal_weight=602668 223465 379203 112595 110870 119681 78766.3 259522 7974.55 251548 4203.14 60276.1 50594.1 40914.3 6261.15 74064.4 45354.2 22640.8 2422.04 72505.2 8314.13 89182.4 38530.4 4507.38 26683.7 22713.3 2241.37 1753.77 6072.76 14326.7 162365 36095.9 36409.3 13590.8 14921.9 16964.4 11370.6 1758.96 9611.66 1817.09 2690.29 13959.4 12965.6 43110.3 443.749 24864.4 30954.1 22818.5 23910.5 1054.92 4088.83 1978.29 1950.32 8779.45 5010.93 19819.9 6863.83 4091.68 7939.65 2147.53 72218 5518.28
internal_count=95149 18234 76915 6243 11991 19480 14050 57435 2481 54954 916 7443 4548 5430 1169 5036 5963 3494 315 12881 1158 17485 1207 971 2216 2469 228 198 930 2336 37469 5365 7516 3154 1480 3160 1807 207 1600 154 817 1389 1297 2703 142 3175 2333 4362 2332 164 597 173 654 960 472 1711 505 358 1167 382 14325 441
is_linear=0
shrinkage=0.05


Tree=3
num_leaves=63
num_cat=0
split_feature=16 19 21 19 16 23 23 26 2 8 23 8 27 27 8 8 26 2 17 23 19 24 27 15 2 17 2 27 2 11 16 8 19 2 23 24 8 8 24 2 19 19 17 26 2 26 2 24 2 15 24 19 24 8 26 24 12 2 16 15 23 15
split_gain=744027 77549.4 62737.5 19926 12850.3 6553.45 6136.89 5354.69 4198.47 4150.49 3940.97 3343.38 3084.33 2603.58 2603.06 2560.02 2637.43 2078.22 2054.17 2048.79 2043.84 2495.32 7428.33 2187.64 1958.11 1912.61 1636.62 1341.87 1837.85 1303.86 1267.69 1267.65 1226.07 1225.62 1189.76 1520.36 1125.37 1125.1 3142.57 1663.17 1082.18 1003.22 964.738 962.573 1216.56 954.31 1124.07 1150.27 953.896 903.106 1161.36 874.647 834.46 802.939 761.88 711.847 687.134 933.183 668 663.499 661.086 656.758
threshold=17.750000000000004 31.330357551574711 2.1713927984237675 72.375000000000014 33.750000000000007 4.3627820014953622 0.76327538490295421 6.6685855388641366 1.5000000000000002 5.5000000000000009 90.383930206298842 6.5000000000000009 11.500000000000002 12.500000000000002 165.81250000000003 42.750000000000007 6.0000000000000009 1.5000000000000002 6.4330356121063241 23.742011070251468 1.5803571343421938 176.50000000000003 11.500000000000002 3.5000000000000004 1.0000000180025095e-35 0.16071429103612903 1.5000000000000002 12.500000000000002 5.5000000000000009 3.5625000000000004 0.50000000000075007 0.50000000000075007 3.7500000000000004 1.0000000180025095e-35 20.267857551574711 147.50000000000003 23.500000000000004 7.7500000000000009 179.50000000000003 1.5000000000000002 1.964285731315613 4.3214285373687753 14.933035850524904 5.0855264663696298 4.5000000000000009 2.6332236528396611 1.5000000000000002 27.500000000000004 1.0000000180025095e-35 11.500000000000002 174.50000000000003 50.589286804199226 103.50000000000001 0.50000000000075007 33.947366714477546 145.50000000000003 37.750000000000007 3.5000000000000004 0.50000000000075007 11.500000000000002 21.970042228698734 11.500000000000002
decision_type=2 2 2 2 2 2 2 2 2 2 2 2 2 2 2 2 2 2 2 2 2 2 2 2 2 2 2 2 2 2 2 2 2 2 2 2 2 2 2 2 2 2 2 2 2 2 2 2 2 2 2 2 2 2 2 2 2 2 2 2 2 2
left_child=2 4 6 15 11 24 25 -6 19 13 20 45 -12 53 -5 16 43 54 34 31 21 30 -23 27 -4 -1 -13 28 -24 58 61 -7 -26 -15 40 -36 -19 38 39 55 -10 -22 59 44 52 -2 47 -47 -17 -37 -51 -50 -3 -9 60 -18 -41 -58 -21 -28 -11 -8
right_child=1 3 5 14 7 8 10 9 18 17 12 26 -14 33 -16 48 37 36 -20 29 41 22 23 -25 32 -27 42 -29 -30 -31 -32 -33 -34 -35 35 49 -38 -39 -40 56 -42 -43 -44 -45 -46 46 -48 -49 51 50 -52 -53 -54 -55 -56 -57 57 -59 -60 -61 -62 -63
leaf_value=-0.070672605690918641 0.048746945507732786 0.088919231358838224 -0.0055474694000595438 0.11777811098460833 0.088329267409929857 -0.015197473641132588 -0.067165410488749994 -0.038115240665701489 -0.044645681508087398 0.067114103622276419 -0.071189812053655863 0.047869068091444714 0.12818422785271197 -0.017553859972066422 0.14404198454232786 0.10831959673155243 -0.037078908370687981 0.039344152061580769 0.0029051523293712055 0.10586569909627525 -0.040299979050291396 -0.07140813328735221 -0.071222325164536859 -0.038465935350293808 -0.040182351089164701 -0.059462999273530548 0.016016861136576934 0.09421897343716687 0.10245637492100526 0.0026560130193312975 -0.051424743199621585 0.015109539534617022 -0.021788086348533839 0.042600430205075229 0.041079234478416146 -0.033399114969414043 0.060235576619838353 0.072777072249000249 0.10435978192622433 0.07788517660171837 -0.019106186999814812 -0.0032245438875293645 0.039924615276650643 0.13105702326074939 0.10535680289980548 -0.041867124173384035 -0.0038587183887055301 0.031412358397519748 0.081362712148917202 0.093405921625935098 -0.042479000927763681 0.098212059395120663 0.023950710569183204 0.028290658908667079 0.029466927432057189 0.035072151251659703 0.067641998270032686 -0.0084869695170157952 0.046039275428065941 0.052435606454773721 0.091661018114966408 -0.020260480478882164
leaf_weight=76652.793781757355 1323.9160022735596 1029.4580454826355 7724.2973756790161 20937.147214889526 11773.410584449768 4486.2498986721039 24617.381548881531 1783.1373438835144 5155.7887115478516 5305.5192129611969 298.16376066207886 13149.718645095825 551.43399858474731 934.4754650592804 17251.055660963058 8628.3452162742615 1116.4039690494537 11384.937614679337 14289.141754627228 989.46574211120605 21699.877745866776 3494.1047954559326 345.32295346260071 666.19415545463562 23671.448360919952 75697.041216850281 15108.425936460495 1349.6872801780701 270.91563749313354 839.36514520645142 39635.218928098679 14930.493635177612 14682.741627216339 8970.3326473236084 1694.8390543460846 2254.5582194328308 14888.915195465088 18757.212085723877 1770.9717860221863 1175.7032585144043 21220.029183149338 1992.2689635753632 8318.1962611675262 1873.9768285751343 4181.3628814220428 600.19444966316223 11985.96257019043 4909.9074418544769 16037.361958026886 358.36520910263062 278.7629566192627 14921.859782218933 951.71461725234985 610.31531858444214 806.48111081123352 491.63020610809326 764.41802644729614 848.65287256240845 887.17355275154114 1362.8176856040955 5721.9974133968353 770.7113733291626
leaf_count=17808 187 36 1094 1148 731 1007 6448 352 1414 375 128 1152 31 176 459 441 161 1219 1928 66 4294 1536 144 231 4377 17195 1802 135 24 176 8684 1848 2055 1090 168 764 1345 1559 144 82 3771 310 813 27 172 199 1789 533 1117 37 97 1025 71 49 105 96 71 101 154 129 285 184
internal_value=-7.21132e-05 0.0703003 -0.0447822 0.100411 0.0422656 -0.0139848 -0.0588699 0.0579677 -0.00404779 0.0508745 -0.0489451 0.0250633 0.0582131 0.0256156 0.129646 0.0850202 0.0747201 0.0590253 -0.0127762 0.0137976 -0.0499056 -0.0541417 -0.0236305 0.0397968 -0.028516 -0.0651034 0.0336101 0.0663238 0.00517395 0.0544641 -0.0570159 0.00810666 -0.0331414 0.0369239 -0.020013 0.00349053 0.0511848 0.0666833 0.0481423 0.0254801 -0.0241 -0.0371826 0.0260447 0.0996347 0.0900597 0.00783297 0.00473443 0.0234242 0.0935941 -0.0185471 0.0339787 0.0894867 0.0577375 -0.0211774 0.0764269 -0.0150118 0.0488252 0.0276093 0.0776226 0.0190331 0.0798583 -0.0657424
internal_weight=591180 229676 361504 110737 118939 113463 248041 62179.5 67384.2 50406.1 95691.3 56759.1 849.598 12298.3 38188.2 72549.1 32961.5 38107.9 45251.5 22132.7 94841.7 71149.5 6126.22 2632.12 46078.5 152350 37939.2 1965.93 616.239 2716 65023.3 19416.7 38354.2 9904.81 30962.3 4586.53 26273.9 24925 6167.78 4396.81 26375.8 23692.1 24789.4 8036.51 6162.54 18820 17496.1 5510.1 39587.6 2891.69 637.128 30959.2 1981.17 2393.45 11834 1608.03 2788.77 1613.07 1876.64 16471.2 11027.5 25388.1
internal_count=95149 19041 76108 6710 12331 18956 57152 5727 11430 4996 22149 6604 159 1667 1607 5103 2520 3329 8179 3251 21990 17386 2070 534 7526 35003 3896 303 168 396 15316 2855 6432 1266 6251 1066 2564 2214 655 511 5185 4604 2744 306 279 2708 2521 732 2583 898 134 2142 107 401 765 257 254 172 220 1931 660 6632
is_linear=0
shrinkage=0.05


Tree=4
num_leaves=63
num_cat=0
split_feature=19 10 21 10 10 23 10 23 27 21 15 8 21 26 26 23 10 2 10 10 0 10 19 26 25 2 27 21 8 18 15 0 25 2 10 19 21 29 11 0 8 21 10 12 22 21 2 26 2 2 11 22 2 23 25 22 25 11 27 8 29 23
split_gain=679019 101339 63559.5 14871.9 12847.3 8689.5 7378.12 5826.25 7554.24 6149.23 4577.72 3921.84 3893.53 3249.16 3129.47 2540.49 2194.65 2135.51 2097.59 1990.35 1955.55 1864.89 1844.66 1819.09 1873.88 1677.73 1689.62 1732.86 1620.92 1398.13 1470.65 1756.44 1348.92 1328 1249.05 1193.67 1163.46 1046.98 1011.66 942.922 890.165 829.644 819.259 761.036 760.292 759.88 759.604 701.763 643.725 629.306 1114.91 733.517 587.657 595.465 573.535 576.781 557.49 555.527 547.901 546.822 543.282 535.405
threshold=7.5803573131561288 35.812500000000007 2.1087732315063481 102.56250000000001 13.250000000000002 20.267857551574711 3.5625000000000004 13.45277261734009 11.500000000000002 0.83323410153388988 3.5000000000000004 24.500000000000004 12.160168647766115 13.113486766815187 1.200657904148102 4.3853383064270028 202.00000000000003 1.5000000000000002 3.5625000000000004 4.5000000000000009 24.500000000000004 2.7500000000000004 53.589286804199226 29.467104911804203 1.6429706215858462 1.5000000000000002 12.500000000000002 31.047022819519047 1.5000000000000002 27.591518402099613 11.500000000000002 5.5000000000000009 1.6429706215858462 1.5000000000000002 23.500000000000004 18.294643402099613 27.015060424804691 0.19642857462167743 8.5000000000000018 8.5000000000000018 16.500000000000004 3.1617875038136849e-06 7.7500000000000009 0.50000000000075007 38.937145233154304 32.093961715698249 4.5000000000000009 2.2500000000000004 1.5000000000000002 2.5000000000000004 1.5000000000000002 21.395371437072757 2.5000000000000004 21.970042228698734 1.6429706215858462 22.919631958007816 1.3886365890502932 4.5000000000000009 8.5000000000000018 78.500000000000014 0.8392857313156129 1.7979323267936709
decision_type=2 2 2 2 2 2 2 2 2 2 2 2 2 2 2 2 2 2 2 2 2 2 2 2 2 2 2 2 2 2 2 2 2 2 2 2 2 2 2 2 2 2 2 2 2 2 2 2 2 2 2 2 2 2 2 2 2 2 2 2 2 2
left_child=2 4 7 22 11 6 28 9 -9 41 20 14 34 -7 -2 48 -5 19 25 -13 46 61 38 49 44 37 58 54 -4 30 40 -32 52 -17 -6 -20 57 -16 -3 -33 42 -1 45 -34 -25 60 -10 -35 -8 50 -19 -51 53 -29 55 -28 -22 -14 -27 -24 -15 -11
right_child=1 3 5 16 12 13 15 8 10 21 -12 17 36 29 18 33 -18 23 35 -21 56 -23 59 24 -26 26 27 32 -30 -31 31 39 43 47 -36 -37 -38 -39 -40 -41 -42 -43 -44 -45 -46 -47 -48 -49 -50 51 -52 -53 -54 -55 -56 -57 -58 -59 -60 -61 -62 -63
leaf_value=-0.069971671330806395 0.079189573380782113 0.091125487714317929 -0.039797443452196497 0.11953172602277971 0.031998144749825631 0.069969533804684805 -0.0068513028116527755 -0.069573226813489722 -0.071166791475807997 -0.054709796959902225 -0.032599920513405829 -0.049275010386363248 0.073949152390749201 -0.015227113952855751 0.031092996823986609 0.018689793370192932 0.14502774282621039 -0.050027514336413996 0.015470289306828795 0.051403632253375645 0.11634581427621725 -0.034018841671798652 0.094703768018235476 0.061336104531303982 -0.00099428951231887545 -0.0066631584158278207 -0.0016082104136114701 0.070819544301099546 -0.022788965871964509 -0.040519535239178166 0.11922283240447254 0.072018023227507319 0.038066952539762819 0.048290685343345449 0.053457780574208018 0.041763918106689599 0.083222649547407698 -0.040279657269486818 0.076329200282895693 -0.056153509388580429 0.054090747929401155 -0.061574565100682981 0.035528741869792269 -0.030134111051386726 0.096773906110120544 0.036308513028655121 0.069227495852304408 -0.0077458150090431235 -0.024102800683337044 0.025399405796537457 0.03200004291300871 0.072398004185293838 0.084113582273424414 -0.01320905216771881 -0.059435896674384314 0.040585746991171845 0.05940734849874213 0.055738965665132201 -0.054951359852214034 0.11089339336710907 0.038714170096491113 -0.040744010882651456
leaf_weight=86535.160104990005 1793.1364884376526 22648.255535364151 26662.339747667313 23785.294342279434 17940.709805250168 2872.9807891845703 10005.005696296692 3420.9207963943481 271.8568913936615 74409.852356672287 1637.57182264328 1097.9240689277649 5579.2500436306 5253.1151177883148 602.15592408180237 12499.623862028122 13142.857330799103 588.98171758651733 25219.481369972229 886.25197267532349 1291.2146437168121 14599.375290155411 13134.453447818756 3168.2668268680573 848.37222862243652 1121.4895966053009 6431.788961648941 455.43453669548035 29526.129402637482 1195.3089802265167 709.58886480331421 260.93283748626709 879.03589248657227 587.95727682113647 10908.294783115387 5207.5314574241638 7307.515257358551 3476.1556496620178 23710.899049758911 316.34237766265869 1006.0088694095612 44708.810518026352 1687.82044506073 763.29479694366455 2913.9636731147766 1022.7871642112732 147.98892068862915 10881.640356779099 11768.918116569519 2254.2591826915741 1389.838191986084 1314.9106540679932 1508.4821395874023 391.32666420936584 377.13180303573608 925.61177635192871 649.79889512062073 16963.599966287613 1233.3067450523376 8757.5832657814026 511.35125732421875 7576.6308038234711
leaf_count=21224 113 1337 5989 907 1722 218 1341 1565 120 16064 580 184 493 1303 66 1620 300 114 2915 69 79 2840 1016 268 67 137 1037 39 4922 340 45 35 54 106 1073 481 542 714 1626 107 120 12308 289 80 152 132 22 1703 1739 254 169 113 127 66 57 141 93 1395 261 500 94 1562
internal_value=-9.51656e-05 0.0669768 -0.043676 0.103047 0.0362686 -0.0135193 -0.018723 -0.0586443 -0.0150383 -0.0600643 0.0316256 0.0209281 0.0532154 0.0222315 0.0143398 -0.00381386 0.12861 0.0438779 0.0119451 -0.00430265 0.0761696 -0.0504875 0.0892144 0.0515387 0.0686188 -0.00149973 0.00667667 0.0144349 -0.0308603 0.0107623 0.0164581 0.0665928 0.0411595 0.00741672 0.040114 0.0199716 0.0658756 -0.0297366 0.0835596 0.00180536 0.00964703 -0.0671117 0.00436571 0.00637056 0.0783273 -0.00338785 -0.0216331 -0.0048693 -0.0161765 0.0301934 0.00757219 0.0427295 0.065405 0.0320164 0.000618878 0.00370487 0.0973248 0.060249 -0.0319663 0.101185 -0.0104362 -0.0534197
internal_weight=580744 228727 352017 105179 123548 116768 101932 235249 7419.35 227830 3998.43 64848.1 58699.4 14836.2 50385.4 45743.1 36928.2 14462.8 48592.2 1984.18 2360.86 96585.9 68251.2 12478.6 6930.6 18165.2 14086.9 11732.1 56188.5 11963.3 10767.9 1286.86 3997.57 23969.2 28849 30427 29850.4 4078.31 46359.2 577.275 9481.08 131244 8475.07 1642.33 6082.23 6787.25 419.846 11469.6 21773.9 5547.99 1978.82 3569.17 2355.24 846.761 7734.53 7357.4 1941.01 22542.9 2354.8 21892 5764.47 81986.5
internal_count=95149 18589 76560 5686 12903 20103 17420 56457 2459 53998 894 7678 5225 2683 6288 6509 1207 1390 6175 253 314 20466 4479 1137 487 2779 1999 1601 10911 2465 2125 187 366 3429 2795 3396 2430 780 2963 142 1938 33532 1818 134 420 1529 142 1809 3080 650 283 367 232 105 1235 1178 172 1888 398 1516 1397 17626
is_linear=0
shrinkage=0.05


Tree=5
num_leaves=63
num_cat=0
split_feature=16 10 18 10 16 23 10 27 17 23 26 8 15 16 26 10 17 23 2 26 24 0 27 0 23 10 10 16 25 16 24 0 17 2 12 24 19 2 26 24 24 2 2 17 0 11 2 8 2 8 16 10 10 27 25 25 24 17 2 2 27 18
split_gain=621740 94030 57755.2 14721 13131.4 7976.01 7723.88 7539.28 5580.42 4745.14 4431.25 5675.52 3363.71 3209.71 2589.57 2446.92 2326.66 1975.26 1928.68 1921.93 1763.8 1652.36 1629.33 1726.11 1565.01 1504.86 1461.63 1400.55 1490.61 1372.66 1346.33 1227.2 1485.01 1138.25 1417.33 1161.35 915.497 915.482 915.196 871.48 857.928 809.973 808.783 956.151 830.403 798.923 763.054 740.268 707.983 694.503 691.668 691.509 648.322 644.902 622.56 621.709 594.046 579.414 593.606 574.014 557.334 546.101
threshold=17.750000000000004 40.500000000000007 1.7946428656578066 13.250000000000002 125.81250000000001 13.45277261734009 5.5000000000000009 11.500000000000002 0.41071428358554846 20.267857551574711 2.9506578445434575 5.5000000000000009 3.5000000000000004 33.750000000000007 24.517270088195804 202.00000000000003 3.2321428060531621 1.6936090588569643 1.5000000000000002 13.113486766815187 147.50000000000003 24.500000000000004 37.500000000000007 18.500000000000004 7.3611514568328866 5.5000000000000009 69.500000000000014 54.500000000000007 1.6429706215858462 132.50000000000003 27.500000000000004 5.5000000000000009 0.98214286565780651 1.5000000000000002 0.50000000000075007 27.500000000000004 21.589285850524906 1.5000000000000002 22.856907844543461 35.500000000000007 145.50000000000003 2.5000000000000004 3.5000000000000004 19.933035850524906 25.500000000000004 1.5000000000000002 1.0000000180025095e-35 4.5000000000000009 4.5000000000000009 34.500000000000007 27.500000000000004 23.500000000000004 1.5000000000000002 12.500000000000002 1.1706593632698061 1.3913584351539614 103.50000000000001 6.4330356121063241 1.5000000000000002 1.5000000000000002 49.500000000000007 1.2554772217503176e-12
decision_type=2 2 2 2 2 2 2 2 2 2 2 2 2 2 2 2 2 2 2 2 2 2 2 2 2 2 2 2 2 2 2 2 2 2 2 2 2 2 2 2 2 2 2 2 2 2 2 2 2 2 2 2 2 2 2 2 2 2 2 2 2 2
left_child=2 3 5 10 26 8 9 -7 61 16 50 25 21 51 30 -6 37 46 20 -11 -16 48 -14 -24 57 33 -3 -20 -29 45 41 32 -21 40 42 38 60 -4 -36 -33 54 -13 44 -44 -35 -15 -10 -18 -9 59 -2 -5 -19 -37 -12 -23 -28 58 -8 -47 -32 -1
right_child=1 4 6 13 15 7 24 12 17 19 11 14 22 29 18 -17 47 52 27 31 -22 55 23 -25 -26 -27 56 28 -30 -31 36 39 -34 34 35 53 -38 -39 -40 -41 -42 -43 43 -45 -46 49 -48 -49 -50 -51 -52 -53 -54 -55 -56 -57 -58 -59 -60 -61 -62 -63
leaf_value=-0.069856658346436284 0.022101564594384181 0.079812463628846891 -0.023848007669448945 0.032972810876444436 0.11484943502020054 -0.069446305505361808 6.847010720463433e-05 -0.071153474523807672 -0.043069882502746508 0.061375800603280045 0.012167468239028936 -0.057888878343572182 -0.03849159077165857 0.073448379794818983 -0.060538067847074044 0.14200166801039324 -0.024645874849205621 -0.042721343406348561 0.029900855375611726 0.12163815692708158 0.069170817303453189 0.10663806568256427 0.11586300683008642 -0.025087188997536709 0.01837349757063805 0.019259076801461435 0.085505361907869837 0.071184771506570904 0.00091564274828353847 0.10503960337732904 0.014108573786056972 0.046379726145201923 0.0049690238342687612 -0.010696393301621756 -0.026635296564177582 -0.048508785550931771 0.041641682238001486 -0.041296958248578756 0.064568877369587441 -0.016969985504854065 0.010160153258819355 0.010368056825210886 0.0096470165836224347 0.095125485346014241 0.051396909699342658 0.063419158002139375 -0.056251844041646099 -0.010393785358471236 0.065254776011096638 0.064252286190406155 0.08012154285720445 0.049980670948166467 -0.02034831910440096 -0.014097030194099081 -0.053247491237281633 0.044968920788973896 0.10131275182884424 0.0081501393014740599 -0.01819485705719345 0.043255500192206309 0.053044778485471338 -0.062073541380860534
leaf_weight=81904.180983066559 610.69465494155884 35256.280494451523 10407.379945278168 17156.100677967072 23887.618994474411 3268.6185910701752 9643.3313794136047 258.64565682411194 12977.952671289444 1612.102198600769 414.77874231338501 892.00092434883118 1775.2625188827515 8025.0162446498871 776.56185436248779 12761.689318180084 22548.761981725693 7928.5032637119293 5137.871541261673 421.68011879920959 394.38542222976685 1439.599084854126 431.43291187286377 435.8310375213623 12115.992396354675 5364.1568737030029 9456.7534840106964 6939.1364698410034 846.81219363212585 1721.312771320343 17654.045539855957 611.88953924179077 769.15479326248169 2073.7008998394012 431.84240388870239 1743.0438041687012 4337.977489233017 27116.841945171356 754.44541215896606 4753.8067853450775 886.42052984237671 846.23497891426086 644.97656083106995 663.44060468673706 726.17528295516968 4964.8593173027039 71937.973007678986 15292.235326528549 149.17870783805847 13407.410274982452 3263.5004892349243 9182.233332157135 5478.3542654514313 6214.5404493808746 2934.5615582466125 573.62187933921814 16261.372438192368 7559.2611255645752 8259.1614263057709 12273.489785194397 968.73130917549133 31236.551158189774
leaf_count=21076 105 2426 2015 1638 975 1568 1246 120 2811 128 34 218 659 644 106 300 3922 1955 666 22 54 101 35 142 1723 611 439 521 69 90 1804 74 156 299 108 349 477 5893 78 1230 216 198 117 40 69 376 16710 2236 22 1091 208 846 1077 999 630 93 1011 909 1199 1148 81 8986
internal_value=-0.000117039 0.0634323 -0.0429685 0.0359569 0.100652 -0.0582452 -0.0152438 -0.0102604 -0.0601359 -0.0237127 0.0191214 0.015861 0.0279512 0.0524865 0.0275048 0.124308 -0.0276359 -0.0514215 0.044605 0.0124832 -0.0168292 0.070514 -0.0110561 0.0450832 0.00358225 -0.00390586 0.0864323 0.0501721 0.0635433 0.0613422 0.0177449 0.000454073 0.0463495 -0.0110121 -0.00379932 -0.0147594 0.020957 -0.0364582 0.0313735 -0.00973846 -0.0335719 -0.0246721 0.0205923 0.0530289 0.00542071 0.0593944 -0.0542377 -0.0188868 -0.0212189 0.055712 0.0709838 0.0389039 -0.0335814 -0.0216398 -0.0451454 0.0890979 0.0955038 -0.00345661 -0.0083577 0.0490662 0.0161367 -0.0677084
internal_weight=570781 229874 340907 132250 97623.7 219796 121112 8332.19 211464 83533.9 65520 61645.8 5063.57 66730.4 38793.8 36649.3 75365.2 98322.8 14094.8 8168.63 1170.95 2421.05 2642.53 867.264 37577.7 22852.1 60974.4 12923.8 7785.95 40392.1 24699 6556.53 1190.83 17487.9 13252.2 9143.87 22960.8 37524.2 1186.29 5365.7 4235.76 1738.24 4108.29 1308.42 2799.88 38670.8 84915.9 37841 407.824 30645.8 3874.2 26338.3 13406.9 7957.58 3349.34 2013.22 25718.1 25461.8 17902.5 17238.3 18622.8 113141
internal_count=95149 19041 76108 13890 5151 55355 20753 2740 52615 15676 8057 7744 1172 5833 4194 1275 14066 22553 1416 1610 160 336 836 177 5077 3550 3876 1256 590 3349 2778 1482 178 2939 2059 1534 2362 7908 186 1304 880 416 525 157 368 3259 19521 6158 142 2615 313 2484 3032 1348 664 194 1450 3354 2445 1524 1885 30062
is_linear=0
shrinkage=0.05


Tree=6
num_leaves=63
num_cat=0
split_feature=16 10 18 10 10 23 23 27 17 26 8 15 10 16 10 23 10 26 2 24 23 10 16 16 8 27 27 24 18 19 27 2 16 17 24 23 24 19 2 2 2 2 27 2 8 23 26 8 23 10 16 23 13 2 18 23 10 8 15 27 24 26
split_gain=567670 86246.6 56656.3 13223.5 13001.1 8322.01 7347.43 6959.48 4956.15 3961.54 5078.45 3223.2 3081.34 2881.61 2812.01 2777.66 2616.7 2321.59 1707.85 1626.53 1444.41 1361.83 1316.65 1284.26 1279.87 1231.25 1608.81 1213.68 1169.66 1283.57 1066.55 1103.38 1529.75 1395.88 1083.86 899.427 880.878 830.486 822.681 798.379 766.487 732.693 724.786 1354.5 716.583 709.765 703.179 699.817 682.567 678.962 632.618 589.462 593.249 585.291 581.637 558.557 554.613 554.326 549.539 548.987 544.524 955.338
threshold=17.750000000000004 40.500000000000007 1.616071403026581 102.56250000000001 13.250000000000002 4.3627820014953622 13.45277261734009 11.500000000000002 0.41071428358554846 2.9506578445434575 5.5000000000000009 3.5000000000000004 4.5000000000000009 33.750000000000007 2.7500000000000004 23.742011070251468 202.00000000000003 24.517270088195804 1.5000000000000002 147.50000000000003 1.6936090588569643 5.5000000000000009 89.500000000000014 132.50000000000003 78.500000000000014 37.500000000000007 50.500000000000007 27.500000000000004 41.944196701049812 0.21428572386503222 12.500000000000002 1.5000000000000002 93.062500000000014 39.299106597900398 145.50000000000003 90.383930206298842 144.50000000000003 11.437500000000002 1.5000000000000002 1.5000000000000002 2.5000000000000004 1.0000000180025095e-35 12.500000000000002 5.5000000000000009 0.50000000000075007 36.024435043334968 2.2500000000000004 41.500000000000007 27.097274780273441 69.500000000000014 32.812500000000007 44.680099487304695 0.50000000000075007 1.5000000000000002 1.2554772217503176e-12 29.405779838562015 0.50000000000075007 4.5000000000000009 11.500000000000002 37.500000000000007 92.500000000000014 22.856907844543461
decision_type=2 2 2 2 2 2 2 2 2 2 2 2 2 2 2 2 2 2 2 2 2 2 2 2 2 2 2 2 2 2 2 2 2 2 2 2 2 2 2 2 2 2 2 2 2 2 2 2 2 2 2 2 2 2 2 2 2 2 2 2 2 2
left_child=2 4 6 24 9 14 8 -8 54 50 21 35 15 48 56 36 -5 27 19 -19 41 30 51 47 49 -13 -27 40 29 -17 -11 34 60 -34 -32 42 46 -29 -14 -16 -12 -10 43 -9 -38 55 -7 -15 53 -3 -2 52 -20 -6 -1 -24 -4 -31 -46 -39 61 -33
right_child=1 3 5 16 13 12 7 11 20 10 17 25 38 23 39 28 -18 18 22 -21 -22 -23 45 -25 -26 26 -28 37 -30 57 31 32 33 -35 -36 -37 44 59 -40 -41 -42 -43 -44 -45 58 -47 -48 -49 -50 -51 -52 -53 -54 -55 -56 -57 -58 -59 -60 -61 -62 -63
leaf_value=-0.069743752689542568 0.032861230636110621 0.07412955409229402 -0.047236435693101292 0.11024378939161542 0.041740885475955357 0.03435658864111317 -0.069305522243265652 -0.07118036594470141 -0.042451776192120427 -0.035041515057391968 -0.057132237079485983 -0.038550053201937717 0.017675961519129358 0.051886110759855233 -0.0092407301058320766 0.049448243035536306 0.13868193024303099 -0.059893461938630793 0.070733211702313351 0.065178430184483965 -0.033620110251553051 0.018180473881263374 0.065306757065751786 0.10012746347146534 0.095843957883650382 0.086298997997087054 -0.071123007036608718 0.0062028411743647351 -0.062459751628722797 -0.021609182536261869 -0.045694964643963082 -0.0073921419445839966 0.067748562023792522 -0.013894960453109673 0.027279393973706573 0.12746327868373974 -0.049049017178945969 0.021015560450848847 0.0006947691182435904 -0.025286328273398401 0.0098129019147358554 -0.055853739037671879 0.071381174027203037 0.088357693923565558 -0.023517632983037991 0.095177448558816907 -0.015213446612407462 0.067064622397587231 0.058613051314720534 0.086866548060314366 0.078918247596366911 -0.014001931987951632 0.032374110145598822 0.025939511104186325 -0.061529845426545694 0.016119322396652643 -0.033727246513496893 0.031056495133465801 0.054878471389909589 0.042811375588020867 -0.018425963211147749 0.049616628864871483
leaf_weight=78032.677759170532 1007.5275895595551 33213.86446928978 13457.482640266418 23329.628710269928 11511.70996594429 738.70565629005432 3115.3676791191101 286.77835607528687 12084.321767091751 3543.5429310798645 859.46674823760986 1642.9085474014282 13896.995467424393 28657.916324615479 13573.075046777725 2779.3373827934265 12422.664792060852 746.45083355903625 1201.2352011203766 397.59392380714417 10033.864737033844 5397.4595205783844 2648.3202741146088 1715.6835532188416 12991.789781808853 530.52226781845093 232.76047682762146 7566.0951993465424 393.31571197509766 1345.6980302333832 2452.9452047348022 2878.0054337978363 1505.1575288772583 802.01224279403687 641.21595788002014 499.04322910308838 3691.396630525589 11692.796811342239 14651.641450881958 18082.082772254944 849.3780620098114 65977.065197706223 1356.6585981845856 246.43542861938477 4443.8809127807617 1583.4658744335175 21869.308969259262 10355.667608737946 3113.922278881073 15353.794677972794 2889.9313609600067 574.2134256362915 6275.1829919815063 11954.118941545486 29904.108817338943 738.93655395507812 17490.489907741547 793.33677959442139 234.44360709190369 3838.6157627105713 4499.6117968559265 985.77318549156189
leaf_count=21076 157 2323 3082 907 925 128 1568 132 2687 690 218 628 1785 2539 2013 339 300 106 96 54 2393 611 173 90 729 71 94 840 158 362 520 353 103 91 135 24 1462 1184 2011 2999 198 15934 153 22 1489 106 3108 720 315 892 156 147 671 1244 8959 63 3241 146 44 338 950 97
internal_value=-0.000138088 0.0601773 -0.0420362 0.0959411 0.0339867 -0.0158827 -0.0583791 -0.0111336 -0.0602855 0.0181413 0.0150514 0.0266671 -0.00332773 0.0494234 -0.0288856 -0.0129954 0.120129 0.0260024 0.0421514 -0.0164078 -0.0514839 -0.00374518 0.0472972 0.0577814 0.0818919 -0.0141778 0.0382634 0.0167794 0.0204082 0.0270464 -0.0105832 -0.00428465 0.00333901 0.0393741 -0.0305683 0.0677961 -0.0187235 0.0197878 0.00896126 -0.0184068 -0.023871 -0.0537796 0.0519813 0.00258072 -0.0325803 0.0675322 -0.0135923 0.0559167 0.0366143 0.0781578 0.0670236 0.0347966 0.0385459 0.0336927 -0.0674687 0.0545843 -0.0396029 -0.00207087 -0.0195781 0.0264048 -0.00660535 0.00716169
internal_weight=561579 230196 331384 97311.7 132884 127441 203943 7910.47 196032 65574.9 61677.5 4795.11 64838.1 67309 62603.1 36289.4 35752.3 38971.8 14165.4 1144.04 88095.3 22705.7 13021.4 40729.3 61559.4 2406.19 763.283 24806.4 5311.69 4918.37 17308.3 13764.7 10670.6 2307.17 3094.16 2388.92 30977.7 23097.5 28548.6 31655.2 1708.84 78061.4 1889.87 533.214 8369.72 4970.72 22608 39013.6 26579.8 48567.7 3897.46 8050.63 7476.42 23465.8 107937 3387.26 30948 2139.03 4678.32 15531.4 8363.39 3863.78
internal_count=95149 19041 76108 5151 13890 22367 53741 2692 51049 8057 7744 1124 11032 5833 11335 7236 1207 4194 1416 160 21014 3550 1256 3349 3944 793 165 2778 1005 847 2939 2249 1594 194 655 331 6231 2362 3796 5012 416 18621 307 154 2995 342 3236 3259 2484 3215 313 914 767 2169 30035 236 6323 508 1533 1522 1400 450
is_linear=0
shrinkage=0.05


Tree=7
num_leaves=63
num_cat=0
split_feature=19 10 21 10 10 23 10 23 21 24 27 8 10 10 26 18 15 26 23 0 8 19 26 2 15 24 10 2 21 12 21 25 8 10 2 29 25 24 2 11 29 25 24 2 26 25 25 19 27 19 2 25 2 2 23 18 26 8 25 10 2 26
split_gain=518259 82931.3 54014.6 13099.5 11711.7 6582.21 5541.87 5257.15 3576.55 3222.91 8778.14 3159.75 2806.39 2708.73 2547.41 2435.17 2424.94 2229.9 1796.56 1761.95 1501.49 1239.69 1214.97 1765.83 1212.66 2703.75 1115.48 1230.79 1158.29 1315.95 1087.86 1028.31 1174.86 1010.16 968.878 914.474 1070.37 873.66 862.539 826.814 776.187 771.784 725.804 1190.99 696.638 693.793 689.388 683.359 682.256 671.108 634.786 621.721 606.148 590.787 572.29 569.802 546.49 533.724 531.308 525.699 525.35 502.715
threshold=7.0089285373687753 40.500000000000007 2.0090733766555791 102.56250000000001 13.250000000000002 20.267857551574711 3.5625000000000004 0.76327538490295421 11.371899604797365 176.50000000000003 11.500000000000002 13.250000000000002 202.00000000000003 0.50000000000075007 1.200657904148102 0.080357145518064513 3.5000000000000004 13.113486766815187 4.3853383064270028 24.500000000000004 1.5000000000000002 53.589286804199226 23.106085777282718 1.5000000000000002 11.500000000000002 179.50000000000003 4.5000000000000009 1.5000000000000002 31.047022819519047 125.81250000000001 25.186054229736332 1.6429706215858462 55.500000000000007 24.500000000000004 1.5000000000000002 0.69642856717109691 1.5048087835311892 145.50000000000003 5.5000000000000009 10.500000000000002 0.98214286565780651 1.1706593632698061 27.500000000000004 2.5000000000000004 44.957235336303718 1.6429706215858462 1.6429706215858462 18.875000000000004 49.500000000000007 76.892856597900405 1.5000000000000002 1.4671308398246767 1.5000000000000002 1.0000000180025095e-35 1.3623120188713076 24.830356597900394 37.384046554565437 78.500000000000014 1.4671308398246767 0.50000000000075007 5.5000000000000009 2.2500000000000004
decision_type=2 2 2 2 2 2 2 2 2 2 2 2 2 2 2 2 2 2 2 2 2 2 2 2 2 2 2 2 2 2 2 2 2 2 2 2 2 2 2 2 2 2 2 2 2 2 2 2 2 2 2 2 2 2 2 2 2 2 2 2 2 2
left_child=2 4 7 21 11 6 20 15 33 13 -11 14 -5 40 -2 -1 19 -7 53 38 59 39 42 44 35 -26 27 37 46 45 48 32 -25 52 -20 36 -19 41 -12 -3 -9 -16 43 -13 -24 58 -29 -28 50 -32 -10 -37 -6 -8 -15 -44 -34 -23 -30 -4 -52 -36
right_child=1 3 5 12 8 17 18 9 30 10 16 22 -14 54 26 -17 -18 24 34 -21 -22 57 23 31 25 -27 47 28 29 -31 49 -33 56 -35 61 51 -38 -39 -40 -41 -42 -43 55 -45 -46 -47 -48 -49 -50 -51 60 -53 -54 -55 -56 -57 -58 -59 -60 -61 -62 -63
leaf_value=-0.071053241740875003 0.06490341526878228 0.079112736684541135 -0.043302412403310293 0.1053613847739437 0.035890389577504907 0.059466036453073336 -0.0024970951696499841 -0.051948038920306874 0.059874184018155897 -0.071405665683566127 -0.07117887729450921 -0.059737632511146194 0.13507263315184295 -0.04228429714319068 0.012438687542321514 -0.05720631466213575 -0.036361464950968016 0.0057622428929241694 0.015362924894516107 0.090700545427790727 -0.021087393881620412 0.08066142546281474 0.024489230084577887 0.038271106411723675 0.094450146533503407 -0.071210420609754091 0.010514466051876651 -0.0020001082134419698 0.021776765312467125 -0.050495994291019343 0.066079940659997116 -0.0029330126135058169 0.042582932059925936 0.04539179966636242 0.043410994521269702 0.077745978497208365 -0.036813241812472183 0.018386295964192178 0.082263425043326899 0.064804974710519617 -0.065667677806804561 -0.051212286168519375 0.019689542908212915 0.032319551087103909 -0.063569314582563388 0.010543781660423615 -0.055590250694973413 0.038509765048665684 0.078819610620216085 0.11492734406046386 0.037710806708331129 0.015771128542568735 0.018204276720407978 -0.020456789493241975 -0.026233821838319373 0.045338618358987753 0.084373683783787887 0.096863029509342419 0.071751537000103879 -0.028749083156953355 0.056817758955134294 -0.0088432382253108722
leaf_weight=57502.784265875816 1915.13729596138 21121.001399993896 16020.824318289757 23194.005598068237 8824.5049855709076 2685.7478992938995 6554.6844639778137 23353.273027300835 8430.1855936050415 3117.4932862520218 285.0629723072052 693.35659623146057 12124.698363780975 21220.061540842056 583.49016070365906 71002.846092700958 671.36247491836548 5217.5143029689789 11346.99801659584 1986.8272278308868 28614.822012901306 12720.547791957855 403.81076526641846 5702.6162221431732 994.77706241607666 326.42903470993042 19834.370968341827 10451.372601032257 855.25520944595337 509.16804122924805 9758.3542714118958 899.7889232635498 1062.4498860836029 10523.006510257721 483.72595953941345 522.63498544692993 2057.6177756786346 820.94627475738525 133.76154232025146 19437.98105931282 18512.406931877136 2581.6751799583435 11501.036490440369 710.30594921112061 503.89564895629883 1685.9579372406006 635.67837834358215 2448.2333333492279 2011.7301983833313 759.10592198371887 12586.551125049591 1784.7500877380371 10749.823009729385 15193.265850543976 7531.6430079936981 2667.8618011474609 3002.4356060028076 8545.7084937095642 1410.5916550159454 10144.308040499687 5046.1983489990234 9129.9254741668701
leaf_count=15803 128 1186 4384 907 739 203 904 6133 637 1664 143 176 300 4604 48 19200 255 990 1497 171 5018 981 52 612 82 138 2352 1618 90 94 726 76 112 1010 86 42 698 187 13 1280 5852 568 1073 130 75 133 118 229 141 37 1122 372 1091 2321 1734 280 153 493 144 1855 391 1498
internal_value=-0.000158201 0.0557971 -0.0420215 0.0912705 0.0311062 -0.0139341 -0.0184784 -0.0572168 0.045819 -0.0468668 -0.0122839 0.0168474 0.115565 -0.0499002 0.00852943 -0.0634029 0.0476194 0.0186649 -0.00497692 0.0710619 -0.0290043 0.0773904 0.0302461 0.0425151 0.00861046 0.0534977 0.00594611 -0.00277577 0.00357944 0.0250911 0.0558951 0.0482118 0.0529231 0.0328977 0.00546875 0.00241662 -0.00628274 -0.0275593 -0.0220942 0.0722575 -0.0580161 -0.0394782 0.0211244 -0.0131634 -0.0244109 0.0348404 -0.00507745 0.013592 0.0507525 0.0696161 0.0485831 0.0298364 0.026179 -0.0150442 -0.0380809 0.0245219 0.0734639 0.0871762 0.0529062 -0.0376614 0.0431818 -0.00620974
internal_weight=553108 236713 316396 97143.9 139569 111078 97488.6 205318 68689.5 76811.9 6194.51 70879.4 35318.7 70617.4 43731.9 128506 3077.01 13589.5 42708.6 2405.65 54780 61825.2 27147.6 11575 10903.7 1321.21 41816.7 19534.1 15548 4460.97 38592.1 10667.3 9767.5 30097.3 20960.6 9582.52 7275.13 3986.11 418.825 40559 41865.7 3165.17 15572.6 1403.66 907.706 3951.8 11087.1 22282.6 28074.7 10517.5 26062.9 2307.39 19574.3 21748 28751.7 14168.9 4064.89 21266.3 2265.85 26165.1 17632.7 9613.65
internal_count=95149 19489 75660 5147 14342 20088 17563 55572 5894 20569 2246 8448 1207 18323 5709 35003 582 2525 6306 327 11257 3940 2739 1080 2322 220 5581 3000 2197 461 3054 953 877 2840 3081 2102 1688 803 156 2466 11985 616 1659 306 127 367 1736 2581 2291 763 2150 414 1830 3225 6338 1353 265 1474 234 6239 1513 1584
is_linear=0
shrinkage=0.05


Tree=8
num_leaves=63
num_cat=0
split_feature=16 10 21 16 10 23 23 21 8 23 2 10 17 10 10 24 0 2 24 23 0 23 10 10 12 2 16 25 11 18 10 21 8 10 8 21 23 2 2 11 25 12 2 8 29 8 24 0 23 2 11 18 24 10 17 29 8 8 8 24 10 2
split_gain=472921 71397.9 55873.2 13059.1 10146.9 5772.57 5541.96 3080.03 3060.65 3004.29 2939.08 2829.8 2627.23 2304.44 2205.35 2381.31 3913.62 2063.22 1686.47 2125.98 1502.01 1467.26 1295.56 1283.24 2162.16 2334.98 1116.48 1096.91 1086.35 1085.85 1072.95 1051.35 1050.78 991.114 935.469 930.417 917.125 868.565 817.295 776.837 761.887 865.302 1036.12 759.936 725.844 715.972 712.666 704.682 673.937 1391.18 728.827 660.729 634.683 628.989 597.694 541.14 538.327 520.097 501.118 491.642 461.193 446.059
threshold=17.750000000000004 40.500000000000007 2.0090733766555791 134.50000000000003 11.500000000000002 0.76327538490295421 4.3627820014953622 12.160168647766115 34.500000000000007 90.383930206298842 1.5000000000000002 202.00000000000003 0.10714286193251611 1.5000000000000002 0.50000000000075007 169.50000000000003 23.500000000000004 1.5000000000000002 156.50000000000003 20.267857551574711 24.500000000000004 27.097274780273441 69.500000000000014 3.5625000000000004 0.50000000000075007 3.5000000000000004 132.50000000000003 1.6429706215858462 3.5625000000000004 37.176338195800788 1.5000000000000002 23.480318069458011 4.5000000000000009 3.5625000000000004 23.500000000000004 11.371899604797365 1.5465225577354433 1.0000000180025095e-35 1.5000000000000002 1.5000000000000002 1.6429706215858462 93.062500000000014 1.5000000000000002 0.50000000000075007 0.98214286565780651 3.5625000000000004 179.50000000000003 3.5000000000000004 36.024435043334968 2.5000000000000004 1.5000000000000002 1.2554772217503176e-12 103.50000000000001 27.500000000000004 0.035714287311588704 0.48214285075664526 55.500000000000007 113.50000000000001 1.5000000000000002 35.500000000000007 4.5000000000000009 1.5000000000000002
decision_type=2 2 2 2 2 2 2 2 2 2 2 2 2 2 2 2 2 2 2 2 2 2 2 2 2 2 2 2 2 2 2 2 2 2 2 2 2 2 2 2 2 2 2 2 2 2 2 2 2 2 2 2 2 2 2 2 2 2 2 2 2 2
left_child=2 4 5 22 8 12 13 34 23 14 21 57 -1 58 15 44 51 33 19 32 -11 30 56 24 25 29 39 48 -23 -2 -8 -27 -12 -10 38 -25 -16 -15 -6 -9 41 45 -43 47 -7 -26 -18 -20 49 50 -19 -17 -24 -41 -53 -44 -3 -5 -4 -21 -38 -48
right_child=1 3 6 11 7 9 10 26 17 20 18 -13 -14 37 36 16 46 27 43 59 -22 28 52 35 40 31 -28 -29 -30 -31 -32 -33 -34 -35 -36 -37 60 -39 -40 53 -42 42 55 -45 -46 -47 61 -49 -50 -51 -52 54 -54 -55 -56 -57 -58 -59 -60 -61 -62 -63
leaf_value=-0.070797313364000747 -0.0106126184163952 0.062447186912599664 -0.047592659500085344 0.091472497031848191 0.035992245953395528 -0.051581909436698575 -0.019230097403447551 0.06286694779397177 -0.064418097069012414 -0.042955347512606906 -0.019146882548722082 0.13118564409544242 -0.056145312041667256 -0.0026012185947004249 -0.040751326744525466 -0.071400958056093158 -0.05722351784722679 -0.050966452818843447 0.018608459458484501 0.056071825872178488 0.10714359609519492 0.070437140385142774 0.07118914919190153 0.010562257214694082 -0.021463841720740839 0.018249271656111062 0.090519967612904609 -0.0025872224369636 -0.0077762910389893849 0.047897827698618549 0.012410346685612163 0.070615857875344315 -0.00033628525727946815 0.042354701750886098 0.044188743746835762 0.030916065080798274 -0.028511163733741879 -0.021921279152365206 0.017608831259031812 0.039878796433205889 -0.045189565768451345 -0.035427984178812828 0.014795331887237263 -0.017555826214526865 -0.065227629991669131 0.00171974151380053 0.058242567018070061 -0.053178745355818915 0.081395859839080112 0.058999212479026057 0.027303672336128654 0.066650261792284254 0.087290792124781746 0.054789643248609625 -0.041954852322225809 0.085525264354742558 0.075276516859737824 0.10708408820437164 -0.030404035398733199 0.017336092058155297 -0.0011827029055863159 0.013508846946598818
leaf_weight=56863.649880886078 4468.14302110672 23543.84948849678 9580.3085778951645 8803.9721169471741 11537.217193365097 22015.839827775955 3184.1601678133011 9298.733617067337 646.39013719558716 254.22267186641693 15655.253559470177 11866.563369750977 66311.032729744911 7669.7335724830627 21812.862162709236 2585.7342238426208 252.26884686946869 444.28589272499084 378.45513296127319 1071.0618069171906 480.49094247817993 1674.8527054786682 9628.65083360672 14864.291735887527 6621.9804186820984 1580.0713651180267 1806.7111825942993 951.68746995925903 603.71398282051086 962.97783541679382 16874.617784261703 2438.8702816963196 14119.620805740356 326.34508514404297 10563.208909988403 9023.6425724029541 5162.5003325939178 24089.343400478363 12709.596465587616 16590.549142360687 1329.8082189559937 436.68208527565002 471.06017708778381 5813.760062456131 17540.565835952759 6698.1161050796509 917.38973331451416 3491.253981590271 1771.7583377361298 4763.4537754058838 894.67148375511169 163.43798756599426 16985.526861190796 12355.788069963455 551.22242391109467 635.4720287322998 12590.139634132385 13808.892463207245 7623.2011641263962 3479.7490835189819 2202.3669502735138 1419.3356692790985
leaf_count=16666 847 1568 2372 399 968 5887 759 743 131 120 2527 300 18337 1090 5050 1443 104 88 93 110 39 189 439 1632 1310 258 97 79 127 79 2226 161 1716 25 1027 918 1128 3893 1299 1409 222 79 89 1884 5773 941 168 1470 126 351 96 32 1039 877 238 38 867 539 1437 488 379 363
internal_value=-0.00017706 0.0540501 -0.0401628 0.0866773 0.0304099 -0.0562408 -0.0124805 0.0426497 0.0149652 -0.0453392 -0.00306381 0.111399 -0.0629099 -0.0252402 -0.04633 -0.053218 -0.0235503 0.0404967 -0.0105611 -0.00536207 0.0552192 0.0117073 0.0730913 0.00991372 0.00214591 0.02115 0.0521051 0.0481134 0.0497199 -0.000231377 0.00738699 0.0500373 -0.010227 -0.0285899 0.0317694 0.0182519 -0.0356002 -0.0172558 0.0263572 0.0502881 -0.00894522 -0.00569965 0.029732 -0.0289882 -0.0576344 -0.00980654 0.0224647 -0.046155 0.0542407 0.0463445 0.00131383 -0.0596426 0.0814683 0.0462452 -0.0170592 0.0554555 0.0669193 0.10101 -0.0399783 0.0264631 -0.0203402 0.0310885
internal_weight=545261 231419 313842 97227.6 134192 198533 115309 74861.8 59329.7 75358.2 66346.5 34479.4 123175 48962.6 74623.5 45445.8 5889.39 9798.59 44009.2 34325.7 734.714 22337.3 62748.2 49531.1 25643.2 9450.06 40051.8 8825.86 2278.57 5431.12 20058.8 4018.94 29774.9 972.735 34810 23887.9 29177.7 31759.1 24246.8 38245.1 16193.1 14863.3 1543.21 9683.47 39556.4 13320.1 2588.99 3869.71 7874.17 6102.41 1338.96 3300.39 26614.2 28946.3 714.66 1106.53 36134 22612.9 17203.5 4550.81 7364.87 2336.73
internal_count=95149 19041 76108 5151 13890 55727 20381 6420 7470 20724 11589 1238 35003 8792 20565 14008 2348 896 8288 4841 159 3301 3913 6574 4024 1345 3126 740 316 926 2985 419 4243 156 3294 2550 6557 4983 2267 3029 2679 2457 206 3447 11660 2251 635 1563 661 535 184 1713 1478 2286 270 127 2435 938 3809 598 1507 531
is_linear=0
shrinkage=0.05


Tree=9
num_leaves=63
num_cat=0
split_feature=19 10 21 10 10 23 24 27 17 10 15 26 21 8 26 10 21 2 2 24 16 2 19 26 16 19 11 10 23 10 2 27 16 25 25 26 8 21 19 2 8 24 2 11 27 2 22 15 25 13 27 2 17 23 21 15 2 26 8 25 29 10
split_gain=431919 68084.8 51220.9 12363.6 9482.89 5883.95 4974.29 6538.52 6075.27 4432.41 3351 3050.46 2912.57 2554.76 2163.5 1962.72 1916.44 1539.08 1501.31 2290.26 1166.11 1825.27 1150.05 1013.68 981.042 979.062 968.308 955.017 934.358 922.366 1088.4 1014.61 1315.05 1265.49 918.489 936.252 883.918 878.773 872.042 875.555 851.795 814.116 784.15 865.8 751.394 1839.55 746.891 741.449 725.053 691.241 683.409 676.23 675.426 617.262 593.652 912.924 576.879 677.665 613.677 554.734 536.991 528.134
threshold=7.0089285373687753 41.500000000000007 1.8557432889938357 129.50000000000003 13.250000000000002 9.7214522361755389 169.50000000000003 11.500000000000002 0.41071428358554846 1.5000000000000002 3.5000000000000004 5.2676973342895517 11.371899604797365 13.250000000000002 1.200657904148102 219.00000000000003 45.404819488525398 1.5000000000000002 1.5000000000000002 149.50000000000003 54.500000000000007 1.5000000000000002 1.2500000000000002 27.794407844543461 132.50000000000003 64.732143402099624 37.750000000000007 4.5000000000000009 28.80439376831055 4.5000000000000009 1.5000000000000002 12.500000000000002 45.500000000000007 1.6429706215858462 1.6429706215858462 29.467104911804203 11.500000000000002 4.0216839313507089 18.875000000000004 1.5000000000000002 1.5000000000000002 145.50000000000003 2.5000000000000004 1.5000000000000002 12.500000000000002 5.5000000000000009 17.754557609558109 11.500000000000002 1.1706593632698061 23.500000000000004 8.5000000000000018 1.0000000180025095e-35 0.035714287311588704 4.1353384256362924 12.496771812438967 11.500000000000002 1.5000000000000002 3.7631578445434575 30.812500000000004 1.3294118642807009 0.5892857313156129 3.5625000000000004
decision_type=2 2 2 2 2 2 2 2 2 2 2 2 2 2 2 2 2 2 2 2 2 2 2 2 2 2 2 2 2 2 2 2 2 2 2 2 2 2 2 2 2 2 2 2 2 2 2 2 2 2 2 2 2 2 2 2 2 2 2 2 2 2
left_child=2 4 6 16 13 9 8 -8 52 40 44 -7 38 14 -2 -5 25 37 26 23 61 27 51 -20 49 56 28 -22 59 30 41 50 -33 -34 35 42 54 -11 39 -6 -4 48 43 -23 45 -9 -31 -30 -16 -14 -32 -10 -1 -19 55 -21 -3 -58 -59 -13 -38 -15
right_child=1 3 5 15 12 11 7 10 22 17 -12 18 24 20 29 -17 -18 53 19 36 21 34 -24 -25 -26 -27 -28 -29 47 46 31 32 33 -35 -36 -37 60 -39 -40 -41 -42 -43 -44 -45 -46 -47 -48 -49 -50 -51 -52 -53 -54 -55 -56 -57 57 58 -60 -61 -62 -63
leaf_value=-0.069353098061230467 0.059320668103624033 0.071263756059544159 -0.04288297533337998 0.099945336164363199 0.032961414629746798 0.058273718771239706 -0.071403640552262435 -0.071195315832936992 -0.03973403922684908 -0.0085630320090907992 -0.032410912215064168 0.022668969371491945 0.053728647123478392 0.00097924941978352214 0.011822319614209376 0.12751805464906493 0.090193902824597105 -0.024870712243242069 -0.0021149059884097753 -0.03038230434063649 -0.060849017717618761 -0.044351561974364941 -0.040005808461442027 0.034916054055215015 0.086304732336218604 0.0806354109148823 -0.044050238758180857 0.045308762333761667 0.035801418431733234 0.0093032540190524197 -0.0010360108270004735 -0.0046498905595867323 0.045564307905544735 -0.0050293921032607478 -0.002017428738142439 0.063532132489603224 -0.014152855357490389 0.012697892028806501 0.041781984034208436 0.012460427278057783 -0.026180569954580159 0.017870083682052767 0.053723917878278786 0.029522260885519132 0.081279218366633932 0.095935210474670699 0.040802499940481692 0.11193798040521437 -0.050002428208339958 0.040193991032482682 -0.050903315028656693 -0.054798268398760647 -0.059585026833783167 -0.010857446647246687 -0.057094096815850981 0.031547287792038393 0.073133800515450098 0.040467018311275207 0.060361279211770758 -0.0078146471519488381 0.065309245132084026 0.02318334704112425
leaf_weight=69634.979622840881 1939.6488268375397 18802.229435682297 17558.320222139359 15168.172576904297 11462.836925983429 2511.1635189056396 2863.7660344839096 305.22509908676147 8845.4376146793365 16245.260897397995 1425.5959894657135 4394.8103466033936 22791.692759990692 3404.8493075370789 585.96641993522644 11282.758952140808 11489.782552719116 19007.103819131851 5205.8961365222931 5638.5527683496475 651.97221565246582 540.25438523292542 27737.592496752739 2864.0468673706055 1758.9733972549438 11879.42546749115 608.19592809677124 312.74748659133911 1515.5871088504791 20387.211000919342 1478.4834382534027 7292.4142346382141 3528.4774017333984 1901.7481398582458 929.45790791511536 5481.0500574111938 459.72950005531311 6933.7829432487488 9688.1551380157471 9547.2630333900452 13516.944759488106 820.81519246101379 2038.7813105583191 1483.5119714736938 1758.4604778289795 355.15763330459595 2072.4532225131989 404.95018625259399 2478.3432388305664 16130.873247623444 1282.5577456951141 47674.531588792801 23810.172100305557 13401.274751901627 1706.7549697160721 664.47017085552216 7113.2643623352051 5259.2121729850769 14845.301560878754 2258.9469609260559 394.0760293006897 12546.390144586563
leaf_count=21922 128 1103 4473 571 920 194 1664 156 2180 2414 579 626 1698 476 48 287 473 3194 735 2062 146 107 6650 289 93 838 172 18 261 2401 177 1164 394 176 76 350 135 782 980 953 2563 187 174 172 161 26 180 24 568 1350 286 13010 7804 2056 731 147 347 362 1066 591 59 1220
internal_value=-0.000194468 0.0500351 -0.0401463 0.0826226 0.0281233 -0.0140036 -0.05649 -0.014222 -0.0580855 -0.0204956 0.0283808 0.00564957 0.0409997 0.0152061 0.00771129 0.111711 0.0715327 -0.0120406 0.0005875 -0.00824033 0.0271823 0.0393659 -0.0483482 0.0110302 0.0497737 0.067828 0.0168661 -0.026423 0.0211917 0.00531672 -0.00267856 0.00325902 0.00922181 0.027848 0.045428 0.0500484 -0.0257846 -0.00220276 0.0293711 0.0236465 -0.0356189 -0.0263368 0.0318455 0.00978912 0.0642082 0.0186976 0.0122115 0.0519049 -0.0381801 0.0481206 -0.0242104 -0.0524414 -0.0668648 -0.0190766 -0.0309398 -0.0238497 0.0645203 0.0598594 0.0551593 0.0123202 0.0225566 0.0184442
internal_weight=538078 238377 299701 95840.1 142537 115290 184411 6708.21 177703 86662.7 3844.44 28627.2 71379.8 71157.1 43768.1 26450.9 69389.2 55587.4 26116 16933.5 27389 11437.8 84257.6 8069.94 40681.5 57899.4 9182.49 964.72 8574.29 41828.5 19368.8 15483.7 12722.6 5430.23 10473.1 9543.6 8863.58 23179 30698.3 21010.1 31075.3 3885.12 4062.55 2023.77 2418.84 660.383 22459.7 1920.54 3064.31 38922.6 2761.04 56520 93445.2 32408.4 8009.78 6303.02 46020 27217.8 20104.5 6653.76 853.806 15951.2
internal_count=95149 19489 75660 5047 14442 21508 54152 2586 51566 15482 922 6026 5994 8448 5709 858 4189 8446 5832 4158 2739 1043 21840 1024 3141 3716 1674 164 1502 5581 3000 2197 1734 570 879 803 3134 3196 2853 1873 7036 803 453 279 343 182 2581 285 616 3048 463 15190 29726 5250 2940 2209 2878 1775 1428 1217 194 1696
is_linear=0
shrinkage=0.05


Tree=10
num_leaves=63
num_cat=0
split_feature=16 10 21 10 10 24 27 17 23 10 10 15 21 21 2 26 25 10 10 26 15 24 2 0 23 27 24 2 2 26 21 18 17 0 24 27 26 26 18 2 21 2 21 2 17 29 17 21 10 27 19 24 17 19 0 15 19 17 29 16 15 23
split_gain=394243 70635.9 39201.5 15884.6 6392.94 4850.42 6333.53 5632.01 4281.4 4182.52 3071.3 2908.72 2899.94 2716.17 2454.52 2845.19 2105.51 2009.87 1779.59 1408.59 1418.14 3085.82 1252.5 1219.46 1218.79 1209.85 992.61 1014.32 899.678 1615.16 869.365 812.334 1480.54 805.002 972.693 973.071 837.514 826.439 812.336 799.019 790.289 787.902 780.11 725.669 719.257 665.749 664.849 656.283 640.923 632.002 609.97 573.724 573.392 554.631 526.033 944.103 511.863 511.849 504.91 501.383 661.761 501.058
threshold=13.750000000000002 30.812500000000004 1.6924588680267336 102.56250000000001 9.5000000000000018 169.50000000000003 11.500000000000002 0.41071428358554846 11.703947544097902 1.5000000000000002 202.00000000000003 3.5000000000000004 11.371899604797365 31.047022819519047 1.5000000000000002 13.113486766815187 1.6429706215858462 53.500000000000007 3.5625000000000004 5.2676973342895517 11.500000000000002 179.50000000000003 1.5000000000000002 24.500000000000004 1.5465225577354433 49.500000000000007 149.50000000000003 1.5000000000000002 2.5000000000000004 22.856907844543461 11.371899604797365 39.553571701049812 33.660713195800788 23.500000000000004 92.500000000000014 49.500000000000007 2.4276316165924077 21.644737243652347 2.1517857313156132 1.5000000000000002 25.186054229736332 1.0000000180025095e-35 27.015060424804691 5.5000000000000009 0.035714287311588704 0.55357143282890331 2.4464285373687749 3.3585355281829838 0.50000000000075007 46.500000000000007 13.312500000000002 147.50000000000003 5.1473214626312265 57.232141494750984 8.5000000000000018 11.500000000000002 2.1071428060531621 1.1250000000000002 0.089285716414451613 52.750000000000007 4.5000000000000009 37.936794281005866
decision_type=2 2 2 2 2 2 2 2 2 2 2 2 2 2 2 2 2 2 2 2 2 2 2 2 2 2 2 2 2 2 2 2 2 2 2 2 2 2 2 2 2 2 2 2 2 2 2 2 2 2 2 2 2 2 2 2 2 2 2 2 2 2
left_child=2 4 5 17 13 7 -7 44 9 46 -5 23 39 18 15 -15 28 42 33 -10 26 45 47 43 41 40 -21 -28 29 -16 -20 32 -18 34 36 48 -2 -38 -35 -6 -14 -9 -3 -8 -1 -22 -4 -11 58 -30 -41 -27 -24 -19 55 -13 -29 -43 -36 -40 -61 -25
right_child=1 3 8 10 12 6 11 24 19 22 -12 54 25 14 16 -17 31 53 30 20 21 -23 52 61 -26 51 27 56 49 -31 -32 -33 -34 38 35 -37 37 -39 59 50 -42 57 -44 -45 -46 -47 -48 -49 -50 -51 -52 -53 -54 -55 -56 -57 -58 -59 -60 60 -62 -63
leaf_value=-0.069208961801342228 0.051954680486188357 0.049200220106850906 -0.042758217293046512 0.091007272022210997 0.029309438231659313 -0.071402358623241333 -0.071141095684911157 -0.037413617459201985 0.051132447012488196 -0.011143378338823192 0.12268717520654614 -0.049117951321931634 0.034593750738027819 0.07360796829778625 -0.04268378925154992 -0.038813144493088259 -0.018535813088856115 0.064112383337829357 0.0069445651887035222 0.0082930168957414205 0.042858435413568548 -0.07128670801204795 -0.023860423232243827 0.060170371099748522 -0.02312357544935607 0.050820891038153453 0.0058343244920602555 -0.051880578862644272 0.06498914225065508 0.046775470571695274 0.026902369110089822 -0.033650157837568716 0.073990421042939125 0.087180695551155207 0.013939472023837638 0.060752597266631736 -0.011450577191195578 0.026783811064898057 -0.0019991620262061562 0.0055176978538481079 0.05365782327686696 -0.055081344881427609 0.066279058941620006 0.072207276408516291 -0.058907096407404963 0.10605897323299292 -0.028307772660895278 0.0065958595548331047 -0.011546244368562454 0.01412608569474273 0.022679065754517141 0.10129375707697208 -0.0080461132873007792 0.075699300550251689 -0.057334218388018443 0.094252097214236441 -0.018405595932153043 -0.045107496019637129 -0.0440727584628616 -0.0045641409829655427 0.070535610849366173 0.11404164438836883
leaf_weight=66350.808431386948 712.57886719703674 30586.522059440613 18297.578309893608 23087.941178798676 17864.602205753326 2724.1461175680161 247.47113609313965 11141.493791222572 1483.8405792713165 14667.211446642876 11463.893256187439 280.75053238868713 22504.599050045013 738.07817244529724 659.22966599464417 2358.8789591789246 1004.7195229530334 27239.940093517303 19104.968441963196 6904.1073904037476 990.810950756073 502.50421786308289 24599.536922693253 1394.2879960536957 4625.9139394760132 1084.9481089115143 2811.7839725017548 1931.053054690361 5800.3237060308456 2140.2683954238892 7637.6276001930237 1089.0729088783264 757.51527166366577 322.3362443447113 411.37604451179504 333.35044550895691 7516.4046566486359 1739.5851607322693 4445.7547384500504 9465.2744755744934 7173.8417949676514 40542.959230780602 8571.3515388965607 135.99326658248901 22827.528861880302 721.18608283996582 14106.890424251556 8088.4223895072937 4000.8503655195236 683.31363368034363 11431.998848199844 1178.3339667320251 7474.7268240451813 16724.276460647583 786.44680953025818 192.82748353481293 2797.0199509859085 18898.31847512722 4200.8451045751572 560.63368737697601 613.9806649684906 628.24849057197571
leaf_count=21910 68 2300 4892 907 1618 1664 143 2768 111 2363 300 133 1943 51 99 498 96 1578 2244 934 106 232 4397 157 1098 54 713 846 395 228 764 118 33 34 63 40 1196 196 740 1131 549 11526 523 13 7782 47 2841 994 800 93 1069 75 1022 1125 364 26 952 4899 1108 95 57 28
internal_value=-0.000210949 0.0445895 -0.0416136 0.0730275 0.0202579 -0.0564115 -0.0136703 -0.0580729 -0.0176312 -0.0222273 0.101522 0.029237 0.0307383 0.00916993 0.0277222 -0.0120054 0.0378616 0.0611822 0.00369324 0.00446841 0.000309028 0.0375575 -0.0138102 0.0614586 -0.0479937 0.0418933 -0.00540399 -0.0179455 0.0494034 0.0257018 0.0126453 0.000280443 0.021257 -0.00593772 -0.0109811 -0.0229488 -0.000239264 -0.00426263 0.0101138 0.0215452 0.0392036 -0.0496233 0.0529402 -0.0202479 -0.0665726 0.0695283 -0.0364685 -0.00483801 -0.0261949 0.0596317 0.0149066 0.0771317 -0.0201754 0.0685217 -0.0322896 0.00933385 -0.0320856 -0.0519111 -0.0388966 0.0056792 0.0347177 0.0769522
internal_weight=531363 255209 276154 117674 137535 170777 6390.17 164387 105377 87234.4 34551.8 3666.03 70703.6 66831.7 15231.4 3096.96 12134.4 83122.1 51600.3 18142.3 16658.5 2214.5 54829.9 2406 75208.7 31941.7 14444 7539.86 9283.14 2799.5 26742.6 2851.31 1762.23 24857.7 18915 8946.42 9968.57 9255.99 5942.71 38761.9 29678.4 70582.8 39157.9 383.464 89178.3 1712 32404.5 22755.6 8613.07 6483.64 20897.3 2263.28 32074.3 43964.2 1260.02 473.578 4728.07 59441.3 4612.22 5620.37 1174.61 2022.54
internal_count=95149 22188 72961 6733 15455 52511 2528 49983 20450 16509 1207 864 6439 9016 1611 549 1062 5526 7405 3941 3830 385 8776 341 20291 2621 3445 2511 815 327 3008 247 129 4397 3471 2011 1460 1392 926 3818 2492 19193 2823 156 29692 153 7733 3357 1971 488 2200 129 5419 2703 523 159 1798 16425 1171 892 152 185
is_linear=0
shrinkage=0.05


Tree=11
num_leaves=63
num_cat=0
split_feature=16 10 21 16 8 23 23 10 23 27 10 10 10 10 26 15 23 16 26 15 21 2 23 23 26 29 27 27 8 23 23 23 2 8 2 6 21 26 27 27 12 12 21 8 12 27 10 17 18 21 2 2 2 19 26 27 2 18 27 20 8 2
split_gain=360013 63255.4 38360.3 16156 5537.87 4676.91 3926.25 3940.84 3615.17 5399.56 3218.54 3047.3 2846.07 2374.74 2364.77 2361.18 1749.24 1337.35 1257.06 1288.73 1876.2 1152.95 1134.59 1023.84 1020.83 993.032 951.851 1061.44 867.251 759.061 728.617 702.802 640.863 625.201 621.681 612.283 603.987 576.891 617.437 573.485 576.127 568.725 1008.97 590.069 567.072 1073.72 653.914 560.295 546.572 543.051 523.815 509.622 505.999 503.318 500.749 472.459 967.302 459.497 434.204 432.638 411.791 672.812
threshold=13.750000000000002 27.500000000000004 1.6924588680267336 125.81250000000001 17.750000000000004 0.39661653339862829 11.703947544097902 1.5000000000000002 13.45277261734009 11.500000000000002 202.00000000000003 5.5000000000000009 0.50000000000075007 53.500000000000007 2.9506578445434575 3.5000000000000004 6.651315689086915 142.75000000000003 5.2676973342895517 11.500000000000002 11.371899604797365 1.5000000000000002 10.585996150970461 1.5465225577354433 3.3157894611358647 0.98214286565780651 12.500000000000002 8.5000000000000018 1.5000000000000002 10.269501686096193 44.680099487304695 90.383930206298842 2.5000000000000004 113.50000000000001 1.0000000180025095e-35 1.0000000180025095e-35 3.7179627418518071 7.8815791606903085 48.500000000000007 35.500000000000007 72.500000000000014 0.50000000000075007 45.404819488525398 3.5625000000000004 72.500000000000014 41.500000000000007 0.50000000000075007 3.2321428060531621 30.694196701049808 25.186054229736332 3.5000000000000004 3.5000000000000004 1.0000000180025095e-35 64.732143402099624 24.517270088195804 12.500000000000002 5.5000000000000009 6.8158929347991952 23.500000000000004 6.5000000000000009 42.250000000000007 1.5000000000000002
decision_type=2 2 2 2 2 2 2 2 2 2 2 2 2 2 2 2 2 2 2 2 2 2 2 2 2 2 2 2 2 2 2 2 2 2 2 2 2 2 2 2 2 2 2 2 2 2 2 2 2 2 2 2 2 2 2 2 2 2 2 2 2 2
left_child=2 4 5 13 11 -1 7 28 12 -10 33 14 25 49 16 31 -2 24 -8 34 30 36 32 52 -6 -7 27 -16 -4 59 -21 55 -13 -5 -20 -36 -9 -24 50 48 -41 42 51 44 46 -46 -43 -23 -31 60 -39 -28 -14 54 -15 56 -11 -53 -56 -26 61 -3
right_child=1 3 6 10 17 8 18 21 9 15 -12 22 23 53 26 -17 -18 -19 19 20 -22 47 37 -25 29 -27 41 -29 -30 39 -32 -33 -34 -35 35 -37 -38 38 -40 40 -42 43 -44 -45 45 -47 -48 -49 -50 -51 -52 57 -54 -55 58 -57 -58 -59 -60 -61 -62 -63
leaf_value=-0.069463721961696062 -0.02632810960345083 0.050381449787001854 -0.042384075149626992 0.076357263204255454 0.064820850909081476 -0.054150438563752526 0.048092261445987938 -0.0095269294542134151 -0.068475901467999395 -0.071123651423909459 0.11811817060289945 0.017528704531105305 -0.034273023637438553 0.065105690531321356 -0.0030191948118670564 -0.029782755333562717 0.05773678410279403 0.077473160611448738 0.016549704153175009 0.037763324345120669 -0.048798825392688497 -0.0279167103479902 0.05271712893706313 -0.015651716148380981 0.0085451688563975055 -0.066424819548914882 -0.0079593185364379478 -0.045914613220154277 -0.025628720018640656 0.02291318463646665 0.10723789159195225 0.1134323057602486 0.00045512280133233688 0.09262033445346296 -0.018368533757847853 0.0057478132858419266 0.0089115613712743673 0.02642857223350566 0.055918440828073096 0.045684276799136385 -0.0015364317994750474 -0.038155255043501535 0.054515889392333455 0.0031652150792341144 0.032974032332157725 -0.056617680557808817 -0.0081765985399463257 -0.014205373327872396 0.039600267587039398 0.058757361652791551 0.011094380401532274 0.00046715521220869888 -0.047679032247866064 0.073648323211405506 0.039378200308061079 0.059821758118724845 0.070161485728767931 0.047010341391070208 0.061186330926986901 0.031664526524036209 0.05336356304117168 0.033687687125262218
leaf_weight=44863.572567820549 804.66872894763947 11457.604905843735 18468.64432477951 10181.669101715088 2050.3237879276276 45714.098300099373 1498.4405522346497 16646.331243157387 2469.0242555141449 233.25462794303894 11315.972769260406 12240.320996522903 9247.5892776250839 24397.532231330872 3018.7093712091446 1143.5802960395813 2671.0016884803772 1559.0980663299561 2681.5933084487915 1125.9595289230347 502.81124877929688 11945.194836974144 1755.8558785915375 3343.0004892349243 6253.8838667869568 25819.674668431282 3878.4031918048859 2760.6639678478241 13284.816182971001 16256.476524829865 568.14151000976562 461.05181765556335 9974.5477323532104 14240.486820220947 7709.0556033849716 3995.3601274490356 6056.5539824962616 16808.94514632225 1360.971727848053 9151.6799175739288 694.9210033416748 3112.1395564079285 1119.2220897674561 9423.320157289505 1343.7341332435608 444.14348244667053 4377.5590851306915 19812.323001384735 7033.3800837993622 9374.3115668296814 8331.8856363296509 1120.5983743667603 29650.07054233551 11089.700646877289 4143.141942024231 1305.0322363376617 249.90149450302124 1005.6859347820282 5107.2592730522156 2991.3165431022644 10713.433177947998 12780.017763137817
leaf_count=15776 208 821 5051 465 121 13593 111 2617 1565 132 300 1138 2240 1396 412 483 190 125 498 172 184 2430 116 749 671 9727 759 611 2682 1536 29 24 1110 561 2611 336 740 1691 93 739 81 759 82 1319 150 98 680 2989 583 592 981 240 8069 752 267 131 22 98 264 338 724 1117
internal_value=-0.000226072 0.0421665 -0.040655 0.0676659 0.0179737 -0.055695 -0.0169328 -0.0213755 -0.0505312 -0.0122368 0.0960659 0.0104516 -0.0525041 0.0562689 -0.000867473 0.0286976 0.0382726 0.0319658 0.00425063 0.000286417 0.0359459 -0.0132125 0.0183185 -0.0422107 0.0303672 -0.0585817 -0.00517297 -0.0235137 -0.0353751 0.0286989 0.0611122 0.0584308 0.00986298 0.0858436 -0.00516132 -0.0101365 -0.00460783 0.0249653 0.0231247 0.0322336 0.0423519 -0.00106773 0.0109533 -0.00564734 -0.0145977 0.0106985 -0.0206368 -0.0193634 0.0279541 0.0480638 0.0213473 0.00282586 -0.0444928 0.0643971 0.061346 0.0441942 0.00194685 0.0224928 0.051424 0.0160281 0.045194 0.0415809
internal_weight=525140 256345 268795 124801 131543 164500 104295 86213.9 119636 5861.84 35738.1 85552.4 113774 89063 35079.8 3392.82 3475.67 45991.1 18081.4 16582.9 2196.91 54460.4 50472.5 42240.7 44432 71533.8 31604.2 5779.37 31753.5 42381.7 1694.1 2249.24 22214.9 24422.2 14386 11704.4 22702.9 28257.7 26501.8 33136.5 9846.6 25824.8 7123.91 18700.9 9277.58 1787.88 7489.7 31757.5 23289.9 44325.4 25140.8 6004.69 38897.7 44737.6 33647.9 1788.19 483.156 2126.28 9250.4 9245.2 34951.1 24237.6
internal_count=95149 22188 72961 7259 14929 52511 20450 16509 36735 2357 1326 10735 34378 5933 5606 792 398 4194 3941 3830 385 8776 5129 11058 4069 23320 5208 1023 7733 3948 201 309 2248 1026 3445 2947 3357 2881 2765 2939 820 4185 1179 3006 1687 248 1439 5419 2119 3254 2672 1097 10309 2679 1927 285 154 338 531 1009 2662 1938
is_linear=0
shrinkage=0.05


Tree=12
num_leaves=63
num_cat=0
split_feature=19 10 21 10 10 23 23 10 24 27 17 27 23 21 26 10 21 2 26 2 10 19 25 24 0 29 24 19 29 0 17 10 26 21 25 22 17 2 24 18 17 0 27 2 2 23 25 11 27 18 27 2 9 0 27 0 27 29 10 2 2 29
split_gain=328713 56324 38921.9 11009.3 8383.17 4794.96 4628.02 3721.47 3563.52 5707.61 2669.16 2301.44 2245.4 2104.44 2089.42 2008.9 1710.32 1472.04 1200.17 1103.99 2744.16 1382.48 1147.81 1143.87 1101.12 1073.58 1049.85 891.464 836.145 824.901 1339.68 810.953 784.553 780.501 779.325 755.243 738.822 699.49 695.979 679.873 1277.06 843.419 666.451 696.661 643.119 602.344 595.103 580.809 561.086 550.152 546.32 572.453 743.958 543.143 831.033 489.327 489 543.339 482.947 462.15 454.525 435.256
threshold=5.7500000000000009 40.500000000000007 1.6924588680267336 129.50000000000003 13.250000000000002 19.213346481323246 0.37546992301940924 1.5000000000000002 169.50000000000003 11.500000000000002 0.69642856717109691 13.500000000000002 11.454417228698732 11.371899604797365 3.7631578445434575 219.00000000000003 45.404819488525398 1.5000000000000002 8.6694078445434588 1.5000000000000002 0.50000000000075007 20.008928298950199 1.6429706215858462 159.50000000000003 24.500000000000004 0.19642857462167743 105.50000000000001 76.892856597900405 0.98214286565780651 5.5000000000000009 0.91071426868438732 71.500000000000014 37.384046554565437 3.3585355281829838 1.6429706215858462 38.17713928222657 2.3616071939468388 1.0000000180025095e-35 103.50000000000001 39.553571701049812 37.151784896850593 9.5000000000000018 6.5000000000000009 1.5000000000000002 5.5000000000000009 4.1353384256362924 1.5018113851547243 4.5000000000000009 19.500000000000004 39.553571701049812 37.500000000000007 2.5000000000000004 20.812500000000004 8.5000000000000018 47.500000000000007 21.500000000000004 49.500000000000007 0.87500000000000011 4.5000000000000009 1.0000000180025095e-35 1.5000000000000002 0.69642856717109691
decision_type=2 2 2 2 2 2 2 2 2 2 2 2 2 2 2 2 2 2 2 2 2 2 2 2 2 2 2 2 2 2 2 2 2 2 2 2 2 2 2 2 2 2 2 2 2 2 2 2 2 2 2 2 2 2 2 2 2 2 2 2 2 2
left_child=2 4 6 16 12 7 -1 36 10 -10 28 24 58 42 -14 -5 31 33 -7 20 25 23 32 34 44 -16 -27 47 -8 30 -20 -3 50 -9 46 -34 -4 -12 55 40 41 -24 -6 -44 -11 -19 -21 -15 -41 56 51 52 -23 54 -13 -33 57 -31 -2 -28 -26 -25
right_child=1 3 5 15 13 18 8 17 9 11 37 53 14 27 19 -17 -18 45 29 21 -22 22 39 61 60 26 59 -29 -30 49 -32 38 35 -35 -36 -37 -38 -39 -40 48 -42 -43 43 -45 -46 -47 -48 -49 -50 -51 -52 -53 -54 -55 -56 -57 -58 -59 -60 -61 -62 -63
leaf_value=-0.069709662396599856 -0.0077962343493507783 0.051941475326837218 -0.039262407011302514 0.085753509090707059 0.037781946656359311 0.045558820173538669 -0.054355391266980246 -0.010093854936270913 -0.071399669620463777 -0.071137943380807436 -0.029458507129709544 -0.047467844542874504 0.05744825458424796 0.0495706347996673 0.054064002036967568 0.11394873901233303 0.077144372289012053 -0.024675110401373802 0.10266608033733507 0.015409008463194871 0.023253804304971891 -0.029398844575955724 0.03253306910965318 -0.015456943207284392 0.096789367025819292 -0.056334771088321162 0.044482009145241475 0.095728867083512956 -0.066151927370159833 0.00028519077796419263 0.0096193123472044905 0.06010539899646973 0.023690366398869189 0.0080454192011903819 -0.029972144960168132 0.065178963100286633 -0.025115508013617879 -0.045950060266304639 0.070885779532388879 0.0069630816186807823 0.077536400017189297 -0.058393046990618397 0.028489037332544716 0.01199255515825284 0.061224015703396022 -0.010387392670542457 0.046362351043618806 0.036443176594786394 -0.063364377366040892 -0.058707480026276626 0.04566129040322215 0.031085997864081668 0.025908746642033648 -0.05609109440526322 0.091426415857437646 0.032847148817732839 -0.070118756341937302 0.053640090208940207 0.0049382540760735602 -0.033747882992768978 0.049032040573353343 0.045893041620895129
leaf_weight=41125.589148521423 11132.781283378601 39201.470334768295 18540.726790785789 15204.691618442535 7296.6593334674835 2300.0162336826324 38374.779266476631 14237.528545022011 2470.5978347063065 244.7737557888031 7680.4754275083542 241.39427506923676 3054.5522964000702 12130.334789514542 319.72526526451111 10841.942830085754 11669.108132362366 18515.471629977226 529.91679918766022 15977.036025762558 4919.2083686590195 1166.016172170639 502.91359496116638 4405.3809272050858 885.99739933013916 2680.0356320142746 428.22407579421997 742.35227060317993 24749.829196214676 7256.1819758415222 1426.4997456073761 5813.4010243415833 1641.6887452602386 10162.214202165604 872.17840194702148 3314.4143595695496 18394.822565793991 39719.595174670219 13649.904226779938 547.77754139900208 618.30909490585327 515.48362278938293 13478.212120771408 12190.59440779686 145.52630162239075 12265.229691743851 1719.3903379440308 27685.858616352081 586.69000387191772 395.04756844043732 2558.0299191474915 3446.7535126209259 1268.3707544803619 741.42886400222778 192.82904100418091 2302.9939880371094 229.41471374034882 509.74470257759094 22472.031925678253 336.07944488525391 1146.8715162277222 308.44539976119995
leaf_count=14790 1717 2602 5336 571 658 167 12539 2363 1664 153 1832 120 164 927 34 287 476 3367 31 1550 533 187 38 1216 53 595 77 37 9772 1615 297 267 158 1340 105 211 4045 10915 827 57 25 66 1119 1261 16 2224 178 2117 69 180 216 316 150 364 26 121 98 80 2542 108 132 48
internal_value=-0.00023926 0.0399562 -0.039595 0.0696037 0.0214756 -0.0159707 -0.0552869 -0.0199342 -0.0501991 -0.012895 -0.0522475 0.0272772 0.0107614 0.0338314 0.017354 0.0974937 0.0596015 -0.0117116 0.0128978 0.0148084 -0.00133175 0.018361 0.0295935 0.0105607 0.0551205 -0.0334599 -0.0415978 0.0414579 -0.0589815 0.0056338 0.0348616 0.0562427 0.0356529 -0.00253903 0.0161444 0.0514436 -0.0322178 -0.0432785 0.0639864 0.000301703 0.0209157 -0.0135033 0.0244472 0.0206553 -0.0217555 -0.0189824 0.0184189 0.0404437 -0.0294305 -0.0011847 0.0263744 0.0179791 -0.00058353 -0.0301096 0.0142804 0.052376 0.00166447 0.00379379 0.000719399 0.0100836 0.0698838 -0.0114337
internal_weight=519482 256999 262483 98683.5 158316 104763 157720 92116 116594 6069.42 110525 3598.82 84791.5 73524 51186.7 26046.6 72636.9 55180.4 12646.8 48132.2 8683.27 39448.9 16166.4 23282.4 2423.17 3764.06 3444.34 40558.5 63124.6 10346.8 1956.42 60967.8 13395.3 24399.7 18568.6 4956.1 36935.5 47400.1 21766.3 2771.17 1636.71 1018.4 32965.5 25668.8 390.3 30780.7 17696.4 39816.2 1134.47 8390.39 8439.17 5881.14 2434.39 1175.65 434.223 8116.4 7995.34 7765.93 33604.8 764.304 2032.87 4713.83
internal_count=95149 21630 73519 5151 16479 21143 52376 18675 37586 2528 35058 864 10360 6119 6101 858 4293 9294 2468 5937 1347 4590 1493 3097 354 814 780 3081 22311 2301 328 3817 1238 3703 1833 369 9381 12747 1215 255 129 104 3038 2380 169 5591 1728 3044 126 1973 869 653 337 510 146 388 1793 1695 4259 185 185 1264
is_linear=0
shrinkage=0.05


Tree=13
num_leaves=63
num_cat=0
split_feature=16 10 21 10 8 24 27 18 16 10 10 2 27 26 8 23 23 10 16 8 26 23 18 17 27 27 22 2 24 26 10 27 23 23 18 2 26 23 2 19 27 23 27 24 27 24 2 24 26 8 24 8 24 26 2 27 27 27 27 26 27 19
split_gain=300736 53392.4 33741.3 13963.5 4982.07 4672.23 5547.67 4476.76 4463.45 3269.05 2416.9 2220.53 1951.38 1757.19 1671.31 1529.21 1343.84 1103.48 1083.16 1081.89 938.469 899.061 866.764 834.839 783.015 1716.64 790.266 1562.4 1060.31 924.656 709.317 698.483 646.895 628.784 615.699 598.619 537.476 502.464 502.368 500.786 511.838 499.508 512.887 498.684 487.99 487.535 479.707 475.776 477.203 475.687 448.848 551.277 439.86 434.898 428.262 513.041 428.313 697.061 1762.8 514.114 426.266 424.987
threshold=12.750000000000002 27.500000000000004 1.3549815416336062 95.812500000000014 13.250000000000002 169.50000000000003 11.500000000000002 3.4687500000000004 0.50000000000075007 186.12500000000003 7.7500000000000009 1.5000000000000002 13.500000000000002 1.7171052694320681 55.500000000000007 10.269501686096193 23.742011070251468 4.5000000000000009 165.81250000000003 1.5000000000000002 3.7631578445434575 2.3134398460388188 41.944196701049812 1.1250000000000002 12.500000000000002 8.5000000000000018 9.5006265640258807 1.5000000000000002 145.50000000000003 3.7631578445434575 71.500000000000014 49.500000000000007 90.383930206298842 12.113252162933351 30.694196701049808 1.5000000000000002 24.517270088195804 1.5465225577354433 1.0000000180025095e-35 21.866071701049808 42.500000000000007 8.7161655426025408 47.500000000000007 103.50000000000001 43.500000000000007 147.50000000000003 1.5000000000000002 35.500000000000007 3.7631578445434575 113.50000000000001 128.50000000000003 0.50000000000075007 159.50000000000003 7.0879933834075937 1.5000000000000002 33.500000000000007 6.5000000000000009 9.5000000000000018 8.5000000000000018 3.7631578445434575 35.500000000000007 17.223214149475101
decision_type=2 2 2 2 2 2 2 2 2 2 2 2 2 2 2 2 2 2 2 2 2 2 2 2 2 2 2 2 2 2 2 2 2 2 2 2 2 2 2 2 2 2 2 2 2 2 2 2 2 2 2 2 2 2 2 2 2 2 2 2 2 2
left_child=2 4 5 14 10 8 -7 11 41 49 13 21 32 -2 30 61 17 50 20 -13 -17 -4 46 38 25 -15 -26 28 -28 -29 54 34 -8 35 -22 -12 -23 -21 -10 52 -41 -1 -43 -16 60 -33 -18 -48 -49 -5 -9 -52 53 -31 -3 56 -56 58 -58 -59 -36 -6
right_child=1 3 7 9 15 6 12 16 23 -11 33 19 -14 24 43 18 22 -19 -20 37 31 36 -24 -25 26 -27 27 29 -30 39 -32 45 -34 -35 44 -37 -38 -39 -40 40 -42 42 -44 -45 -46 -47 47 48 -50 -51 51 -53 -54 -55 55 -57 57 59 -60 -61 -62 -63
leaf_value=-0.069031071254850238 0.042917641861619671 0.04773236771163724 -0.025567015510683435 0.068786870102331504 0.0086146726208521634 -0.071398191301562344 0.04028336159146409 -0.013977043906486818 -0.041228063991113229 0.10660724597902056 0.019221620731902193 -0.042002661581577165 -0.030239120175888312 0.0022696578517171885 0.047930006528582703 0.064075893319612179 0.045472754102874852 -0.0011637080817503587 0.089179843594494768 -0.037375205580122417 0.022640067379830209 -0.0071546086918691191 -0.060157639512994215 -0.03791082294637186 -0.0072091803950193366 -0.046255078226256241 -0.043085768034753023 0.079511782585169846 0.029458123016194139 -0.016579699761175074 0.057796663956087957 0.037435022357412723 0.10659093816022046 0.023103223779520628 0.036092927301829725 0.0012138173218784977 0.049601838372958035 -0.021005363665198132 -0.054197029465842678 0.039561128883643326 -0.011188435770603546 -0.053059466989406778 0.034744683032136216 0.06272253396103282 0.011323167503532124 0.083957364273648055 0.053114845229790236 0.058360658770148427 -0.0086680615299422979 0.082664212409115131 -0.049200139687154365 -0.015831179801610817 -0.016075624882446071 0.019264132471051146 0.044623696982772972 0.047981312474630888 0.026361840691175826 0.054853408717891163 -0.071304558658850284 0.028614971441574349 0.064736889751031063 0.028626457714214515
leaf_weight=59146.763685584068 2136.2284317016602 20900.166329145432 9987.7399951219559 13080.935697078705 12601.644568443298 2350.1528694629669 1957.8603131771088 19352.023535966873 8881.8276783227921 12643.572615623474 8964.4618740081787 22415.666611194611 1001.1785892248154 4320.1107177734375 7618.4424471855164 1911.6972739696503 1599.8010240793228 18224.930223703384 781.32912683486938 6925.3953411579132 28020.318893074989 10865.758311033249 330.53587257862091 12600.270842432976 17818.148358821869 3151.5792125463486 2057.7153785228729 558.35003304481506 666.06738567352295 1025.8571875095367 8649.4454092979431 1570.9450702667236 452.82955956459045 17893.833621263504 8434.6881575584412 9510.8114860057831 432.78639400005341 14526.775936841965 47494.159753203392 2632.2067847251892 611.90219783782959 2700.6118248701096 176.55962741374969 22838.022981643677 1672.8206193447113 879.81166696548462 538.26387596130371 307.76446557044983 1895.5625412464142 11801.491598129272 2241.1579160690308 2766.1765426397324 1677.4256565570831 4814.6284363269806 6173.9673042297363 9329.3709716796875 2334.1848819255829 2432.2321608066559 574.97233295440674 8052.6731464862823 1537.0055632591248 3360.1274223327637
leaf_count=22169 161 1384 2345 561 1301 1664 326 2816 2657 364 794 6169 448 543 324 78 191 2548 43 1906 2723 1999 157 3664 2943 692 510 35 132 128 432 91 24 1833 705 1041 70 3020 15863 242 72 1476 66 1558 161 71 24 20 447 459 1051 965 489 500 494 605 218 143 91 626 95 422
internal_value=-0.000251344 0.0368241 -0.0396876 0.0603218 0.015391 -0.0563685 -0.0123007 -0.0193928 -0.0583067 0.0858985 0.00701506 -0.0278905 0.0284156 -0.00123581 0.0495251 0.0261192 -0.00767625 -0.0104691 0.0308531 -0.0343204 0.029816 -0.0146385 0.0177772 -0.0495532 -0.00363481 -0.0182017 -0.000218431 0.00865078 -0.0253418 0.0168312 0.0445743 0.0282594 0.0527778 0.016423 0.0266575 0.00995202 -0.00497638 -0.0262915 -0.0521546 0.0135722 0.0299883 -0.0680405 -0.0476611 0.059024 0.0363219 0.0541638 0.0237233 0.0110199 0.000716852 0.0753718 -0.0174308 -0.0307731 0.00648527 0.0129666 0.0422766 0.0383291 0.0337251 0.0286984 0.00704097 0.0347063 0.0405141 0.0128289
internal_weight=514212 265039 249173 126429 138610 136762 5762.02 112410 131000 37526 77839.3 65154.1 3411.87 41470.2 88903.5 60770.4 47256.2 42584.3 44808.6 43867.8 44027.3 21286.3 4671.93 68976.3 39334 7471.69 31862.3 14044.2 2723.78 11320.4 58447 42115.6 2410.69 36369.1 39664.8 18475.3 11298.5 21452.2 56376 10762 3244.11 62023.9 2877.17 30456.5 11644.5 2450.76 4341.39 2741.59 2203.33 24882.4 24359.4 5007.33 7517.91 5840.49 49797.6 28897.4 19568 13394.1 2909.16 10484.9 9971.69 15961.8
internal_count=95149 23064 72085 7259 15805 48357 2462 23728 45895 1384 10115 15509 798 6447 5875 5690 8219 7380 3967 11095 3924 4414 839 22184 6286 1235 5051 2108 642 1466 3993 3846 350 3668 3684 1835 2069 4926 18520 1431 314 23711 1542 1882 961 162 682 491 467 1020 4832 2016 1117 628 3561 2177 1572 1078 309 769 800 1723
is_linear=0
shrinkage=0.05


Tree=14
num_leaves=63
num_cat=0
split_feature=16 16 21 16 17 24 27 17 17 8 26 2 23 15 8 8 8 24 2 0 8 24 2 23 0 27 20 2 26 17 27 13 2 13 17 26 26 2 25 24 25 12 0 8 2 26 23 15 2 0 24 25 0 27 23 24 0 15 0 16 26 25
split_gain=274937 40450.1 28297.7 14821 6609.45 4650.4 5329.05 4063.66 3825.84 3773.67 2330.61 2192.04 1757.76 1738.84 1608.92 1579.77 1504.48 1911.63 1416.15 1162.15 1126.2 1126.13 963.838 918.536 898.479 858.17 1130.69 832.837 924.622 755.862 715.193 768.198 714.679 670.834 663.477 662.798 628.997 623.891 1223.17 979.17 724.06 763.874 616.87 577.143 573.378 568.066 564.875 594.508 564.645 557.454 665.688 1085.97 546.638 537.636 521.683 616.188 517.16 755.047 516.893 514.061 505.19 1768.48
threshold=10.500000000000002 54.500000000000007 1.1970731019973757 165.81250000000003 12.147321701049806 169.50000000000003 11.500000000000002 0.035714287311588704 3.0892857313156132 66.500000000000014 6.8149669170379648 1.0000000180025095e-35 21.826010704040531 3.5000000000000004 24.500000000000004 5.5000000000000009 17.750000000000004 177.50000000000003 1.5000000000000002 7.5000000000000009 219.00000000000003 103.50000000000001 1.5000000000000002 7.9812028408050546 24.500000000000004 12.500000000000002 0.50000000000075007 1.5000000000000002 1.8157895207405093 1.6250000000000002 48.500000000000007 0.50000000000075007 1.5000000000000002 238.50000000000003 1.1250000000000002 58.638980865478523 24.517270088195804 1.5000000000000002 0.94921937584877025 145.50000000000003 1.6429706215858462 92.750000000000014 20.500000000000004 113.50000000000001 5.5000000000000009 62.821546554565437 8.7161655426025408 11.500000000000002 1.5000000000000002 25.500000000000004 167.50000000000003 1.4110719561576845 25.500000000000004 49.500000000000007 20.267857551574711 35.500000000000007 8.5000000000000018 11.500000000000002 17.500000000000004 0.50000000000075007 5.0855264663696298 1.6429706215858462
decision_type=2 2 2 2 2 2 2 2 2 2 2 2 2 2 2 2 2 2 2 2 2 2 2 2 2 2 2 2 2 2 2 2 2 2 2 2 2 2 2 2 2 2 2 2 2 2 2 2 2 2 2 2 2 2 2 2 2 2 2 2 2 2
left_child=2 4 5 9 15 7 -7 46 11 10 60 36 29 24 18 27 17 25 -6 59 33 42 -10 -17 44 26 -12 -2 -29 -13 31 -25 -33 -5 -9 43 -4 38 -27 -40 41 -39 -11 -23 -8 -18 -1 -48 -19 50 51 -30 -50 -31 -24 -56 57 -15 -34 -14 61 -3
right_child=1 3 8 20 14 6 13 34 22 21 16 12 19 56 -16 23 45 48 -20 -21 -22 35 54 30 -26 37 -28 28 49 53 -32 32 58 -35 -36 -37 -38 40 39 -41 -42 -43 -44 -45 -46 -47 47 -49 52 -51 -52 -53 -54 -55 55 -57 -58 -59 -60 -61 -62 -63
