tree
version=v4
num_class=1
num_tree_per_iteration=1
label_index=0
max_feature_idx=30
objective=tweedie
feature_names=Column_0 Column_1 Column_2 Column_3 Column_4 Column_5 Column_6 Column_7 Column_8 Column_9 Column_10 Column_11 Column_12 Column_13 Column_14 Column_15 Column_16 Column_17 Column_18 Column_19 Column_20 Column_21 Column_22 Column_23 Column_24 Column_25 Column_26 Column_27 Column_28 Column_29 Column_30
feature_infos=[1:31] [0:17] [0:6] [0:1] [0:1] [0:1] [0:1] [0:1] [0:371.875] [0:371.875] [0:371.875] [0:371.875] [0:371.875] [0:371.875] [0:371.875] [1:12] [0:371.875] [0:364.75] [0:364.5] [0:371.875] [0:371.875] [0:175.44413757324219] [0:190.42362976074219] [2.0018797004198868e-13:91.905548095703125] [0:192] [0.00051048252498731017:1.8684734106063843] [0:142.02302551269531] [1:52] [2023:2024] [0:1] [0:17]
tree_sizes=6513 6807 6840 6815 6821 6810 6816 6806 6816 6840 6821 6832 6818 6823 6803 6831 6827 6831 6870 6850 6844 6875 6862 6873 6870 6843 6891 6856 6881 6876 6904 6867 6881 6864 6882 6911 6881

Tree=0
num_leaves=63
num_cat=0
split_feature=19 21 19 19 19 17 19 23 0 23 26 23 26 19 16 24 14 10 2 2 2 16 23 23 29 0 24 2 24 10 29 17 19 10 19 15 15 2 26 2 29 26 17 23 19 11 2 2 25 29 26 23 2 2 23 2 15 17 19 29 8 15
split_gain=1.01783e+06 84358.7 74684.2 13866.4 13077.7 11230.4 5654.15 4436.76 7364.44 4212.56 3441.09 3460.56 3183.4 3027.35 2713.14 2642.79 2632.5 2270.55 2382.66 1971.72 3449.51 1961.92 1869.15 1743.38 1460.38 2050.68 2014.61 1459.03 1988.01 1397.46 1361.05 1344.59 1262.45 1386.84 1255.12 1255.08 1221.65 1116.21 1070.31 1260.63 2624.45 1061.12 1044.59 1032.08 1011.5 1003.35 987.302 1067.57 954.114 933.743 1147.05 930.86 838.425 1255.16 714.375 701.251 696.029 784.409 689.441 686.032 865.998 1174.77
threshold=9.8660712242126483 2.2101856470108037 37.446428298950202 18.294643402099613 79.544643402099624 5.5178570747375497 1.2500000000000002 17.895676612854007 27.500000000000004 19.213346481323246 37.384046554565437 25.818843841552738 56.65460395812989 3.4642857313156132 33.750000000000007 168.50000000000003 18.500000000000004 5.5000000000000009 1.5000000000000002 4.5000000000000009 1.5000000000000002 0.50000000000075007 23.742011070251468 30.752467155456547 0.5892857313156129 8.5000000000000018 159.50000000000003 2.5000000000000004 35.500000000000007 5.5000000000000009 0.48214285075664526 4.1473214626312265 53.732143402099616 4.5000000000000009 134.51786041259768 11.500000000000002 9.5000000000000018 1.5000000000000002 37.384046554565437 2.5000000000000004 0.16071429103612903 51.995887756347663 24.866071701049808 30.752467155456547 1.8214285373687746 67.250000000000014 1.5000000000000002 4.5000000000000009 1.3886365890502932 0.19642857462167743 4.0271382331848153 7.9812028408050546 1.5000000000000002 4.5000000000000009 7.3611514568328866 2.5000000000000004 3.5000000000000004 25.223214149475101 6.3214285373687753 0.19642857462167743 78.500000000000014 7.5000000000000009
decision_type=2 2 2 2 2 2 2 2 2 2 2 2 2 2 2 2 2 2 2 2 2 2 2 2 2 2 2 2 2 2 2 2 2 2 2 2 2 2 2 2 2 2 2 2 2 2 2 2 2 2 2 2 2 2 2 2 2 2 2 2 2 2
left_child=1 6 3 14 12 9 7 21 35 13 17 -12 32 44 46 -14 29 49 23 20 30 -1 58 -19 -11 36 55 -13 -29 -16 -7 -8 33 -4 -6 -9 -26 43 -35 -40 -41 -24 -20 -31 -3 56 -2 51 -10 -5 -51 -48 -15 54 -54 -27 -18 -58 -22 -30 61 -61
right_child=2 5 4 10 34 19 31 8 48 24 11 27 15 52 16 -17 45 18 42 -21 22 -23 41 -25 25 26 -28 28 59 37 -32 -33 -34 38 -36 -37 -38 -39 39 40 -42 -43 -44 -45 -46 -47 47 -49 -50 50 -52 -53 53 -55 -56 -57 57 -59 -60 60 -62 -63
leaf_value=1.8238734629068933 1.9129045050176727 1.8472468703940219 2.012178796853918 1.9684442951469145 2.0256359883483692 1.8793320855615967 1.8460577842628845 1.8322706805295856 1.989717142216396 1.8810295333426055 1.8425696039181774 1.9810467912760508 1.8806298409381905 1.8648173670008203 1.9777981177682564 1.9989825855654544 1.8800191415526586 1.954554616366569 1.966244512230612 1.8832400439727812 1.8991994952699991 1.8331992676194555 1.9623281143068649 1.8709742267287988 1.9342896160848859 1.9643098180698957 1.8589810206238191 1.8410131522149289 1.9581799643240914 1.9337680511471844 1.9296540695551747 1.8861224229913396 2.0102088372387539 1.9930189061153032 2.044127902244457 1.9567723195586153 2.0309468470918337 1.9606503705700764 2.0120586343335298 1.9786438365447909 1.8593468133301589 1.87672063183389 1.9847561363198691 1.8481375427132263 1.8633707901714849 1.8445858447560768 1.9222174164351375 1.9187440397637723 1.9001999556672517 1.9463812058173333 2.0051174468033928 1.9481929883807443 1.8849849882292282 1.8679478101365208 1.9102180455676416 1.9022118172770557 1.9251062951046873 1.997632507607211 1.9194420757316752 1.8432161537069329 1.9727183307085461 1.9534023690496769
leaf_weight=119037.56133365631 8730.6686635017395 14899.90361905098 8971.7078282833099 3042.4196321964264 15414.311779737473 10714.990215301514 48891.901007175446 4000.6682319641113 1136.8272323608398 3944.6262707710266 803.21964645385742 2735.2554562091827 1015.3128523826599 9685.7888240814209 6886.5758166313171 879.60822081565857 702.37642335891724 10665.966800451279 13814.639956235886 11825.862282037735 6443.7526636123657 107345.49538016319 3082.9174246788025 662.17620706558228 791.0973494052887 1018.8612725734711 1528.973845243454 497.28462886810303 3405.7022974491119 2085.5113220214844 1535.3679811954498 2188.2933511734009 24268.838457107544 22278.231693983078 23039.354657649994 212.42634153366089 557.63885402679443 4703.451199054718 858.24261736869812 1427.6687421798706 679.99233102798462 409.71386051177979 17094.03518652916 422.39140176773071 28051.619859933853 429.95840454101562 5002.2761187553406 9130.3480706214905 403.32914185523987 913.56836342811584 9527.5760407447815 11134.622020244598 13005.522914171219 9928.0612821578979 3575.2190425395966 820.85177993774414 2730.8187220096588 431.16727924346924 12116.832373380661 562.9929530620575 472.93170642852783 422.58053708076477
leaf_count=24845 1035 3303 386 294 777 1603 9116 1455 128 1002 179 184 133 1524 553 86 104 1072 1154 1810 922 21835 376 100 125 76 491 58 323 255 236 318 1505 1592 599 35 26 418 34 104 96 90 1350 85 4771 94 556 1016 103 72 522 1008 1659 1546 574 107 385 27 1329 89 34 44
internal_value=1.89378 1.84817 1.98192 1.95489 2.01392 1.88087 1.83271 1.8294 1.87276 1.87038 1.97039 1.94151 1.99941 1.86675 1.93577 1.93559 1.95124 1.975 1.96929 1.90085 1.90691 1.8283 1.91873 1.94967 1.90348 1.92225 1.90138 1.95133 1.93616 1.96168 1.88564 1.84777 2.00147 1.99527 2.03672 1.83856 1.97432 1.94629 1.98926 1.961 1.94016 1.95228 1.97648 1.91933 1.85778 1.91696 1.9274 1.93241 1.96629 1.99287 1.99998 1.94014 1.87741 1.88201 1.89043 1.93662 1.92503 1.93503 1.91242 1.94589 1.91718 1.89047
internal_weight=632998 417154 215844 117011 98833.3 133938 283217 232136 5753.25 87808.2 64620.3 8899.97 60379.6 79146.1 52390.2 1894.92 18392.3 55720.4 42236.8 46129.4 34303.6 226383 22053.2 11328.1 8662.05 4717.42 3368.69 8096.75 5361.49 14097.9 12250.4 51080.2 58484.7 34215.8 38453.7 4213.09 1348.74 7211.35 25244.1 2965.9 2107.66 3492.63 30908.7 2507.9 42951.5 4294.32 33997.9 25267.2 1540.16 13483.6 10441.1 16136.9 36194.6 26508.8 16580.7 1839.71 3864.36 3161.99 18560.6 4864.21 1458.51 985.573
internal_count=95728 79405 16323 11011 5312 21570 57835 48401 1721 15204 5475 911 3936 13377 5536 219 1921 4564 3676 6366 4556 46680 2717 1172 1827 825 674 732 548 1311 1839 9434 3717 2212 1376 1490 151 758 1826 234 200 466 2504 340 8074 610 3615 2580 231 888 594 1564 5303 3779 2233 183 516 412 2251 490 167 133
is_linear=0
shrinkage=1


Tree=1
num_leaves=63
num_cat=0
split_feature=19 21 19 19 19 17 17 24 27 15 23 19 16 13 2 2 2 23 19 19 9 19 23 29 0 24 27 29 2 17 2 2 2 2 2 2 2 2 23 27 15 23 19 29 21 13 20 2 8 0 27 19 27 2 25 24 25 21 27 8 0 23
split_gain=931703 81442.5 72966.3 13874.2 13042.1 10801.9 5100.47 4782.81 9243.7 6548.75 3799.74 3053.02 2645.33 1843.1 1773.52 3022.56 1702.48 1683.55 1654.2 1497.97 1515.56 1468.52 1398.15 1270.34 1789.78 1845.04 1445.74 1246.37 1222.1 1192.29 1044.99 978.703 1616.02 968.402 1362.55 928.714 897.481 975.627 832.118 796.816 801.152 796.339 745.424 683.773 651.976 632.343 838.707 619.044 605.806 594.233 1270.98 570.382 569.093 549.981 1328.8 919.815 700.663 546.123 538.591 865.502 610.438 525.428
threshold=9.7232141494750994 2.1167948246002202 37.446428298950202 79.544643402099624 18.294643402099613 5.5178570747375497 0.76785713434219371 168.50000000000003 12.500000000000002 3.5000000000000004 19.213346481323246 3.0357142686843877 33.750000000000007 5.5000000000000009 4.5000000000000009 1.5000000000000002 4.5000000000000009 23.742011070251468 26.053571701049808 53.732143402099616 93.062500000000014 174.00000000000003 1.4656955003738406 0.5892857313156129 8.5000000000000018 159.50000000000003 31.500000000000004 0.48214285075664526 4.5000000000000009 0.035714287311588704 2.5000000000000004 4.5000000000000009 1.5000000000000002 1.5000000000000002 4.5000000000000009 1.0000000180025095e-35 1.5000000000000002 4.5000000000000009 7.9812028408050546 12.500000000000002 2.5000000000000004 7.3611514568328866 4.3214285373687753 0.37500000000000006 41.260126113891609 15.500000000000002 0.50000000000075007 2.5000000000000004 86.500000000000014 8.5000000000000018 48.500000000000007 2.7410713434219365 14.500000000000002 2.5000000000000004 1.6429706215858462 105.50000000000001 1.6429706215858462 45.558736801147468 18.500000000000004 3.5625000000000004 11.500000000000002 7.2021851539611825
decision_type=2 2 2 2 2 2 2 2 2 2 2 2 2 2 2 2 2 2 2 2 2 2 2 2 2 2 2 2 2 2 2 2 2 2 2 2 2 2 2 2 2 2 2 2 2 2 2 2 2 2 2 2 2 2 2 2 2 2 2 2 2 2
left_child=1 6 4 19 12 10 7 29 -9 -10 11 31 36 53 15 27 58 39 28 20 44 -5 -8 51 26 47 -25 -7 35 -1 -22 32 -3 -13 41 -6 -2 38 -38 40 -17 -35 -24 -32 -4 -30 -47 -26 -46 50 -11 -12 -29 54 55 -14 -55 -20 59 60 -15 -41
right_child=2 5 3 21 18 14 22 8 9 49 23 33 13 16 -16 17 -18 -19 57 -21 30 -23 42 24 25 -27 -28 52 45 -31 43 -33 -34 34 -36 -37 37 -39 -40 61 -42 -43 -44 -45 48 46 -48 -49 -50 -51 -52 -53 -54 56 -56 -57 -58 -59 -60 -61 -62 -63
leaf_value=-0.070686462550524631 0.017571121974557274 -0.047779300104077382 0.092358850040317728 0.13090293439115031 0.046777516147671006 -0.014116313291594646 -0.053533422642746978 -0.071413269800587001 0.1063679738282672 -0.059487393189830519 -0.040922665233996118 -0.030131483138040861 0.086449652321707496 -0.061224743360626388 -0.010382715949280913 0.010839040244817612 0.0010157814100824197 0.055702321090251805 0.078327955985560568 0.11033117077221483 0.092901935387456239 0.15090524107873049 -0.04032923100871779 0.025801569209998522 0.06628446541016704 -0.034144437918100852 0.13107466217234995 -0.0021165152541310632 0.062222608890798947 -0.062368038626618917 0.062156467306139808 -0.050369155614597143 -0.022869191163945764 -0.010444580091056525 -0.026601185086221942 0.074138851172841178 0.026567013517455856 0.02303940163072828 0.050708311013171727 0.011246436640738903 -0.04095296634341971 0.014069830804183781 -0.0038565385360324316 -0.022392060466545006 0.11348895001702673 -0.0048063089025746943 0.046837523328543795 0.0079850277601444287 0.07681328007163174 -0.065429184039016139 0.10044439474765328 0.00021118670496428853 0.059609323879272272 0.069857590288448609 -0.024224358470669151 0.033920707568641802 0.11113805676107194 0.10196088721130614 0.060109265914532785 0.053123342198834814 0.028494945235321603 0.03058690846015524
leaf_weight=102940.52888607979 9035.7634079456329 10420.28030371666 24305.903782844543 20839.578347206116 3687.9163177013397 10399.892667293549 68251.883390426636 4667.7871737480164 1687.541305065155 322.05855941772461 1227.8664875030518 11652.300956964493 2189.734831571579 350.4028000831604 11538.360514163971 2824.5027899742126 2265.9484651088715 3401.9154992103577 31189.325268745422 24942.29509973526 746.40827298164368 16550.212333917618 12615.280762195587 691.83241844177246 1018.5154492855072 1521.1617388725281 617.02981615066528 636.58174180984497 3506.4033088684082 74264.946502447128 420.973224401474 10135.821691036224 17361.973541736603 16440.059656858444 12183.44507932663 19728.857594966888 5198.4209208488464 9461.6989586353302 11417.902129173279 5903.0679748058319 1013.8651707172394 4147.8333852291107 1576.1391603946686 551.04277539253235 7730.57164311409 1068.3274998664856 2973.7455742359161 823.38514804840088 1328.7864556312561 868.72910904884338 200.83638405799866 2682.2867221832275 902.02462196350098 3942.7990911006927 455.63742685317993 1348.2254829406738 1396.2851312160492 2664.9732406139374 4862.8832640647888 1432.5220692157745 410.80267548561096 8673.9418437480927
leaf_count=22047 1066 2173 1804 1002 396 1575 12826 1846 164 121 374 1885 148 86 1776 309 352 454 2548 1592 47 374 2521 119 75 499 32 105 330 16866 53 2156 3238 2136 1946 1596 574 1054 1032 700 203 696 213 77 274 194 286 107 89 330 21 630 128 380 54 242 47 125 488 99 38 1010
internal_value=-2.45484e-05 -0.0448779 0.0837857 0.115849 0.0574463 -0.0134095 -0.0609086 -0.0655195 -0.0270597 0.0401785 -0.0233471 -0.0266469 0.0392393 0.0544552 0.00653935 0.0123238 0.0387235 0.0233911 0.0725485 0.100953 0.094282 0.139761 -0.0505638 0.00831285 0.0259092 0.00659542 0.0754921 -0.00790176 0.0641904 -0.0672007 0.048448 -0.0370679 -0.0322136 -0.0177514 -0.0133487 0.0698319 0.031154 0.0358595 0.0431578 0.0174195 -0.00284839 -0.00550523 -0.036279 0.0142516 0.0966411 0.0466827 0.0331901 0.0402413 0.108119 -0.0401043 0.00201457 -0.0127128 0.0340861 0.0701641 0.0560991 0.0664475 0.0806721 0.0801913 0.0508299 0.0302421 -0.0128315 0.0227562
internal_weight=619618 403614 216004 97415.8 118589 136218 267396 184952 7746.95 3079.17 90923.8 82341.7 53769 18655.2 45294.2 33755.8 9322.56 21817.3 64819.5 60026 35083.7 37389.8 82443.3 8582.08 4671.92 3363.06 1308.86 11938.5 30965.3 177205 1718.42 37918.1 27782.3 44423.6 32771.3 23416.8 35113.8 26078 16616.3 18415.4 3838.37 20587.9 14191.4 972.016 33365.3 7548.48 4042.07 1841.9 9059.36 1391.62 522.895 3910.15 1538.61 9332.68 3993.6 3537.96 5339.08 33854.3 7056.61 2193.73 761.205 14577
internal_count=95728 79281 16447 5312 11135 22326 56955 41395 2482 636 16066 14230 5660 1934 6260 4484 1063 2676 5475 3936 2344 1376 15560 1836 832 681 151 1808 2802 38913 177 7567 5411 6663 4778 1992 3726 2660 1606 2222 512 2832 2734 130 2167 810 480 182 363 472 142 1004 233 871 444 390 427 2673 711 223 124 1710
is_linear=0
shrinkage=0.05


Tree=2
num_leaves=63
num_cat=0
split_feature=19 21 19 19 16 16 17 24 0 15 23 19 14 19 7 17 10 23 0 24 19 25 19 14 17 14 10 10 25 23 25 17 7 7 19 10 21 23 19 27 13 19 10 29 27 17 14 13 29 16 19 7 27 23 0 10 10 7 21 21 15 16
split_gain=851620 75128.6 73911.9 14609.1 13429.4 9542.08 4769.04 4355.17 9096.54 3530.03 3165.21 2577.79 2617.09 2462.48 2119.46 2018.89 1990.18 1983.61 1958.6 1766.04 1697.73 1524.01 1461.48 1580.28 1452.96 1383.87 1535.47 1366.69 1242.49 1172.75 1120.83 1096.15 1074.27 1061.57 1054.07 899.219 844.03 840.682 839.141 1071.96 778 773.444 730.714 719.977 707.798 676.875 673.918 632.239 848.311 606.395 590.817 587.815 585.685 566.57 566.441 553.829 535.538 693.162 534.875 534.778 466.746 477.041
threshold=9.1517858505249041 2.0250988006591801 37.446428298950202 79.544643402099624 33.750000000000007 10.500000000000002 0.69642856717109691 168.50000000000003 26.500000000000004 2.5000000000000004 20.267857551574711 26.053571701049808 29.500000000000004 3.0357142686843877 1.0000000180025095e-35 15.504464149475099 16.500000000000004 20.267857551574711 9.5000000000000018 159.50000000000003 174.00000000000003 1.6429706215858462 53.732143402099616 69.500000000000014 0.76785713434219371 74.500000000000014 13.250000000000002 18.500000000000004 1.6429706215858462 1.4656955003738406 1.6318546533584597 0.035714287311588704 1.0000000180025095e-35 1.0000000180025095e-35 5.3214285373687753 8.5000000000000018 27.112469673156742 23.057565689086918 22.723214149475101 12.500000000000002 27.500000000000004 5.6071429252624521 8.5000000000000018 0.089285716414451613 48.500000000000007 15.504464149475099 0.50000000000075007 5.5000000000000009 0.30357143282890325 138.50000000000003 4.5803573131561288 1.0000000180025095e-35 49.500000000000007 4.3853383064270028 10.500000000000002 3.5625000000000004 14.250000000000002 1.0000000180025095e-35 45.558736801147468 5.8823900222778329 11.500000000000002 30.812500000000004
decision_type=2 2 2 2 2 2 2 2 2 2 2 2 2 2 2 2 2 2 2 2 2 2 2 2 2 2 2 2 2 2 2 2 2 2 2 2 2 2 2 2 2 2 2 2 2 2 2 2 2 2 2 2 2 2 2 2 2 2 2 2 2 2
left_child=1 6 4 22 15 10 7 31 44 -10 13 12 16 32 17 52 33 34 24 40 -5 47 23 27 -12 26 58 -4 38 -8 -25 -1 -3 36 55 60 -6 -11 39 43 -20 -16 -36 -14 -9 -26 -43 -18 -49 -29 -31 -41 56 -15 -27 -7 57 59 -13 -2 61 -19
right_child=2 5 3 20 11 14 29 8 9 37 18 25 28 53 41 -17 21 35 19 -21 -22 -23 -24 30 45 54 -28 49 -30 50 -32 -33 -34 -35 42 -37 -38 -39 -40 51 -42 46 -44 -45 -46 -47 -48 48 -50 -51 -52 -53 -54 -55 -56 -57 -58 -59 -60 -61 -62 -63
leaf_value=-0.070632151815645736 0.015427977376145506 -0.032084311518024912 0.11054963938750551 0.12674056122110089 0.07005873228009657 -0.0021252145111020078 -0.053310133661545051 -0.070146867316277881 -0.071272125721356994 0.047803417003921406 0.1094385560496737 0.08879736727846807 0.034546669006312002 -0.022426238104896239 -0.02978799911415226 0.048563721399300985 0.064060866637049935 0.027630423007590957 0.03589758967809982 -0.047322829278932783 0.14853453235989164 -0.022471512747688202 0.10544977660755304 0.072183506934556482 -0.0010635246025389395 -0.013451819327850251 0.070702016820460303 0.088774797741653588 -0.032833404195625936 -0.03963732432392772 -0.001497832585971557 -0.062227558001972494 -0.050804517319585775 0.042949855116373566 0.014768844337511381 -0.0050491862971704521 0.092610375940890041 0.11488065780716801 0.060063927678298303 0.050858682972108007 -0.027167655734727375 0.032849989757070507 -0.0044298791325428103 -0.058869343839981395 0.017082666089508685 0.06302117182754903 -0.010894440619645852 0.048542624514945822 -0.0084898625478076559 0.045291071676554634 -0.00038358983442119169 0.015301675102620746 0.051120922260205717 -0.0076447373155010545 0.049892797764705656 -0.025627155928659724 0.013306891439181113 0.013062374426771281 0.11840023910439186 0.038302606460617866 0.095374016024791425 0.06179879414520062
leaf_weight=97974.179164886475 3284.921174287796 29402.750412225723 8771.6768770217896 20457.90757060051 12446.235284090042 6994.8919661045074 71075.507665395737 4774.4059023857117 455.56806182861328 875.24402523040771 613.56973838806152 8357.0631074905396 332.46160316467285 25485.52644777298 5519.8135492801666 11975.503970623016 6819.5201404094696 4131.4954056739807 1609.456375837326 2009.8463628292084 15988.124674797058 698.99043869972229 24796.175375461578 4470.780838727951 1217.543872833252 462.6640682220459 21495.838398218155 20419.293089389801 644.4510440826416 10248.124020576477 583.43623208999634 64401.623292207718 10371.183878421783 2511.3737268447876 14967.176554203033 1390.1798226833344 6249.0781593322754 1006.5917925834656 3087.5198867321014 2955.6357982158661 701.44019055366516 997.97327446937561 7408.9192590713501 540.14384341239929 244.08834934234619 621.78746938705444 7420.6005351543427 6462.1946516036987 724.8538646697998 837.86516809463501 1057.5126311779022 1917.2010765075684 1951.4293282032013 8696.0120122432709 1481.8974733352661 3905.9718070030212 9912.4102997779846 5981.3669435977936 1880.8787622451782 11529.75204873085 352.91228246688843 1357.9168665409088
leaf_count=22041 395 5821 381 1002 1024 1168 13844 1977 182 167 51 531 29 3340 1131 1148 707 698 172 709 374 95 1592 361 253 69 1818 1455 96 2210 74 15391 2273 279 1824 324 361 77 288 306 138 164 1014 116 59 57 1128 607 103 73 132 313 171 1531 152 712 1147 696 57 1161 32 127
internal_value=-4.98034e-05 -0.0446776 0.078503 0.111343 0.0529302 -0.0146028 -0.0608029 -0.0655944 -0.0279592 0.0534979 -0.0255125 0.0653082 0.0575282 -0.0285087 0.00157295 0.0310027 0.0636963 0.00735951 0.00720029 -0.0130575 0.136305 0.0495545 0.0961484 0.0895715 0.0428748 0.0757915 0.0783008 0.0939271 0.0341515 -0.0509304 0.0636794 -0.0672991 -0.0369668 0.0735 0.00220101 0.0310903 0.0776014 0.0837249 0.0390418 0.0277364 0.0167515 -0.015244 0.00841207 -0.0232792 -0.0659017 0.0206228 -0.00570551 0.0531503 0.0427902 0.0870631 -0.0359659 0.0368749 0.0245622 -0.0186661 0.0348222 -0.010548 0.0228729 0.0274316 0.0942469 0.0332319 0.0396891 0.0360924
internal_weight=607318 387290 220029 96325.3 123703 135177 252113 169732 7355.9 2337.4 80729.1 79068 45389.7 73955.5 54447.9 44635.4 35912.2 40509.5 6773.64 4320.74 36446 14705.6 59879.2 35083.1 2452.9 33678.3 31733.8 30028.8 9477.41 82381.1 5054.22 162376 39773.9 21206.7 33277 7232.5 18695.3 1881.84 8832.96 5745.44 2310.9 13938.4 22376.1 872.605 5018.49 1839.33 8418.57 14006.6 7187.05 21257.2 11305.6 4872.84 32659.9 34181.5 1944.56 10900.9 30708.5 20796 10237.9 14814.7 5842.32 5489.41
internal_count=95728 78747 16981 5312 11669 22667 56080 39894 2462 426 14345 6951 4324 12965 8322 4718 3176 5899 1380 1019 1376 1512 3936 2344 361 2627 2406 1909 1148 16186 435 37432 8094 1664 4718 1181 1385 244 1052 764 310 2423 2838 145 2036 310 1292 1417 710 1528 2342 619 3570 4871 221 1880 3399 2252 588 1556 857 825
is_linear=0
shrinkage=0.05


Tree=3
num_leaves=63
num_cat=0
split_feature=19 21 19 19 19 16 17 24 27 15 26 23 23 16 26 17 26 2 2 2 23 19 21 13 23 24 22 19 23 18 2 24 17 17 14 9 27 2 16 6 17 26 2 2 24 24 26 2 20 24 2 21 22 19 19 2 2 26 2 2 2 12
split_gain=777818 73701.9 69765 15159.6 12181.5 8802.05 5024.03 4235.57 8029.21 6027.95 3014.59 3015.26 2913.88 2544.36 2413.98 2325.62 2069.36 1921.95 3030.87 1890.36 2416.41 1758.55 1663.43 1627.39 1563.77 1396.81 1350.68 1322.17 1310.76 1298.54 1249.88 1741.78 1179.56 1179.5 1163.42 1161.1 1229.34 1091.52 1050.54 1008.21 926.432 902.683 861.946 1303.44 808.922 785.034 776.041 3846.6 2379.29 2401.89 1230.34 1125.1 1075.1 735.704 722.378 707.9 821.991 702.207 688.963 677.386 635.005 612.107
threshold=9.1517858505249041 2.0250988006591801 37.446428298950202 81.794643402099624 18.294643402099613 10.500000000000002 0.69642856717109691 168.50000000000003 12.500000000000002 3.5000000000000004 37.384046554565437 25.818843841552738 19.213346481323246 33.250000000000007 37.384046554565437 3.0892857313156132 56.65460395812989 4.5000000000000009 1.5000000000000002 1.5000000000000002 28.074835777282718 174.00000000000003 16.994054794311527 30.812500000000004 30.752467155456547 167.50000000000003 18.515115737915043 61.964286804199226 23.742011070251468 43.660713195800788 2.5000000000000004 35.500000000000007 2.0178571939468388 0.035714287311588704 4.5000000000000009 63.500000000000007 48.500000000000007 4.5000000000000009 71.500000000000014 1.0000000180025095e-35 11.290178298950197 3.1710526943206792 4.5000000000000009 1.5000000000000002 159.50000000000003 159.50000000000003 37.384046554565437 2.5000000000000004 2.7500000000000004 170.50000000000003 1.5000000000000002 43.031507492065437 67.240505218505874 5.1785714626312265 6.3214285373687753 1.5000000000000002 4.5000000000000009 4.0271382331848153 1.5000000000000002 4.5000000000000009 4.5000000000000009 38.250000000000007
decision_type=2 2 2 2 2 2 2 2 2 2 2 2 2 2 2 2 2 2 2 2 2 2 2 2 2 2 2 2 2 2 2 2 2 2 2 2 2 2 2 2 2 2 2 2 2 2 2 2 2 2 2 2 2 2 2 2 2 2 2 2 2 2
left_child=1 6 4 16 13 12 7 33 -9 -10 19 -12 15 40 34 42 27 18 22 24 37 -5 -7 35 38 29 -16 46 54 -18 -13 -32 -8 -1 61 36 45 -21 -6 -26 -2 -19 43 -3 -25 -14 50 -48 49 -49 52 -52 -4 -43 -20 -17 -57 -53 -42 -36 -60 -15
right_child=2 5 3 21 10 17 32 8 9 -11 11 30 23 14 26 55 25 41 28 20 -22 -23 -24 44 39 -27 -28 -29 -30 -31 31 -33 -34 -35 59 -37 -38 -39 -40 -41 58 53 -44 -45 -46 -47 47 48 -50 -51 51 57 -54 -55 -56 56 -58 -59 60 -61 -62 -63
leaf_value=-0.070574090806982515 0.016687511905851521 -0.046660361297491737 0.081863109132297121 0.12308182120256128 0.048383334664544933 -0.016859469492380468 -0.052253763905980723 -0.071411679010168302 0.098732790143612206 -0.047601382743516829 -0.052430871078695929 0.074600082634399822 0.021384879351313092 0.061466162859673983 0.037215121727829654 -0.030398879264461866 -0.05453281637368998 0.023828270466011315 0.0044213663377488874 0.074187941788256884 0.094422595865711959 0.14588551479230599 0.042398601853696372 0.00095419344456972261 0.045784933066559473 0.091601809525613462 -0.032379816340422529 0.10675412603421129 0.047777463031237699 0.048887637551661992 -0.053972967675031382 0.042448457041927602 -0.033799082958302744 -0.061661070852311123 0.048899338800857839 0.096968978974673659 0.072014207341104794 0.054213385810640051 0.077308386505046275 -0.067146224456251166 0.017800494631907686 -0.037184574227112251 -0.049770868752084058 -0.023597189579274421 -0.060105469605778832 -0.024924408904706895 0.10592907912366928 -0.058018840138578179 0.074930042180474027 0.076686994026906971 0.091546045757960257 0.091563795206579091 0.019795102659584295 -0.010792626776120071 0.022100530552781415 -0.0078975632121421942 -0.025910138916241027 0.12490328985229238 0.044301611651334984 0.012652974584461791 0.024414116450455738 0.095095479327042598
leaf_weight=93270.699139356613 15674.730616807938 9691.9275960922241 9172.2524108886719 18796.019404888153 9741.2235112190247 13054.124436378479 69945.841860294342 4227.0832533836365 1661.9490747451782 1219.2693819999695 835.56865334510803 2766.6589062213898 2203.4196019172668 7214.0554859638214 1519.1631064414978 9661.8060030937195 475.20761942863464 1374.9347865581512 11879.607970237732 19637.4408659935 11209.565365076065 15477.708825588226 1301.4585964679718 1059.5910754203796 369.81531000137329 925.64792013168335 1286.7563824653625 14512.039907455444 3072.3146014213562 836.05322909355164 516.12843084335327 4979.7029683589935 9890.3566961288452 61809.517454385757 6167.9595205783844 462.13688468933105 755.30479717254639 10519.82110452652 4639.0580587387085 422.25458812713623 6057.9055597782135 3800.6816022396088 9327.6748375892639 16661.879034519196 1110.2657372951508 1563.7474601268768 4082.6757917404175 998.37438869476318 1555.6897597312927 493.75914359092712 20011.52153635025 2320.7238430976868 755.91571402549744 8650.3383114337921 11249.880619764328 16943.412764072418 10114.981696367264 5055.6899721622467 11482.170557260513 1630.5280718803406 6178.0478076934814 1670.6000602245331
leaf_count=22041 1884 2115 710 923 977 2245 14154 1846 163 453 179 184 284 641 208 1543 66 239 1799 1591 485 374 143 178 64 90 204 947 454 71 58 490 2032 15391 610 24 95 1064 333 50 676 837 2100 3173 424 500 139 134 94 59 1435 88 56 1347 1258 2343 1566 126 1006 237 633 95
internal_value=-7.39524e-05 -0.0437687 0.0746011 0.106758 0.0499456 -0.0140101 -0.0602374 -0.0652921 -0.0275461 0.0368123 0.0647578 0.0380389 -0.0246075 0.0334331 0.0482103 -0.0276155 0.0918439 0.00149281 0.0069809 0.0690566 0.0745951 0.133384 -0.0114846 0.00583251 0.0539521 0.044611 0.00529967 0.0936351 0.0170979 0.0113945 0.0471931 0.0333851 -0.049968 -0.0670221 0.0554266 0.0215652 0.0138402 0.0672222 0.0577192 -0.0144277 0.0261213 -0.0146054 -0.0367062 -0.0320804 -0.0303019 0.00216042 0.0893494 0.0742035 0.031685 -0.0134221 0.0922415 0.0977128 0.0771398 -0.0188511 0.0130209 -0.0187811 -0.0146317 0.114428 0.0323549 0.0413234 0.0373462 0.0677995
internal_weight=595953 375964 219988 95469.3 124519 133939 242025 162189 7108.3 2881.22 65637.2 9098.06 79556.1 58881.9 19489.1 72401.7 61195.6 54383.3 40557.4 56539.2 41366.8 34273.7 14355.6 7154.47 15172.4 2236.91 2805.92 58958.6 26201.8 1311.26 8262.49 5495.83 79836.2 155080 16683.1 4984.61 4522.47 30157.3 14380.3 792.07 39392.9 13826 35681.5 26353.8 2169.86 3767.17 44446.6 7130.5 3047.82 1492.13 37316.1 27387.9 9928.17 12451 23129.5 36720.2 27058.4 7376.41 23718.1 7798.49 17660.2 8884.66
internal_count=95728 78747 16981 5312 11669 22667 56080 39894 2462 616 5475 911 14345 6194 1995 12840 4015 8322 5899 4564 3140 1297 2388 1505 1424 227 412 3788 3511 137 732 548 16186 37432 1583 903 879 2655 1310 114 4199 2423 7388 5288 602 784 2841 426 287 193 2415 1649 766 2184 3057 5452 3909 214 2315 847 1639 736
is_linear=0
shrinkage=0.05


Tree=4
num_leaves=63
num_cat=0
split_feature=19 19 21 19 21 23 19 26 23 0 15 19 23 26 2 2 23 19 19 2 23 10 21 19 14 2 29 19 26 2 23 27 22 23 26 23 19 21 2 2 25 29 23 19 23 2 29 14 10 2 26 29 29 2 8 8 2 2 27 26 21 13
split_gain=711024 77074.1 58937 20175.3 10064.7 5821.96 5049.85 4977.89 3943.19 7489.1 2944.03 2798.61 2751.68 2713.75 2531.41 3851.54 2914.66 2243.66 2167.05 2141.51 2329.68 2113.61 1667.76 1557.44 1547.06 1530.45 2446.85 1466.4 1158.19 1262.91 1261.9 1116.02 1103.16 1078.49 1072.18 1068.1 1037.34 1025.86 972.419 1072.74 887.122 858.693 857.031 821.245 796.346 769.883 1113.17 765.766 755.127 1559.83 1369.32 1269.83 852.773 742.511 687.283 667.238 630.104 1159.34 618.251 611.881 600.376 673.748
threshold=7.5803573131561288 31.330357551574711 2.0250988006591801 79.544643402099624 11.819483280181887 4.3627820014953622 0.82142856717109691 37.384046554565437 13.45277261734009 26.500000000000004 2.5000000000000004 14.589285373687746 25.818843841552738 56.65460395812989 4.5000000000000009 1.5000000000000002 23.742011070251468 53.732143402099616 134.51786041259768 1.0000000180025095e-35 21.826010704040531 4.5000000000000009 3.1617875038136849e-06 1.8214285373687746 76.500000000000014 2.5000000000000004 0.26785714924335485 3.6071428060531621 37.384046554565437 1.5000000000000002 27.097274780273441 48.500000000000007 10.309784889221193 1.5465225577354433 47.363487243652351 30.752467155456547 2.1071428060531621 45.558736801147468 1.5000000000000002 4.5000000000000009 1.4152675271034243 0.51785713434219371 37.936794281005866 18.580356597900394 37.936794281005866 2.5000000000000004 0.12500000372529033 20.812500000000004 3.5625000000000004 1.5000000000000002 4.0271382331848153 0.30357143282890325 0.23214285820722583 2.5000000000000004 71.500000000000014 1.5000000000000002 4.5000000000000009 1.5000000000000002 14.500000000000002 3.1710526943206792 26.112626075744632 25.562500000000004
decision_type=2 2 2 2 2 2 2 2 2 2 2 2 2 2 2 2 2 2 2 2 2 2 2 2 2 2 2 2 2 2 2 2 2 2 2 2 2 2 2 2 2 2 2 2 2 2 2 2 2 2 2 2 2 2 2 2 2 2 2 2 2 2
left_child=2 4 6 13 11 27 8 19 22 -10 -11 38 -9 17 15 32 23 21 -5 55 43 37 -1 -17 -15 42 -27 56 29 35 -30 34 60 -8 41 -23 -16 -3 -2 -40 -12 -18 -14 47 54 -32 -47 -21 50 52 -22 -52 -50 -25 -28 58 57 -4 -6 -38 -7 -62
right_child=1 3 5 18 7 14 33 12 9 10 40 -13 25 24 36 16 31 -19 -20 20 48 28 -24 53 -26 26 44 -29 30 -31 45 -33 -34 -35 -36 -37 59 -39 39 -41 -42 -43 -44 -45 -46 46 -48 -49 49 -51 51 -53 -54 -55 -56 -57 -58 -59 -60 -61 61 -63
leaf_value=-0.070581445664891621 0.0031907024196693719 0.084310816308391628 -0.046396853990915088 0.11384154820058423 0.0067444439086672197 -0.025411885151700106 -0.050540328915861521 -0.056750397401405542 -0.063668525227885048 -0.071249104215940981 0.099967257846380747 0.040271727871835174 0.070385790177337218 0.080602005574739455 -0.047946864511245108 -0.024687233456342134 0.023982246994504474 0.097386160996418392 0.1391571497124805 0.047461232463985717 0.032067411466302952 0.065901618552929281 -0.060320090777997187 -0.0055155825561418667 -0.0024538976573633257 0.041673735477238232 -0.054140073180242401 -0.018434783976373006 -0.017665642531876618 0.081893475375419467 0.096835991484731113 0.1023621501276068 0.034026857251672919 -0.031890049777448158 -0.0017546405725054046 0.0078956269760656183 0.018468178935416756 0.11310108626820009 0.028712221463365446 0.0086801598398346443 0.015648968304342755 0.079016725639031907 0.003521516882348516 0.059473191532394346 0.036150195800548658 0.064448084313804929 -0.0067599864920290676 0.012605672803709545 0.044994435890923577 0.07305190799316473 0.046689576883334555 0.09735102984749601 -0.027153307932957269 0.013558454801700018 0.017826439944518348 0.021534425920622075 -0.047791909601650973 -0.023257845176838897 0.066339121696498943 -0.020458976860327365 0.045181173679733892 -0.031402691569268094
leaf_weight=86738.379980325699 9876.4641933441162 7239.3326148986816 8515.1173331737518 14513.589904546738 553.38062882423401 15831.924781084061 57161.969526767731 1020.1127455234528 4314.1715514659882 397.00149488449097 1300.414400100708 18742.592691659927 2565.7025015354156 920.35471630096436 3469.4073278903961 4415.5414831638336 1391.0943508148193 23706.071692466736 20390.895353794098 6479.2126867771149 1155.5950210094452 8441.3429534435272 72995.715315818787 7397.9291243553162 1432.0457446575165 3418.8833243846893 1503.8061316013336 19506.899794816971 605.92962074279785 26254.116789579391 1035.4994759559631 707.42749953269958 896.27132654190063 8975.430522441864 1373.5188784599304 876.27326440811157 1097.104416847229 5436.5388441085815 18241.567283391953 10548.919988393784 410.84009885787964 1446.6709008216858 589.38948225975037 11433.462022781372 440.7613570690155 2193.7508647441864 731.61202597618103 2083.2364263534546 1739.6919388771057 12518.451296806335 1460.0593612194061 8195.7191305160522 534.84717035293579 16437.478446960449 425.04167723655701 4308.663831949234 8208.9202101230621 14870.679522752762 2041.0362784862518 12538.830328702927 656.95082473754883 508.70663189888
leaf_count=21323 1265 448 1700 777 77 3190 12080 214 1904 174 119 1689 130 87 995 1074 266 1505 599 753 87 695 18564 1162 170 387 206 2638 110 1848 48 62 136 1776 304 89 206 154 1862 1302 99 127 136 1146 82 134 77 354 156 787 169 371 74 2289 43 508 1693 2573 188 2331 70 146
internal_value=-9.72609e-05 0.0675061 -0.0450273 0.0969826 0.0395287 -0.0164569 -0.0596966 0.0534177 -0.0643481 -0.0259292 0.0512913 0.0244156 0.0210145 0.0829739 -0.00689221 -0.00131546 0.00877037 0.0846002 0.128634 0.0595664 0.0634956 0.0788593 -0.0658926 0.00258526 0.0300614 0.0298898 0.014615 -0.0292156 0.0732335 0.0762779 0.0495083 0.0442872 -0.0200109 -0.0480098 0.0345095 0.0604479 -0.0235391 0.0966666 0.016729 0.021373 0.079745 0.0520564 0.0579002 0.0507016 -0.0244265 0.0597864 0.0466432 0.0389834 0.0734848 0.066131 0.0835399 0.0896961 0.0280248 0.00763836 -0.0382805 0.0336051 -0.0358711 -0.0316847 0.0536353 -0.0173259 -0.0228621 0.0117608
internal_weight=585218 233654 351564 113777 119877 119270 232294 62467.1 166157 6422.43 2108.26 57409.5 9963.7 78872.9 68168.9 51063.5 33169.7 76520.5 34904.5 52503.4 45600.3 52814.4 159734 28250.9 2352.4 8943.58 5788.49 51101.6 40138.5 35571.7 4566.79 4918.71 17893.9 66137.4 4211.28 9317.62 17105.3 12675.9 38667 28790.5 1711.25 2837.77 3155.09 19995.9 2369.61 3960.86 2925.36 8562.45 25604.4 14793 10811.4 9655.78 2274.54 23835.4 1928.85 6903.08 31594.7 23385.8 2594.42 13635.9 16997.6 1165.66
internal_count=95728 18727 77001 6741 11986 20962 56039 5868 42183 2296 392 6118 1198 5365 12358 8826 5284 5108 1376 4670 3897 3603 39887 4525 257 984 718 8604 3001 2632 369 759 3542 13856 697 784 3532 602 4429 3164 218 393 266 2253 331 259 211 1107 1644 1017 627 540 230 3451 249 773 5966 4273 265 2537 3406 216
is_linear=0
shrinkage=0.05


Tree=5
num_leaves=63
num_cat=0
split_feature=19 19 18 19 16 23 23 17 27 26 15 23 19 2 23 10 17 17 2 2 23 26 23 10 2 29 24 2 23 24 19 23 10 19 26 2 29 27 23 26 8 26 19 23 19 17 27 0 17 27 2 2 19 29 6 9 2 17 24 27 25 0
split_gain=649478 71734.7 56003.8 15831.3 14178.8 7290.3 4634.13 4840.69 4811.49 4350.37 4210.33 3292.64 2493.61 2368.94 2717.99 2267.16 2239.07 2188.7 2130.14 3112.34 2234.27 2112.4 2101.48 1714.95 1624.88 2042.7 1493.77 1427.03 1422.41 1315.11 1246.67 1229.23 1172.81 1151.64 1140.8 1740.42 3282.67 1137.37 1037.92 939.564 1426.41 1048.97 912.455 911.594 846.668 827.451 772.839 764.906 835.504 790.86 757.6 826.87 756.075 707.403 672.403 644.218 631.765 629.095 633.834 1771.31 619.626 616.616
threshold=7.5803573131561288 37.446428298950202 1.616071403026581 100.00000000000001 33.750000000000007 4.3627820014953622 17.895676612854007 0.43303571641445165 12.500000000000002 37.384046554565437 3.5000000000000004 23.057565689086918 63.178571701049812 1.5000000000000002 28.074835777282718 1.5000000000000002 3.303571462631226 14.441964149475099 4.5000000000000009 1.5000000000000002 23.742011070251468 56.65460395812989 30.752467155456547 6.5000000000000009 2.5000000000000004 0.26785714924335485 27.500000000000004 4.5000000000000009 44.680099487304695 167.50000000000003 1.964285731315613 1.7227443456649782 140.31250000000003 203.53571319580081 37.384046554565437 2.5000000000000004 0.19642857462167743 38.500000000000007 6.651315689086915 4.0271382331848153 2.7500000000000004 22.856907844543461 4.3214285373687753 37.936794281005866 2.1071428060531621 0.10714286193251611 11.500000000000002 9.5000000000000018 1.2678571343421938 31.500000000000004 1.5000000000000002 4.5000000000000009 23.008928298950199 0.73214286565780651 1.0000000180025095e-35 9.5000000000000018 2.5000000000000004 0.035714287311588704 171.50000000000003 12.500000000000002 1.4671308398246767 8.5000000000000018
decision_type=2 2 2 2 2 2 2 2 2 2 2 2 2 2 2 2 2 2 2 2 2 2 2 2 2 2 2 2 2 2 2 2 2 2 2 2 2 2 2 2 2 2 2 2 2 2 2 2 2 2 2 2 2 2 2 2 2 2 2 2 2 2
left_child=2 4 6 12 17 16 7 57 -8 13 -10 -11 21 15 27 46 -4 50 19 26 30 23 -17 -3 43 -26 38 61 -23 -27 -21 -9 34 -5 -25 -36 -37 -12 -7 40 -16 -41 -28 -13 -20 -39 -6 49 -49 -22 -2 -52 55 -50 -24 -29 -32 58 -1 -60 -58 -15
right_child=1 3 5 33 9 18 8 31 10 11 37 24 -14 14 39 22 -18 -19 44 20 47 28 54 32 25 29 42 52 -30 -31 56 -33 -34 -35 35 36 -38 45 -40 41 -42 -43 -44 -45 -46 -47 -48 48 53 -51 51 -53 -54 -55 -56 -57 60 -59 59 -61 -62 -63
leaf_value=-0.070608093772064159 0.0049293141859397746 0.097308013991254314 -0.037588567981516281 0.12071630125047945 0.020686223119636683 -0.032825939316341278 -0.070181230525661539 -0.054204514875385995 0.093427856454684974 -0.059750071771938799 -0.039991770839696378 0.072874530621496209 0.09956090464518319 0.050279152656958682 0.014514954076952694 0.039239753306428683 -0.018141677780694948 0.038049838642548031 -0.045668828466291375 -0.02206602414520123 0.032997877655087271 -0.011093934137557831 0.018158128601884881 0.080238858655267975 0.043210174484163713 -0.030750509357984179 -0.037078119940578115 0.046545625428022257 0.087858985142108645 0.04302819605203715 -0.0051347667925656015 -0.035129201995741148 0.021871128961740066 0.14179390329429836 0.099916469301925451 0.067108256033083513 -0.046863776291838868 -0.018423066030407415 0.039487172118753293 0.098869473499511917 0.086726707627645699 0.067858234441961443 -0.012256332353519601 0.0071007921113515841 -0.016564886477990388 0.10537008107917345 0.079723083390348115 -0.054128125121999326 0.022624659755593874 0.10442932443576539 0.026502086763097052 0.009581202334953378 0.055354500764424545 0.089689946667519366 -0.067348204423607103 0.01316169284923783 0.015621298643491946 -0.061783451834715578 -0.071387960871746356 0.023136306437184381 -0.020417770683126561 0.069661174430571932
leaf_weight=84042.651670217514 10714.951666355133 11644.915721178055 39073.480364084244 13530.098421573639 631.87573719024658 701.28418278694153 2461.4024782180786 77380.651842594147 1275.8030605316162 1000.7404053211212 1721.0909292697906 3107.6901702880859 20697.208986759186 5389.0607488155365 1170.5873169898987 12705.191235303879 23832.694453001022 16183.221192836761 3078.8375697135925 4322.3904724121094 774.54676699638367 1067.4314334392548 360.62389397621155 28881.142156600952 4342.7740941047668 2182.618999004364 7187.1858077049255 3071.3002555370331 549.29921674728394 833.99849510192871 7191.284273147583 9488.7310039997101 1006.4575123786926 12579.156594276428 1323.5094921588898 1978.759693145752 927.05952835083008 270.70722961425781 1690.8149275779724 8375.2140412330627 1645.3129606246948 4060.1267156600952 7638.0285801887512 634.54677629470825 13263.18225479126 267.74026370048523 4566.6253886222839 295.27214598655701 2267.7430708408356 777.12784504890442 19828.823356866837 11356.278309345245 6881.1163811683655 475.01151061058044 631.64383792877197 2730.5205671787262 14724.747148513794 33365.619239330292 1758.0113334655762 689.4834885597229 1296.9344279766083 17390.640890836716
leaf_count=21801 1368 492 7815 610 82 243 1168 17666 125 206 659 146 1302 527 86 1259 3316 1508 877 1027 110 129 77 2042 447 265 1650 323 51 146 1116 2131 77 298 50 140 121 78 286 236 54 318 1209 140 2466 25 331 104 400 54 2052 1396 636 35 79 380 1851 9425 852 160 352 1353
internal_value=-0.000119462 0.0640448 -0.0441061 0.0977734 0.0413201 -0.0180561 -0.0598532 -0.0611101 -0.0165201 0.0547454 0.0208495 0.0270734 0.0850757 0.059556 0.0651871 0.0444402 -0.0302213 0.0224325 -0.00640524 -0.00122323 0.00796988 0.0787459 0.0337663 0.0807304 0.0349047 0.0212592 -0.0183757 0.0575925 0.0225598 -0.0103456 0.0025858 -0.0521213 0.0750693 0.130876 0.0766857 0.0524087 0.0307435 -0.0201536 0.0182825 0.0828414 0.0567236 0.0887506 -0.0242915 0.0617266 -0.0220505 0.0432137 0.0725525 0.0402634 0.0256616 0.0688172 0.0163998 0.0203407 0.0441432 0.034268 -0.0362853 0.0308391 0.00717687 -0.0676246 -0.0698772 -0.044761 0.0127029 0.0650783
internal_weight=575293 233981 341312 94185 139795 128591 212722 206725 5996.74 81712.2 3535.34 12102.4 68075.8 69609.8 50713.9 18896 62906.2 58083.3 65684.4 49342.4 32125.1 47378.6 13697.5 45761.8 11101.6 7359.39 17217.3 35462.6 1616.73 3016.62 27535.4 86869.4 34116.9 26109.3 33110.5 4229.33 2905.82 2259.54 2392.1 15251.2 2815.9 12435.3 14825.2 3742.24 16342 538.447 5198.5 4589.7 3038.03 1551.67 41900.1 31185.1 12682.9 2742.75 992.268 5801.82 23213 119856 86490.1 2447.49 16021.7 22779.7
internal_count=95728 18727 77001 5312 13415 22911 54090 52035 2055 7091 887 1350 4404 5741 3913 1828 11131 6324 11780 8437 5049 3102 1415 2922 1144 858 3388 3219 180 411 4346 19797 2430 908 2353 311 261 762 529 694 140 554 2859 286 3343 103 413 703 539 164 4816 3448 1339 435 156 703 3319 32238 22813 1012 2203 1880
is_linear=0
shrinkage=0.05


Tree=6
num_leaves=63
num_cat=0
split_feature=19 19 18 19 19 23 23 17 27 15 23 26 23 17 10 2 2 23 19 2 14 2 24 26 10 24 19 23 10 2 14 19 23 29 26 27 10 2 23 23 19 19 17 17 2 17 29 27 8 26 2 29 8 24 17 20 24 27 27 26 26 2
split_gain=592972 66332.8 55075.6 14390.8 14194.8 6765.94 4465.14 5085.68 4559.57 3794.38 2550.9 2427.03 2544.5 2130.31 2012.36 1950.65 2832.93 2009.77 1939.4 1838.16 1553.15 1535.96 1607.61 1380.32 1366.87 1365.52 1274.45 1231.52 1225.19 1188.61 1138.64 1132.86 1111.07 1092.03 1161.15 1046.15 1037.13 956.129 951.241 933.321 860.431 806.522 767.599 762.37 762.252 749.142 718.713 713.621 797.312 694.883 1272.71 2600.5 684.059 680.249 679.322 675.75 644.357 1706.32 634.768 1010.37 599.752 589.092
threshold=7.5803573131561288 39.937500000000007 1.616071403026581 100.00000000000001 17.723214149475101 4.3627820014953622 17.895676612854007 0.43303571641445165 12.500000000000002 3.5000000000000004 12.113252162933351 37.384046554565437 25.818843841552738 3.303571462631226 4.5000000000000009 4.5000000000000009 1.5000000000000002 23.742011070251468 63.178571701049812 1.5000000000000002 5.5000000000000009 2.5000000000000004 35.500000000000007 56.65460395812989 13.250000000000002 27.500000000000004 203.53571319580081 1.6936090588569643 5.5000000000000009 1.5000000000000002 61.500000000000007 1.964285731315613 23.057565689086918 0.19642857462167743 3.8634868860244755 38.500000000000007 140.31250000000003 4.5000000000000009 30.752467155456547 6.651315689086915 4.3214285373687753 2.1071428060531621 9.8035712242126483 24.866071701049808 1.0000000180025095e-35 0.10714286193251611 0.51785713434219371 28.500000000000004 20.812500000000004 37.384046554565437 2.5000000000000004 0.19642857462167743 2.7500000000000004 104.50000000000001 0.035714287311588704 0.50000000000075007 171.50000000000003 12.500000000000002 32.500000000000007 47.363487243652351 27.444900512695316 4.5000000000000009
decision_type=2 2 2 2 2 2 2 2 2 2 2 2 2 2 2 2 2 2 2 2 2 2 2 2 2 2 2 2 2 2 2 2 2 2 2 2 2 2 2 2 2 2 2 2 2 2 2 2 2 2 2 2 2 2 2 2 2 2 2 2 2 2
left_child=2 4 6 18 10 13 7 54 -8 -10 42 14 -13 61 33 16 25 31 23 38 28 -14 -23 24 -3 39 -5 -9 53 -30 -25 -18 43 52 -35 -11 49 -22 -16 -7 -27 -17 -2 -21 -36 -37 -19 48 -24 -26 -51 -52 -6 -12 56 -39 -1 -58 59 -48 -46 -4
right_child=1 3 5 26 11 15 8 27 9 35 20 12 21 -15 19 41 17 46 -20 32 37 22 47 30 36 40 -28 -29 29 -31 -32 -33 -34 34 44 45 -38 55 -40 -41 -42 -43 -44 -45 60 -47 58 -49 -50 50 51 -53 -54 -55 -56 -57 57 -59 -60 -61 -62 -63
leaf_value=-0.070548309058690625 0.0055030493720414492 0.092725067497924099 -0.032723745341817191 0.11607433205948028 0.00060399232006204731 -0.031754176895411906 -0.070091718761256416 -0.053389932249259954 0.088613374581146431 -0.038885220550579983 0.070778781613388561 -0.04839055417114313 0.067455869507954055 -0.017387594469362621 0.041845188084652589 -0.044601252063877633 -0.02119724900666544 0.016069721987919321 0.094660874186499822 0.044791483974580035 0.03152908823463732 -0.055096173923595705 -0.030308440891479944 0.085000169900153799 0.076667872080047564 -0.035973969288369774 0.13845507336260165 -0.034577439181147376 0.0049356580808465438 0.04624612304162469 -0.0056989272711663614 0.0068019088100057957 0.072094510933085706 0.036535627874925973 0.053938559973038973 -0.017662989213583093 0.020742005635850748 -0.015019221595491739 -0.013345499283169471 0.037152681205572628 -0.011709730294789606 -0.015862424663426085 0.020607652051447354 0.062459601330398989 0.099234931563113735 0.10048962928769141 0.067595130289344482 0.05268499459933889 0.030919560758058264 0.096293585157970901 0.066955839437633058 -0.047049471467223387 0.06012928009205544 0.038042248001127626 -0.061195220367474892 0.020186476442323849 -0.071385884738740066 0.021822544745625311 0.09477743813167798 -0.010355250194921995 0.066011055880652189 -0.046731814034626007
leaf_weight=80009.914670467377 13911.728620290756 10878.808787107468 28000.821711540222 13371.923748016357 591.9921543598175 689.05724716186523 2344.2758120298386 74245.972606658936 1277.8735463619232 1682.5878622531891 5025.3558275699615 879.66013789176941 3397.4158744812012 23628.367496967316 12962.424661636353 2997.0360295772552 4275.8241522312164 2047.7236471176147 20680.820098161697 12089.118434429169 15000.939759254456 559.83781099319458 685.00527572631836 552.89118409156799 24092.818377733231 7041.2036919593811 12247.046582698822 9862.5000965595245 2672.4056189060211 4997.7370901107788 921.81314563751221 23262.214023113251 12439.319742918015 1249.8564114570618 1454.711332321167 268.34335327148438 959.2532958984375 2091.8992757797241 830.31052136421204 1706.8449914455414 7595.9868245124817 13160.735876560211 21275.653426647186 12371.350802659988 7292.9755363464355 266.78257369995117 1166.6895396709442 2636.7356786727905 2364.4013676643372 1127.3203148841858 1611.5903279781342 724.29058384895325 2612.5553293228149 2325.2951333522797 32035.847339391708 3907.7574110031128 1672.3196306228638 694.37335538864136 741.99877238273621 645.13471007347107 1680.0520405769348 10265.153805732727
leaf_count=21801 1606 461 5567 610 77 243 1168 17441 125 659 273 202 208 3316 1210 877 1027 399 1302 1064 1604 67 102 49 1720 1650 298 2356 418 471 108 3319 632 82 131 78 73 400 113 286 1209 2466 2125 1147 332 25 105 261 199 42 106 97 224 330 9425 468 852 160 61 138 115 2248
internal_value=-0.000140593 0.0607155 -0.043174 0.0952868 0.0402574 -0.0173473 -0.0592522 -0.0605198 -0.0161575 0.0200225 0.0242118 0.0552717 0.0329761 -0.0291934 0.058849 -0.00612401 -0.0011713 0.00756547 0.0821771 0.0541006 0.033565 0.0404025 0.0256787 0.0758577 0.0776358 -0.0176561 0.126778 -0.0511844 0.0458417 0.0318554 0.0283402 0.00245387 0.0599224 0.0750187 0.0821165 -0.0195224 0.0718761 0.0247823 0.038522 0.0173302 -0.0233837 -0.0211955 0.0146362 0.0537297 0.0875757 0.0413186 0.0381487 0.0336398 0.0171601 0.0736553 0.0526811 0.031601 0.0491365 0.0604295 -0.0673821 0.00791085 -0.0697873 -0.0440414 0.055839 0.039849 0.0930224 -0.0364826
internal_weight=566061 234475 331586 87168.6 147306 127225 204361 198521 5839.86 3495.59 71208.8 76097.7 10523.1 61894.3 65574.7 65330.4 49172.7 32139.6 61549.6 50692.5 36021.4 9643.4 6245.98 40868.8 39394.1 17033.1 25619 84108.5 15020.8 7670.14 1474.7 27538 36899.8 14882.1 11677.6 2217.71 28515.3 21000.6 13792.7 2395.9 14637.2 16157.8 35187.4 24460.5 10427.7 535.126 4601.55 5686.14 3049.41 27556 3463.2 2335.88 3204.55 7350.65 114412 5999.66 82376.6 2366.69 2553.82 1811.82 8973.03 38266
internal_count=95728 18727 77001 4866 13861 22911 54090 52035 2055 887 7695 6166 1039 11131 5127 11780 8437 5049 3958 4166 3964 837 629 2656 2499 3388 908 19797 1492 889 157 4346 2843 961 660 762 2038 2472 1323 529 2859 3343 3731 2211 578 103 703 562 301 1965 245 203 301 603 32238 868 22813 1012 304 243 447 7815
is_linear=0
shrinkage=0.05


Tree=7
num_leaves=63
num_cat=0
split_feature=19 19 21 19 19 23 21 24 27 15 19 23 23 26 10 26 23 23 19 19 2 24 27 19 25 23 21 24 21 2 2 24 21 26 2 26 2 23 19 19 26 26 14 19 23 27 2 2 10 2 2 2 2 29 24 26 27 26 2 26 2 19
split_gain=541370 66601 49524.6 19782 8442.96 4965.57 4287.1 3957.05 7304.91 3963.66 3493.1 2234.02 2126.18 2018.51 1783.45 1685.47 2074.86 1733.08 1677.33 1648.08 1509.89 1483.79 1930.41 1386.15 1295.77 1252.36 1126.69 1092.62 1070.24 949.315 1451.59 926.295 908.542 873.911 1805.26 808.749 1059.64 1021.31 796.254 789.275 786.518 885.524 756.836 755.24 739.367 717.34 716.434 1110.47 693.54 625.292 816.496 622.584 617.902 1009.55 603.777 602.335 590.392 740.739 554.359 553.595 540.428 537.529
threshold=6.8660714626312265 30.437500000000004 1.784847676753998 100.00000000000001 14.866071224212648 4.3627820014953622 0.83323410153388988 168.50000000000003 12.500000000000002 3.5000000000000004 53.732143402099616 23.742011070251468 20.267857551574711 56.65460395812989 4.5000000000000009 37.384046554565437 21.826010704040531 25.818843841552738 2.2589286565780644 3.0357142686843877 1.5000000000000002 147.50000000000003 48.500000000000007 203.53571319580081 1.4949021935462954 30.752467155456547 45.558736801147468 147.50000000000003 3.1617875038136849e-06 1.5000000000000002 4.5000000000000009 144.50000000000003 16.486022949218754 37.384046554565437 2.5000000000000004 37.384046554565437 1.5000000000000002 27.097274780273441 2.1071428060531621 11.294642925262453 30.172697067260746 4.0271382331848153 76.500000000000014 1.2500000000000002 30.752467155456547 48.500000000000007 4.5000000000000009 1.5000000000000002 3.5625000000000004 2.5000000000000004 4.5000000000000009 2.5000000000000004 2.5000000000000004 0.16071429103612903 145.50000000000003 47.363487243652351 29.500000000000004 56.65460395812989 2.5000000000000004 22.856907844543461 1.5000000000000002 18.580356597900394
decision_type=2 2 2 2 2 2 2 2 2 2 2 2 2 2 2 2 2 2 2 2 2 2 2 2 2 2 2 2 2 2 2 2 2 2 2 2 2 2 2 2 2 2 2 2 2 2 2 2 2 2 2 2 2 2 2 2 2 2 2 2 2 2
left_child=2 4 6 10 12 19 7 28 -9 59 13 18 39 14 26 16 45 -17 31 46 25 55 38 -5 -24 -18 -3 33 -1 -20 58 32 -7 48 -35 36 44 -37 -23 -2 41 -22 -15 -8 -16 61 47 -4 -14 -40 -51 -28 -39 -54 -43 -13 57 -19 -31 -10 -50 -6
right_child=1 3 5 23 15 11 43 8 9 -11 -12 21 27 42 35 17 20 56 29 -21 40 22 24 -25 -26 -27 51 -29 -30 30 -32 -33 -34 34 -36 37 -38 52 49 -41 -42 54 -44 -45 -46 -47 -48 -49 60 50 -52 -53 53 -55 -56 -57 -58 -59 -60 -61 -62 -63
leaf_value=-0.070398306431133886 0.0079539970093518656 0.070431756204112281 -0.045932193515604146 0.11129643156052112 0.028736373596382828 -0.025349460387684899 -0.053308245582571905 -0.071408046533904784 0.05846594814973971 -0.048039798800922004 0.085372007506382852 0.050993815549605415 0.064073720130518277 0.050600692932820573 0.05433421868248637 -0.05568673829238853 0.0449368914949776 0.025704940431517293 -0.019994347933142587 -0.019087059614232047 0.048557955198480746 -0.048615405463144155 -0.0021090180818710553 0.13482721318890417 0.12433758141679115 -0.029642918803202863 0.080836979735498637 0.01631974954180411 -0.060240865201994925 -0.0070243291043336903 -0.017702423794574981 -0.044940919381054677 0.021603270113029337 0.063031925540230849 -0.031955434364170733 -0.017517443451821765 0.068980087250793354 0.083223604928348016 -0.033667229274543069 0.021629814123823504 0.042518746625282329 0.085115767637278489 -0.021361567562488595 -0.042840984984289426 0.0074946059708119895 0.064121497322752782 -0.049001033264825258 -0.023407614365069215 0.0036700761072504585 0.040709571674376464 -0.02996209988268423 0.1152299635022896 0.055089589567096413 -0.012252547704605722 0.056014403649460566 -0.0041816773742688485 0.046814794451782819 -0.034606620538550924 0.010965791957133405 0.11715528807039484 0.044961941613299805 0.04210061501575639
leaf_weight=74778.170463323593 30968.936701536179 7877.0808637142181 8686.1652625799179 13251.984511375427 12399.227710485458 5397.0641877651215 48974.334372878075 3479.0643855333328 834.62568259239197 819.64282059669495 32850.144124507904 2826.4989449977875 4223.265674829483 614.9403121471405 9039.1539852619171 664.855304479599 5498.8435304164886 3358.4439039230347 10480.717698812485 25582.217888593674 3225.2024490833282 1270.2864444255829 364.07441377639771 11955.407927036285 455.74265432357788 626.38328766822815 2358.8654417991638 6144.8329350948334 39801.752695679665 6223.6109490394592 10379.71511054039 4949.7535996437073 1272.518545627594 945.13979005813599 1060.3684811592102 621.38936376571655 27830.39247584343 1106.6031439304352 947.86525297164917 16002.148047924042 2849.8800694942474 7995.9570832252502 897.20624136924744 26641.192944049835 929.47927331924438 2612.9662158489227 8087.5311080217361 14797.322123408318 1006.4567704200745 1188.6942031383514 621.69874429702759 3016.8650848865509 2451.0182311534882 719.5251305103302 2304.6022238731384 599.33759713172913 2724.7313966751099 599.13718771934509 13722.185386657715 781.12216305732727 3728.1654438972473 19182.282011985779
leaf_count=21282 3712 481 1966 610 1119 944 11819 1846 115 335 2060 221 269 67 730 162 422 301 2005 3747 199 490 98 298 20 100 98 1304 12274 997 1987 1969 186 48 126 116 1927 50 304 1593 227 252 112 6010 94 230 1901 2903 82 217 212 57 151 77 292 77 296 95 1925 40 226 1855
internal_value=-0.000160483 0.0557658 -0.0435605 0.0832964 0.0309426 -0.0179438 -0.0589548 -0.0648118 -0.024925 0.0414802 0.0723637 -0.00798465 0.0181106 0.0649258 0.0664664 0.0437815 0.0467017 0.0212449 -0.0117954 -0.0285205 0.0584945 0.0161591 -0.00164039 0.122462 0.0682495 0.0373066 0.0824955 0.0332015 -0.0668705 -0.0070227 -0.0025391 -0.0285549 -0.0163893 0.0426611 0.0128185 0.0614893 0.0639676 0.0423568 -0.0158765 0.0126134 0.066417 0.0714489 0.00791722 -0.049621 0.0499681 0.0389402 -0.0361637 -0.0317407 0.0493401 -0.000786836 0.0164374 0.100156 0.0510574 0.0398079 0.0786108 0.0413427 0.0289063 0.016568 0.00535233 0.0868938 0.036187 0.0368548
internal_weight=557605 243642 313963 115520 128122 117853 196110 120494 5914.46 2435.39 90312.7 60699.8 64079.3 57462.5 55950.4 64042.5 56695.3 7347.17 52425.6 57153.2 22500.9 8274.2 4848.36 25207.4 819.817 6125.23 13252.8 17108.2 114580 40806.2 30325.5 11619.3 6669.58 10963.4 2005.51 42697.6 37799 4898.54 4028.54 46971.1 16375.6 13525.8 1512.15 75615.5 9968.63 34194.5 31571 23483.5 8957.89 2758.26 1810.39 5375.73 4277.15 3170.54 10300.6 3425.84 6682.31 3957.58 19945.8 1615.75 4734.62 31581.5
internal_count=95728 19838 75890 6928 12910 22169 53721 35892 2336 490 6020 11652 7360 3960 3781 5550 4696 854 10013 10517 1492 1639 1341 908 118 522 636 2055 33556 6914 4909 3099 1130 751 174 3145 2751 394 1223 5305 970 743 179 17829 824 3204 6770 4869 577 733 429 155 278 228 544 298 692 396 2922 155 308 2974
is_linear=0
shrinkage=0.05


Tree=8
num_leaves=63
num_cat=0
split_feature=17 21 17 16 16 17 16 17 24 0 13 2 9 21 17 17 12 10 17 2 29 10 24 23 2 2 23 0 22 2 2 23 22 2 23 20 18 23 23 2 14 0 20 2 2 2 13 2 2 21 0 17 20 17 13 22 11 12 6 29 29 18
split_gain=490433 56756.8 52420.5 17559.9 7309.7 6229.13 5458.99 4034.76 3749.62 6542.43 1993.55 1832.28 1789.3 1785.49 1646.23 1562.64 1510.15 1496.16 1321.02 1320.74 2337.77 1132.22 1206.95 1101.27 1078.4 1577.4 1075.63 1671.75 1000.35 1068.05 2203.82 960.376 946.68 860.473 963.861 805.786 743.027 729.713 716.878 698.571 677.475 670.5 1032.41 667.004 650.835 650.419 592.507 586.655 630.087 538.963 587.372 529.495 522.306 514.718 497.997 497.264 492.614 479.158 471.422 460.566 514.314 458.726
threshold=8.0758929252624529 2.0250988006591801 54.160713195800788 33.750000000000007 172.50000000000003 0.69642856717109691 10.500000000000002 24.866071701049808 169.50000000000003 26.500000000000004 11.500000000000002 1.5000000000000002 18.500000000000004 26.112626075744632 0.035714287311588704 3.303571462631226 2.7500000000000004 7.7500000000000009 13.504464149475099 2.5000000000000004 0.19642857462167743 13.250000000000002 104.50000000000001 1.4656955003738406 4.5000000000000009 1.5000000000000002 33.337992668151863 9.5000000000000018 19.339694976806644 4.5000000000000009 2.5000000000000004 30.752467155456547 49.035985946655281 1.5000000000000002 30.752467155456547 186.62500000000003 34.651784896850593 33.337992668151863 8.4840226173400897 4.5000000000000009 58.562500000000007 26.500000000000004 4.5000000000000009 4.5000000000000009 1.5000000000000002 4.5000000000000009 127.50000000000001 1.5000000000000002 4.5000000000000009 24.442974090576175 22.500000000000004 1.3392856717109682 72.500000000000014 0.035714287311588704 51.500000000000007 10.309784889221193 9.5000000000000018 52.250000000000007 1.0000000180025095e-35 0.55357143282890331 0.089285716414451613 1.2554772217503176e-12
decision_type=2 2 2 2 2 2 2 2 2 2 2 2 2 2 2 2 2 2 2 2 2 2 2 2 2 2 2 2 2 2 2 2 2 2 2 2 2 2 2 2 2 2 2 2 2 2 2 2 2 2 2 2 2 2 2 2 2 2 2 2 2 2
left_child=1 5 3 18 52 8 15 12 14 61 21 -11 17 28 -1 24 19 43 44 -12 -21 32 31 51 25 -3 53 -28 29 30 55 -23 -9 34 -19 -6 -20 -13 -32 46 -14 42 59 49 -2 -46 -18 -17 -49 50 -5 -7 54 -27 -4 -8 -22 -38 -36 60 -41 -10
right_child=2 6 4 7 35 23 13 10 9 11 16 37 40 -15 -16 47 39 33 36 20 56 22 -24 -25 -26 26 27 -29 -30 -31 38 -33 -34 -35 58 -37 57 -39 -40 41 -42 -43 -44 -45 45 -47 -48 48 -50 -51 -52 -53 -54 -55 -56 -57 -58 -59 -60 -61 -62 -63
leaf_value=-0.070216229257085802 0.0017863097372581424 -0.03930247952989576 0.088066235547288138 0.041094166688158011 0.11404900908497638 -0.051048435301655405 -0.012361271725720727 0.0688888968793617 -0.071406560900596008 -0.071033032325899012 0.061099253872111181 0.04217999901860757 0.027189596622400527 0.05660398597121185 -0.058504683054055276 -0.025116661229108612 0.058023637940455952 0.029730070078076893 0.030243760819346922 0.055149740033447109 0.0037629652889156449 0.053965837391774754 0.072801819417172259 -0.029425122066605365 -0.042705295085255529 -0.061105445311981345 0.10134778918931381 -0.034609877990745559 0.052163760352197601 -0.016144163312178595 0.0066746043229542404 0.0021144421277870993 0.095846058346107627 0.04485694506953946 0.0059457181000765035 0.13461929328464081 0.032949280540472033 0.1099633426980503 0.028972253669636107 0.017262936673991629 -0.023011516268113784 0.069762184901936003 0.046648600890254736 0.026269215798750335 0.023170910082937243 0.0069787854862613978 0.10178482053090031 -0.0036376613166835925 -0.020480544973578919 0.072734289206079064 0.072394422095879915 -0.04115077463639974 0.10026329068198299 -0.016101827729226911 0.074825680247591217 0.017243946457792186 -0.0571074203767577 -0.060587845538257801 -0.069895272759251767 0.049416516356197954 -0.046494469110114484 -0.023982313433960026
leaf_weight=73033.334757089615 9064.6106548309326 10404.494594335556 13900.01334810257 4200.9608242511749 12682.414259433746 37826.376081585884 16149.194090127945 8236.4333379268646 3244.0388000011444 293.47286057472229 1538.5619184970856 1282.1712939739227 11379.093465566635 1369.4944322109222 51018.751967787743 8291.5188858509064 27872.341608762741 5177.1463186740875 22167.516244888306 1210.3375310897827 486.87473011016846 9678.3945653438568 11001.463570833206 9831.8707414865494 9947.0823739767075 658.5752112865448 484.33817458152771 422.57829928398132 855.20984888076782 10656.58979845047 8215.3546106815338 983.87326335906982 5409.3596215248108 12205.243277788162 451.97692823410034 7710.8985977172852 214.40095186233521 575.78570699691772 6422.9842977523804 671.97230195999146 713.50032520294189 1931.6465055942535 5790.7187783718109 1419.5019164085388 17060.928692579269 9745.4973425865173 796.50751876831055 15432.878713130951 8672.9438693523407 6392.2541048526764 2335.6907348632812 21076.670180678368 4168.588014125824 17415.076790809631 14676.002346038818 1554.0626366138458 1045.6609048843384 375.36491680145264 373.60600185394287 388.88028287887573 595.95937442779541 606.53076422214508
leaf_count=22044 1205 2525 788 384 514 8881 2760 482 1785 129 90 249 1149 103 15402 1421 2026 523 2049 133 59 524 939 2300 2525 262 41 147 96 2002 1046 69 157 1008 99 176 23 42 893 59 106 120 445 173 1777 1226 30 2176 1423 365 150 4963 225 3352 1105 246 158 136 51 23 126 243
internal_value=-0.000179307 -0.0408378 0.0546693 0.0418449 0.0983307 -0.0570978 -0.0131998 0.0526307 -0.0635327 -0.02493 0.0595185 0.0448944 0.0406525 0.000405038 -0.0654001 -0.021777 0.0521977 0.046753 0.0193471 0.0240365 0.00323218 0.0682932 0.0611795 -0.0449216 -0.0284748 -0.0236564 -0.0150781 0.0380299 -0.00135125 -0.00241682 0.00210672 0.0491818 0.0795813 0.0372339 0.0217293 0.121833 0.0287699 0.0632341 0.0164596 0.0553659 0.0242259 0.0435098 0.0366924 0.0588292 0.0133684 0.0172847 0.059243 -0.0136449 -0.0096981 0.0624017 0.0522878 -0.0475076 0.0836901 -0.017745 0.081269 -0.00976158 -0.0377795 -0.0265855 -0.0284181 0.00188724 -0.0127177 -0.0639446
internal_weight=549796 315741 234054 180916 53137.9 198789 116952 122288 130054 6002 77639 2151.43 44649 45222.9 124052 71729.5 42329.5 32556.4 58628.3 4281.44 2742.87 35309.5 21663.7 68734.9 39332.1 29385.1 18980.6 906.916 43853.4 42998.2 32341.6 10662.3 13645.8 18208 6002.73 20393.3 22757.3 1857.96 14638.3 38048 12092.6 9379.18 7447.53 14348.4 35871 26806.4 28668.8 32397.3 24105.8 12928.9 6536.65 58903 32744.6 18073.7 28576 17703.3 1532.54 589.766 825.583 1656.81 1267.93 3850.57
internal_count=95728 77056 18672 15864 2808 56038 21018 9448 39894 2448 5440 420 4008 7146 37446 13872 3269 2753 6416 440 350 2171 1532 16144 8852 6327 3802 188 7043 6947 4945 593 639 1681 673 690 2208 291 1939 2829 1255 773 653 1072 4208 3003 2056 5020 3599 899 534 13844 2118 3614 1893 3006 217 159 150 208 185 2028
is_linear=0
shrinkage=0.05


Tree=9
num_leaves=63
num_cat=0
split_feature=19 19 21 19 19 23 17 23 27 15 23 23 26 23 19 10 19 2 19 19 24 27 2 24 14 25 10 14 26 23 24 16 26 29 26 21 23 2 2 21 19 2 19 2 23 10 2 2 2 26 29 17 14 8 2 2 26 17 26 2 2 2
split_gain=451392 55543.1 47550.3 13615.8 11851.7 4643.09 4522.56 3950 6146.43 3211.7 2190.82 1873.55 1799.93 2057.69 1770.87 1636.43 1631.82 1495.3 1482.33 1299.04 1252.31 1687.18 1188.11 1389.08 1162.54 1142.13 1090.42 1075.5 1323.01 1239.76 980.594 975.328 981.224 924.471 1102.7 923.808 890.921 873.464 1336.39 858.182 833.744 802.387 716.442 707.359 663.22 640.115 629.234 752.889 622.438 1326.86 1420.52 620.349 597.934 575.051 573.977 563.907 557.712 549.173 523.281 520.686 869.029 493.799
threshold=6.8660714626312265 39.937500000000007 1.7318598628044131 107.27678680419923 17.723214149475101 4.3627820014953622 0.43303571641445165 13.45277261734009 12.500000000000002 3.5000000000000004 11.703947544097902 23.742011070251468 37.384046554565437 25.818843841552738 63.178571701049812 4.5000000000000009 2.1517857313156132 1.5000000000000002 1.8214285373687746 203.53571319580081 147.50000000000003 48.500000000000007 2.5000000000000004 35.500000000000007 6.5000000000000009 1.4949021935462954 140.31250000000003 63.500000000000007 56.65460395812989 30.752467155456547 144.50000000000003 40.500000000000007 37.384046554565437 0.19642857462167743 3.8634868860244755 3.1617875038136849e-06 21.970042228698734 1.5000000000000002 4.5000000000000009 16.994054794311527 1.2500000000000002 4.5000000000000009 1.5357142686843874 1.0000000180025095e-35 30.752467155456547 0.50000000000075007 2.5000000000000004 4.5000000000000009 2.5000000000000004 37.384046554565437 0.19642857462167743 9.8035712242126483 75.500000000000014 2.7500000000000004 2.5000000000000004 2.5000000000000004 21.394736289978031 24.004464149475101 47.363487243652351 1.5000000000000002 4.5000000000000009 2.5000000000000004
decision_type=2 2 2 2 2 2 2 2 2 2 2 2 2 2 2 2 2 2 2 2 2 2 2 2 2 2 2 2 2 2 2 2 2 2 2 2 2 2 2 2 2 2 2 2 2 2 2 2 2 2 2 2 2 2 2 2 2 2 2 2 2 2
left_child=2 4 6 14 10 16 7 35 -9 -10 51 18 15 -14 26 33 -4 44 30 -5 58 42 -15 -24 31 -23 27 29 48 -3 39 55 -33 53 -35 -1 57 -20 61 -7 -8 -26 -22 -36 -17 -43 -44 -48 -29 -50 -51 -2 -25 -6 -31 -12 -45 -19 -13 -18 -61 -39
right_child=1 3 5 19 12 11 40 8 9 -11 24 20 13 22 -16 17 59 36 37 -21 21 25 23 52 41 -27 -28 28 -30 54 -32 32 -34 34 43 -37 -38 38 -40 -41 -42 45 46 56 -46 -47 47 -49 49 50 -52 -53 -54 -55 -56 -57 -58 -59 -60 60 -62 -63
leaf_value=-0.070258617208913507 0.0034846601264290887 0.064128964740325312 -0.038427711834886705 0.10312496445237368 -0.0034756483700031839 -0.025706482781701474 -0.052278863184000414 -0.070313368337881946 0.082372964369623547 -0.039192619364135532 0.014297254873184839 0.046666885036252083 -0.047421207248180552 0.057154339304119665 0.081504741377884354 0.033910065824286038 -0.030754202343428662 0.036253749621659087 -0.019185550661564861 0.1269016159334023 -0.053662576493940621 -0.0021114349261048371 -0.054910389559167709 0.033714251058618798 0.025216363611881232 0.11784187024075193 0.013154476227087313 0.069706932099857191 -0.0062369782927460199 0.067287882826183726 -0.048071490141799754 0.052685208998024508 -0.0088613209007809123 0.026941821969396564 0.043877683979884625 -0.059689285286032651 0.060667397487407029 -0.0068624670196412683 -0.017040461921615672 0.023587632754466636 -0.041061964871030157 -0.042509913901453422 -0.034897322768689058 0.0899426914144799 -0.01252946834121489 0.010035374511329041 0.034920537404272332 -0.030149957234884631 0.062894966752808049 0.04445509995569235 -0.05245638428180785 0.016461865304546481 -0.017082570707587792 0.050292729074901968 0.096545807751837145 0.037454901849409923 0.06363867064241617 0.051323436464792753 -0.0046478782260399509 -0.010629657727902392 -0.029090583037303216 0.0096846986618298256
leaf_weight=67897.708272814751 18537.877465486526 22283.720114946365 20605.041854739189 11579.295821666718 610.27915143966675 3999.5421950817108 51437.466675519943 2989.6885709762573 1482.9450719356537 856.38470244407654 5527.8326709270477 2860.7056457996368 849.77878284454346 3472.3576581478119 22374.650366544724 13381.447913169861 9869.9120987653732 10922.897569179535 10837.883274078369 11491.038523197174 925.05387341976166 358.28119540214539 552.50708723068237 5145.1457874774933 17108.741328954697 443.71031808853149 1027.0341455936432 4791.3781485557556 905.83248472213745 2462.5710153579712 3908.4451421499252 8176.3350965976715 702.99914765357971 1305.4402799606323 1501.9742386341095 29807.094345569611 13357.770315885544 6526.2200059890747 10824.700184822083 1132.1412909030914 24476.363605737686 632.00749945640564 1040.7785227298737 5941.1255347728729 815.18515133857727 6870.5950644016266 1321.9278206825256 668.58783888816833 3157.9448575973511 974.65663051605225 616.4242422580719 18300.097946643829 652.19735956192017 2681.4400925636292 5332.5986840724945 5015.1107721328735 3069.9721772670746 13580.951137542725 600.97076368331909 17473.671733736992 10037.155612587929 14578.553412914276
leaf_count=21323 2209 1532 4805 533 77 746 13621 1733 140 359 727 221 202 208 1379 1210 1775 929 2149 298 386 98 67 483 1716 20 78 241 104 134 1672 591 102 82 131 10028 710 1074 2146 164 5969 120 351 251 113 900 248 238 239 78 87 1920 79 224 163 521 196 1204 77 2669 1805 2073
internal_value=-0.000196884 0.0499353 -0.0416769 0.0820442 0.0323346 -0.0170394 -0.0579249 -0.0647484 -0.0228239 0.0378724 0.0189295 -0.00729167 0.0462613 0.0271826 0.0701591 0.0492922 -0.02713 0.0450855 -0.0108103 0.114973 0.0148833 -0.00176359 0.0336412 0.0207763 0.0264566 0.0643181 0.064048 0.0653375 0.0515038 0.0701399 -0.0292048 0.0356022 0.047812 0.0637811 0.0703099 -0.0670348 0.0502751 -0.00692145 -0.00275815 -0.0148288 -0.0486629 0.0192381 -0.0151719 0.0756919 0.0312428 0.00560397 -0.00341193 0.0130601 0.0569862 0.0441401 0.00689982 0.00993165 0.0279977 0.0403261 0.0873128 0.0253155 0.0809893 0.0446077 0.0377595 -0.0209016 -0.0173658 0.00456774
internal_weight=542670 245709 296961 86997.1 158712 118013 178948 103034 5329.02 2339.33 80871.6 60027.5 77840.5 10672 63926.8 67168.5 57985.8 52058.3 51807.5 23070.3 8220.02 4758.34 9822.21 6349.85 44033.6 801.992 41552.2 40525.1 10446.2 30078.9 9040.13 19422.3 8879.33 15110.2 11818.5 97704.8 37861.6 42767.4 31929.5 5131.68 75913.8 24611.3 3956.35 10513.1 14196.6 7502.6 3031.29 1990.52 9540.4 4749.03 1591.08 36838 5797.34 3291.72 7795.17 10542.9 9011.1 24503.8 3461.68 37380.7 27510.8 21104.8
internal_count=95728 19838 75890 4866 14972 22717 53173 33583 2232 499 8806 11663 6166 1039 4035 5127 11054 4166 10024 831 1639 1341 837 629 4677 118 2656 2578 749 1829 2582 1941 693 961 660 31351 2843 7442 5293 910 19590 2736 1223 578 1323 1020 837 486 645 404 165 4129 562 301 297 1248 447 2133 298 6249 4474 3147
is_linear=0
shrinkage=0.05


Tree=10
num_leaves=63
num_cat=0
split_feature=19 19 21 19 16 17 23 23 27 15 26 23 19 17 23 2 17 23 26 19 10 19 13 23 2 29 24 21 24 24 27 21 24 25 21 19 23 2 2 10 26 2 24 21 2 2 2 2 2 19 0 29 21 29 26 26 26 2 2 2 12 29
split_gain=411806 52073.6 44605.8 14372.5 9741.4 4696.25 3970.76 3859.09 5798.77 2885.41 2570.39 2468.32 1945.42 1740.91 1694.4 1663.53 1549.92 1485.92 1420.48 1346.52 1315.95 1284.25 1105.97 1061.58 1022.84 1438.93 1017.9 989.478 937.036 857.711 1557.82 854.136 850.289 954.973 782.078 775.613 770.227 711.968 1121.74 696.493 1256.64 1041.66 904.178 693.728 738.207 644.513 721.005 602.231 828.576 556.801 554.575 536.464 760.901 517.4 515.485 514.559 496.212 486.885 872.978 486.305 969.081 476.673
threshold=6.6071429252624521 37.008928298950202 1.7318598628044131 107.27678680419923 33.750000000000007 0.43303571641445165 4.3627820014953622 13.45277261734009 12.500000000000002 3.5000000000000004 37.384046554565437 23.057565689086918 63.178571701049812 11.290178298950197 23.742011070251468 1.0000000180025095e-35 2.4464285373687749 21.826010704040531 56.65460395812989 203.53571319580081 14.250000000000002 1.8214285373687746 117.75000000000001 90.383930206298842 2.5000000000000004 0.26785714924335485 167.50000000000003 3.1617875038136849e-06 144.50000000000003 147.50000000000003 48.500000000000007 1.2460043430328371 104.50000000000001 1.4671308398246767 16.994054794311527 0.21428572386503222 37.936794281005866 1.5000000000000002 4.5000000000000009 5.5000000000000009 4.0271382331848153 1.5000000000000002 145.50000000000003 45.558736801147468 2.5000000000000004 2.5000000000000004 4.5000000000000009 2.5000000000000004 4.5000000000000009 21.008928298950199 15.500000000000002 0.73214286565780651 37.021530151367195 0.23214285820722583 27.444900512695316 4.1677629947662362 30.971217155456547 4.5000000000000009 1.5000000000000002 4.5000000000000009 36.500000000000007 0.55357143282890331
decision_type=2 2 2 2 2 2 2 2 2 2 2 2 2 2 2 2 2 2 2 2 2 2 2 2 2 2 2 2 2 2 2 2 2 2 2 2 2 2 2 2 2 2 2 2 2 2 2 2 2 2 2 2 2 2 2 2 2 2 2 2 2 2
left_child=2 4 5 12 13 7 16 27 -9 -10 15 -12 18 50 21 -6 57 49 20 -5 43 28 29 -20 36 -26 -27 -1 34 51 45 -7 33 -22 -8 -32 -13 -23 -39 40 -19 53 54 -3 -45 -31 -47 -15 -49 -17 -2 52 -16 -41 -42 -34 -43 58 -4 60 61 -35
right_child=1 3 6 19 10 31 14 8 9 -11 11 24 -14 47 22 17 -18 39 23 -21 32 37 -24 -25 25 26 -28 -29 -30 30 35 -33 55 59 -36 -37 -38 38 -40 41 42 56 -44 44 -46 46 -48 48 -50 -51 -52 -53 -54 -55 -56 -57 -58 -59 -60 -61 -62 -63
leaf_value=-0.070173932853763402 0.0018538498753875475 0.063217262935753735 -0.046832358341532543 0.09820794301249558 0.024605826536657067 -0.051276560086835635 -0.024749570225301883 -0.070233088250976738 0.077840285613027249 -0.038086188455762712 -0.058581659004012 0.056853064613377302 0.0769968359062006 0.015421726916510885 -0.002582044280946385 0.029906021025973298 -0.019308824977414207 0.021082899142023284 -0.013067933818152064 0.12251999453386282 0.05290698721341619 -0.018816353199481994 -0.059186168172927545 0.073786677910232898 0.032864341454124646 -0.030236040796164466 0.03403328452409933 -0.059004969882881703 -0.047039473809551979 -0.040069953052488012 0.019357184324461877 -0.039559757147542493 0.084474582512299765 -0.061162639510540989 0.022245304544619583 0.12049330987877623 -0.0017818564850120133 0.0034961322875574556 -0.016857068379530306 0.030990796155403455 0.080177066728221558 0.057772312561697958 0.038983835045730005 0.068494572812077242 0.10217826947786475 0.026313267141013737 -0.034812435516263708 0.038587999148125295 0.017618611430308486 0.044111568638976383 0.013784932312129817 0.067583997199768889 0.055678693873259369 -0.021267292159859747 0.054042265734537222 0.059175687098436264 0.036044115218376409 -0.048214529424687264 -0.023474561990245439 0.04504979513815674 0.051630939822241775 0.0050811772953658655
leaf_weight=64662.313967227936 18883.924829006195 7187.5996658802032 6224.7169424295425 11551.965275764465 9651.3141980171204 51248.872187972069 3947.856174826622 2847.0512285232544 1490.6964132785797 837.71196293830872 942.25255131721497 3175.7375075817108 22497.347529411316 13003.275654792786 1225.3422527313232 10969.157772302628 33149.325325489044 1619.9977788925171 1142.7776002883911 11311.69421672821 10378.254314422607 9982.6581568717957 484.75167870521545 507.14087724685669 4451.9406328201294 2153.7029740810394 861.83629250526428 28674.018195033073 3797.3612509965897 1221.5906126499176 393.60557961463928 22365.159917712212 2252.5057444572449 495.8413462638855 1140.2797276973724 365.52856659889221 679.88124847412109 19940.402232885361 10248.027646780014 2076.5060856342316 8016.8133637905121 11665.780591964722 2239.5726370811462 3187.179337978363 3347.0214815139771 1410.5817654132843 731.92341828346252 10718.142376422882 8409.7261078357697 18636.325890541077 20112.958162069321 1032.0396552085876 1031.6415326595306 612.75557613372803 2480.1267879009247 19115.115964412689 3400.2962644100189 6125.4618939161301 11203.632421851158 1215.5765748023987 661.95663142204285 598.60797429084778
leaf_count=21323 2527 402 1597 533 943 14068 746 1733 140 359 208 144 1379 1314 101 1163 5413 109 138 298 371 2016 196 44 443 266 149 10028 1672 450 85 5512 73 70 164 17 142 3012 2064 172 241 660 295 121 65 290 280 861 836 1684 2304 99 75 85 122 1729 232 1589 2397 89 47 43
internal_value=-0.000212974 0.046625 -0.0412213 0.0756696 0.0287112 -0.057273 -0.0169118 -0.064413 -0.0223815 0.036134 0.0402797 0.0191332 0.0647789 0.0151084 -0.00758649 0.0439136 -0.0262779 0.0469324 0.0592898 0.110241 0.0608438 -0.0110467 0.0139072 0.0136574 0.0256049 0.0148033 -0.0118628 -0.0667434 -0.028247 0.0186947 0.00350175 -0.0477174 0.0556586 0.0457508 -0.0142155 0.0681494 0.0465159 -0.00724152 -0.00341347 0.0543831 0.0625771 0.0477545 0.0678529 0.0739581 0.0857614 -0.0111024 0.00542498 0.0237259 0.02937 0.0388494 0.0080076 0.0377343 0.0240611 0.0190802 0.0740079 0.0618464 0.0528711 -0.0360849 -0.0318193 0.0207516 0.00391922 -0.0249591
internal_weight=535995 250213 285783 95450.6 154762 172126 113657 98511.8 5175.46 2328.41 83634 12265.4 72586.9 71128 56953.6 71368.6 56703.1 61717.3 50089.6 22863.7 48439.7 49056.6 7897.01 1649.92 11323.1 7467.48 3015.54 93336.3 8885.5 7412.25 4123.23 73614 34717.9 13350.2 5088.14 759.134 3855.62 40171.1 30188.4 32111.8 14356.5 17755.3 12736.5 13721.8 6534.2 3364.1 2142.51 32131.1 19127.9 29605.5 38996.9 3289.02 2256.98 2689.26 10496.9 21367.6 15066.1 23553.8 17428.3 2971.98 1756.41 1094.45
internal_count=95728 20302 75426 5402 14900 53163 22263 33583 2232 499 7058 1352 4571 7842 11267 5706 10996 4763 3192 831 3010 9674 1593 182 1144 858 415 31351 2582 1397 1122 19580 2422 620 910 102 286 7092 5076 1916 767 1149 658 588 186 1020 570 3011 1697 2847 4831 275 176 257 363 1802 892 5583 3994 249 160 113
is_linear=0
shrinkage=0.05


Tree=11
num_leaves=63
num_cat=0
split_feature=19 19 21 19 19 17 23 27 23 27 19 19 23 23 17 26 10 26 29 23 17 21 18 21 2 2 29 26 26 27 21 10 26 23 2 2 26 26 25 2 2 2 2 2 2 14 2 2 26 23 26 2 2 29 6 2 27 26 29 6 26 21
split_gain=375800 48576.7 41768.5 16450.2 6200.93 4601.03 3777.61 5486.1 3699.88 2612.58 2403.13 1631.03 1620.08 1544.73 1535.07 1352.3 1321.27 1189.08 1564.86 1315.08 1139.52 1058.34 1009.44 947.899 850.036 1213.09 836.64 1242.47 834.254 1676.78 744.242 738.529 1001.99 936.597 724.75 1404.55 885.453 755.425 719.547 665.237 635.119 982.935 627.606 898.147 579.602 560.565 551.467 630.885 1020.45 550.331 533.336 817.848 719.792 1487.77 1216.44 520.546 518.935 576.28 515.998 500.985 466.432 464.071
threshold=6.3214285373687753 30.437500000000004 1.6854104995727541 100.00000000000001 14.866071224212648 0.43303571641445165 13.45277261734009 12.500000000000002 4.3627820014953622 16.500000000000004 53.732143402099616 203.53571319580081 23.742011070251468 10.585996150970461 2.7187500000000004 56.65460395812989 4.5000000000000009 37.384046554565437 0.37500000000000006 25.818843841552738 0.41071428358554846 3.1617875038136849e-06 36.254465103149421 45.558736801147468 1.5000000000000002 4.5000000000000009 0.48214285075664526 37.384046554565437 51.995887756347663 48.500000000000007 1.2189259529113772 3.5625000000000004 3.8634868860244755 30.752467155456547 4.5000000000000009 2.5000000000000004 22.856907844543461 24.517270088195804 1.5782742500305178 2.5000000000000004 1.5000000000000002 4.5000000000000009 4.5000000000000009 1.5000000000000002 2.5000000000000004 76.500000000000014 1.5000000000000002 4.5000000000000009 12.065789222717287 36.024435043334968 37.384046554565437 1.5000000000000002 2.5000000000000004 0.19642857462167743 1.0000000180025095e-35 1.0000000180025095e-35 28.500000000000004 56.65460395812989 0.37500000000000006 1.0000000180025095e-35 27.444900512695316 7.1460111141204843
decision_type=2 2 2 2 2 2 2 2 2 2 2 2 2 2 2 2 2 2 2 2 2 2 2 2 2 2 2 2 2 2 2 2 2 2 2 2 2 2 2 2 2 2 2 2 2 2 2 2 2 2 2 2 2 2 2 2 2 2 2 2 2 2
left_child=2 4 5 10 13 6 21 -8 14 -9 15 -5 20 46 42 16 23 18 24 -19 -10 -1 28 -3 -6 39 40 -28 38 -30 -7 32 -20 -33 35 36 -22 -37 -14 -26 -15 -42 43 -4 -25 -17 58 48 61 -29 51 59 -52 -54 -55 -34 57 -21 -2 -18 -57 -48
right_child=1 3 8 11 17 30 7 9 12 -11 -12 -13 22 26 -16 45 50 19 31 56 34 -23 -24 44 25 -27 27 49 29 -31 -32 33 55 -35 -36 37 -38 -39 -40 -41 41 -43 -44 -45 -46 -47 47 -49 -50 -51 52 -53 53 54 -56 60 -58 -59 -60 -61 -62 -63
leaf_value=-0.070083270663067354 -0.0079224582344825985 0.055700202355363375 -0.043073129453029907 0.091899828320914589 0.020247712297767829 -0.05040438265638203 -0.070147149044318666 0.068513560406594606 -0.053920307799434512 -0.048491066143577517 0.068333914237295512 0.11794446604252672 0.018652930738433649 0.0036828598665180311 -0.017552937221881851 0.040864324727080487 0.049812195874385234 -0.054109455355330821 0.011571817567647332 0.017513925435291535 -0.017714861462058723 -0.058288836176894468 -0.055182723775852031 0.064608823626188319 0.029696825140483541 0.021548182198796631 0.046417998553805399 -0.040143622851963198 -0.02825114006336121 0.10149969893350053 -0.038988866763727606 0.044571891041431028 0.034555677741535465 -0.015147818682441836 -0.020845841701648438 0.0069261855389501081 0.042960249048104859 -0.054867779065348524 0.063145455799871339 0.04849256661856638 0.028651099587941733 0.0053507154776445609 -0.046287413467329973 -0.022134005982099386 0.097681431489227616 -0.020737688099584768 0.012157574971406061 -0.00035487609599425146 -0.053209494076986934 0.02239944602243521 0.068339649185588228 0.054920427470510597 0.042285865188708437 0.048612182891014877 -0.063830323149531604 0.07777601627202671 0.037720697816006295 -0.039097708454070082 0.030802874845120745 0.027798270257825716 0.045458841946639982 0.030203024264556955
leaf_weight=61586.298099398613 8745.2868802547455 8120.2784607410431 7989.2972013950348 13092.638297080994 11343.431864976883 48898.380814313889 2711.435885310173 1645.3864303827286 1519.727431178093 670.93036305904388 33537.907234430313 11166.914367675781 4067.9700585603714 6872.8746185302734 27741.470322966576 632.72622203826904 5042.6143867969513 617.9437141418457 955.84032130241394 3366.5611429214478 17557.866615772247 27584.056191563606 501.39661765098572 2421.865927696228 6818.054493188858 9802.6292188167572 5730.5628197193146 640.3525402545929 1708.9103029966354 290.44460225105286 20198.936055779457 5713.0207858085632 1145.6677775382996 741.27116870880127 11330.928284525871 14909.481744527817 621.68292665481567 510.55831432342529 1169.6861877441406 15256.140745401382 14177.060065984726 6649.6411583423615 7609.0073298215866 14276.732986211777 2952.5680928230286 884.09114480018616 11768.771447658539 9831.6695301532745 523.32056546211243 777.91312694549561 1130.0629386901855 28740.893599033356 2794.7505261898041 358.43241143226624 726.62641859054565 5369.9533019065857 2970.9475357532501 517.82756018638611 953.0379433631897 5312.5055437088013 1416.2238175868988 5110.3921821117401
leaf_count=21323 1042 481 2022 610 1053 13814 1733 194 665 304 2060 298 683 971 4399 67 570 162 71 295 3647 10022 205 98 555 879 520 96 542 22 5200 554 113 89 2523 2355 67 111 113 1026 1453 941 1994 3031 57 112 1164 1194 157 129 50 1927 188 66 90 256 312 85 185 254 100 429
internal_value=-0.000227632 0.043533 -0.0407481 0.0672389 0.023422 -0.056869 -0.0640579 -0.0218846 -0.0172025 0.0346164 0.0576409 0.103893 -0.00782338 0.0132491 -0.0260233 0.0515736 0.0528007 0.0344796 0.0368765 0.0156948 -0.0113521 -0.0664355 0.0133567 0.0664955 0.0320053 0.0361886 0.0208 0.0360496 0.0181122 -0.00936103 -0.0470679 0.050596 0.0599473 0.0377118 -0.00991111 -0.00622303 -0.0156377 0.00487676 0.0285993 0.0426887 0.0168631 0.0212123 -0.033888 -0.0296488 0.0827928 0.00496901 0.00612393 0.00976984 0.0154896 -0.00584738 0.0486092 0.0505782 0.0332368 0.0229975 -0.0266761 0.0657747 0.021994 0.00995891 -0.0041142 0.0385221 0.0710394 0.0176225
internal_weight=529832 254731 275101 116915 137816 163295 94198.1 5027.75 111805 2316.32 92655.3 24259.6 54188.7 71780.9 57616.5 59117.4 57600.6 66035.5 58562.2 7473.28 46450.2 89170.4 7738.41 13494.7 43220.3 31876.8 34848.4 7148.83 7237.01 1999.35 69097.3 15342 8887.69 6454.29 44930.5 33599.6 18179.5 15420 5237.66 22074.2 27699.6 20826.7 29875 22266 5374.43 1516.82 36932.5 27234.2 17402.5 1418.27 44105.9 39096 5009.87 3879.81 1085.06 7931.84 6855.34 3884.39 9698.32 10355.1 6786.18 16879.2
internal_count=95728 20759 74969 6928 13831 52590 33576 2231 22379 498 6020 908 10933 8281 11446 3960 3781 5550 4696 854 9368 31345 1565 636 3513 2460 4110 745 1360 564 19014 1183 540 643 8703 6180 3714 2466 796 1581 3365 2394 7047 5053 155 179 4171 2944 1750 225 3145 2751 394 344 156 469 692 380 1227 824 356 1593
is_linear=0
shrinkage=0.05


Tree=12
num_leaves=63
num_cat=0
split_feature=19 19 21 19 19 23 19 24 27 19 27 17 26 2 29 10 21 26 2 2 23 19 24 2 29 24 26 21 10 25 2 2 27 24 17 2 25 26 2 19 24 23 23 14 24 23 0 2 2 26 22 2 26 2 2 2 2 0 27 28 19 9
split_gain=343077 47880 36376.7 17096.1 4945.09 4237.5 3300.55 4186.36 6234.51 3011.19 1933.83 1919.53 1481.7 1975.74 2479.99 1495.01 1462.44 1761.6 1422.55 1868.9 1778.17 1390.16 1307.91 1181.81 1392.33 1179.42 1117.71 1486.62 888.457 1094.92 879.996 849.069 826.404 758.969 748.182 743.009 730.35 719.198 715.789 664.68 661.64 646.662 645.234 642.762 613.785 607.03 580.273 578.973 945.467 578.406 577.986 565.28 557.191 556.195 778.231 515.181 892.826 509.297 551.206 463.2 453.668 583.577
threshold=5.6071429252624521 25.723214149475101 1.3988727927207949 107.27678680419923 9.8660712242126483 4.3627820014953622 0.07142857462242741 168.50000000000003 12.500000000000002 53.732143402099616 13.500000000000002 2.1473213434219365 37.384046554565437 2.5000000000000004 0.19642857462167743 5.5000000000000009 12.568213462829592 37.384046554565437 4.5000000000000009 1.5000000000000002 27.097274780273441 256.05356597900396 27.500000000000004 2.5000000000000004 0.26785714924335485 170.50000000000003 4.0271382331848153 45.558736801147468 21.500000000000004 1.6429706215858462 4.5000000000000009 1.5000000000000002 48.500000000000007 167.50000000000003 0.035714287311588704 2.5000000000000004 1.6429706215858462 33.578947067260749 4.5000000000000009 0.82142856717109691 148.50000000000003 29.405779838562015 20.267857551574711 0.50000000000075007 167.50000000000003 6.651315689086915 28.500000000000004 4.5000000000000009 1.5000000000000002 32.352796554565437 51.393411636352546 1.5000000000000002 37.384046554565437 1.5000000000000002 4.5000000000000009 1.5000000000000002 4.5000000000000009 26.500000000000004 49.500000000000007 2023.5000000000002 67.508930206298842 83.500000000000014
decision_type=2 2 2 2 2 2 2 2 2 2 2 2 2 2 2 2 2 2 2 2 2 2 2 2 2 2 2 2 2 2 2 2 2 2 2 2 2 2 2 2 2 2 2 2 2 2 2 2 2 2 2 2 2 2 2 2 2 2 2 2 2 2
left_child=2 4 6 9 42 11 7 -1 -9 12 46 47 15 -14 59 26 35 28 19 22 34 -5 45 -19 -25 36 -3 -28 30 -30 43 50 37 -26 -21 -6 -16 -22 -37 -8 -20 -33 53 -18 49 -7 -10 48 -4 -24 -17 -45 -36 -2 -55 -13 -57 58 -40 -15 61 -11
right_child=1 3 5 21 16 18 39 8 10 60 -12 55 13 14 25 31 17 23 40 20 32 -23 44 24 33 -27 27 -29 29 -31 -32 41 -34 -35 52 38 -38 -39 57 -41 -42 -43 -44 51 -46 -47 -48 -49 -50 -51 -52 -53 -54 54 -56 56 -58 -59 -60 -61 -62 -63
leaf_value=-0.069222609561282275 -0.0083247260551958923 0.016722455728131146 -0.046324699717384593 0.090785223901635653 0.01092212011831506 -0.027620201954957742 -0.054552169882834692 -0.071402409241763595 0.027669340714412967 0.063226618997246506 -0.041606264341946551 -0.030311347052082844 0.057092194442244552 0.047668183478948384 -0.049344361978666089 0.037827248764643343 0.057354377855131311 0.036639062758940702 -0.016205265471826158 -0.0592423897177215 0.05617530631454435 0.11628637361977856 -0.024086060857872599 0.020539595418248579 -0.049654682814619891 0.064793683896000168 0.057081164085673201 0.093543769203758065 0.027641909127109943 -0.046891350239699287 0.019561819597774414 0.046920029457642703 0.092935086674443501 0.022242664962290208 0.00089285165013467099 0.031556312130926877 0.010079845039632431 0.0070168376746063792 0.0071176122185797903 -0.044839066032581448 -0.042268423550013944 0.064672824327798042 0.018952116869072208 0.020274833898052295 -0.050690371811237679 0.035957977825604837 0.090497036067581027 -0.048358657555411619 -0.025652450795948287 0.035209020381285101 -0.0050699717272261191 0.044021411708881727 -0.064823126499036834 0.011820548858911125 -0.0058836898323983014 -0.0098725661909794832 -0.028923577435356763 0.035601600128218086 0.060509900881333761 0.0061338047372891356 0.070616021714447821 0.038602147230635882
leaf_weight=64686.788064002991 9394.3558733463287 1122.6428098678589 8690.405793428421 13901.572616100311 17673.165331602097 519.74834883213043 43889.544387102127 2729.1970136165619 559.68149030208588 14994.620069265366 519.88329350948334 9624.6340019702911 4339.0123512744904 3279.6588778495789 1853.9049615859985 12089.555192470551 7067.0669941902161 2458.6165153980255 7836.7850499153137 550.16576528549194 1215.6270909309387 8721.5632848739624 7436.4946867227554 2343.3911225795746 1760.7768008708954 351.14953327178955 8739.7936606407166 4116.4392569065094 10807.023283004761 515.39864134788513 4057.1853523254395 29716.899559259415 542.19394612312317 463.03502655029297 19613.250576972961 14666.118368387222 716.48959422111511 1916.2762571573257 9117.9761102199554 29493.743486166 3533.3712712526321 6210.324863910675 6787.907249212265 3162.67884516716 2198.8060113191605 1345.463795542717 1075.9347081184387 8506.4600948095322 15229.94441139698 434.49002051353455 839.53749632835388 12119.55447101593 326.94681715965271 18136.263689279556 9435.9813525676727 16896.167190313339 9670.064489364624 2421.0217566490173 509.48659181594849 844.35200357437134 17502.5051612854 2873.0996108055115
leaf_count=23835 1371 55 2309 610 1790 199 14758 1846 89 913 224 1868 192 239 310 989 411 193 1326 252 82 221 1405 270 288 40 552 90 1056 71 439 2194 43 87 3438 1194 61 427 977 8223 1519 244 1041 304 971 217 77 2301 3452 47 66 932 69 2007 1353 2764 1892 200 39 72 1020 204
internal_value=-0.000241107 0.0397449 -0.0411638 0.0610485 0.0185507 -0.0203712 -0.0580483 -0.0658522 -0.0212133 0.0528785 0.0423376 -0.0283167 0.0471555 0.0305535 0.0142039 0.0501629 0.0253079 0.031686 -0.00888565 -0.0040277 0.00396769 0.100621 -0.0202147 0.00869694 -0.0063496 -0.0210364 0.0645847 0.0687625 0.0359666 0.0242453 0.0409913 0.0460353 0.0359934 -0.0346812 -0.00177628 0.0188764 -0.0327826 0.0261092 0.0241381 -0.050649 -0.0243076 0.0499905 0.00478382 0.0448805 -0.027338 0.0182364 0.0690285 -0.0371517 -0.0331644 -0.0208088 0.0350416 0.0391087 -0.000187848 0.00218176 0.00576168 -0.0203998 -0.0168079 0.0151063 0.00994913 0.039168 0.064886 0.0592694
internal_weight=524152 265110 259042 132213 132897 116087 142955 69571.5 4884.7 109590 2155.5 68617.7 74219.8 11384.6 7045.55 62835.2 89142.5 44754.7 47469.6 36099.5 24164.5 22623.1 11935 7025.82 4567.2 2921.54 13978.9 12856.2 37728.9 11322.4 26406.5 48856.3 3674.1 2223.81 20490.4 44387.8 2570.39 3131.9 26714.6 73383.3 11370.2 35927.2 43754.5 22349.3 10069.8 1865.21 1635.62 32426.8 23920.4 7870.98 12929.1 15282.2 19940.2 36966.6 27572.2 36190.9 26566.2 12048.5 9627.46 4124.01 35370.2 17867.7
internal_count=95728 22095 73633 8072 14023 24581 49052 26071 2236 7241 390 14586 5104 914 722 4190 8251 4051 9995 7150 4311 831 2839 838 645 411 697 642 3213 1127 2086 3493 552 375 3759 4200 371 509 2410 22981 2845 2438 5772 1647 2423 416 166 8062 5761 1452 1055 1236 3507 4731 3360 6524 4656 1216 1016 311 2137 1117
is_linear=0
shrinkage=0.05


Tree=13
num_leaves=63
num_cat=0
split_feature=19 19 21 19 19 23 16 23 27 19 27 19 2 2 23 19 21 26 26 2 29 10 24 23 24 21 2 2 2 13 27 26 17 23 2 19 2 29 2 24 2 24 24 16 19 14 10 2 2 26 23 19 8 24 26 14 2 23 29 18 26 27
split_gain=313572 44816.6 33544.4 15839.5 4940.79 3593.62 3491.05 4107.42 5274.59 2683.8 1807.15 1702.04 1449.39 2027.13 1783.59 1383.64 1305.47 1555.42 1292.51 1744.97 2227.53 1359.9 1245.83 1094.39 1072.96 911.389 991.923 810.254 892.761 724.172 707.524 689.469 683.092 678.309 677.82 672.547 664.607 755.351 661.689 659.917 633.496 549.677 548.507 545.981 543.502 535.174 647.834 527.886 889.213 512.035 496.524 483.396 452.13 451.035 601.578 441.264 542.31 1776.59 1256.52 480.259 434.105 432.458
threshold=5.3214285373687753 25.723214149475101 1.3988727927207949 107.27678680419923 9.8660712242126483 3.4525376558303837 0.50000000000075007 13.45277261734009 12.500000000000002 53.732143402099616 16.500000000000004 2.1517857313156132 4.5000000000000009 1.5000000000000002 27.097274780273441 256.05356597900396 12.568213462829592 37.384046554565437 37.384046554565437 2.5000000000000004 0.19642857462167743 13.250000000000002 27.500000000000004 25.818843841552738 170.50000000000003 41.260126113891609 2.5000000000000004 1.0000000180025095e-35 4.5000000000000009 13.750000000000002 48.500000000000007 84.560031890869155 0.035714287311588704 5.755639076232911 1.5000000000000002 0.82142856717109691 2.5000000000000004 0.26785714924335485 2.5000000000000004 152.50000000000003 4.5000000000000009 26.500000000000004 167.50000000000003 125.81250000000001 1.8214285373687746 9.5000000000000018 8.5000000000000018 4.5000000000000009 1.5000000000000002 29.467104911804203 6.651315689086915 1.5357142686843874 1.5000000000000002 167.50000000000003 32.352796554565437 18.500000000000004 2.5000000000000004 30.752467155456547 0.33928571641445165 21.073660850524906 44.957235336303718 26.500000000000004
decision_type=2 2 2 2 2 2 2 2 2 2 2 2 2 2 2 2 2 2 2 2 2 2 2 2 2 2 2 2 2 2 2 2 2 2 2 2 2 2 2 2 2 2 2 2 2 2 2 2 2 2 2 2 2 2 2 2 2 2 2 2 2 2
left_child=2 4 6 9 33 11 7 -1 -9 18 -10 47 13 22 32 -5 38 27 21 60 61 25 50 -19 31 -3 52 -18 55 -30 39 -22 -15 -2 43 -8 -25 -38 -6 -16 -40 -36 -39 -23 -14 46 -35 48 -4 -34 -7 -41 -27 54 -24 56 57 58 59 -29 -20 -21
right_child=1 3 5 15 16 12 35 8 10 -11 -12 -13 44 14 30 -17 17 23 19 20 24 34 53 36 -26 26 -28 28 29 -31 -32 -33 49 45 41 -37 37 42 40 51 -42 -43 -44 -45 -46 -47 -48 -49 -50 -51 -52 -53 -54 -55 -56 -57 -58 -59 -60 -61 -62 -63
leaf_value=-0.069006917189388867 -0.0044470884806090743 0.050284819537403151 -0.045664823414783465 0.086017173668800406 0.01033479730027991 -0.027736550121707788 -0.053676535261889508 -0.069955958480735755 0.062331669752671751 0.061107878706221599 -0.047260179111914123 -0.019997511854677776 -0.044426220625302285 -0.058541874789501215 0.049808632620556827 0.11151408785469014 0.015450595356571274 -0.057321239024431529 0.030913898434547039 0.021084267378361211 -0.048486672600074707 0.035173135650974033 -0.026744886258141205 0.034481557616130969 0.061014614129961398 0.03267251053602379 0.089818024109117142 0.040478697076930963 0.033023508307985235 0.0013257345429822055 0.088799263157337327 0.0092089165163438038 9.0223674394065677e-05 0.018459341039737686 0.019909738841281052 -0.043761429633249846 0.019893246109327203 -0.042567539777087819 0.029716359317026382 -0.043032858540613741 0.014288464815019242 0.047999356617042813 0.021616226102617233 -0.012119571293244577 -0.01928779038006084 -0.0017511847034220934 0.00080491260762614078 -0.04751294757465295 -0.025261813347480806 -0.054702388174366526 0.032614517138269683 0.020403592433498121 0.07376362690044766 -0.049666278356965667 0.033594272828861203 0.030372097639706237 0.054786568283946881 -0.02865276118724432 0.0674805395531963 0.0094476484411313063 0.064594933677024569 0.053352618122539053
leaf_weight=61818.320752739906 15791.937925100327 11484.115701436996 8388.6862453222275 13937.760355949402 17741.892929553986 461.42909741401672 42413.027626514435 2457.9825593233109 1652.2401312589645 35671.586777448654 486.15795838832855 31096.22348690033 2869.29660820961 529.45138251781464 1503.2083129882812 8642.2666254043579 5154.1592247486115 582.26282477378845 1417.0231766700745 2122.042991399765 1790.522019982338 12028.969646692276 7677.4048982858658 2481.2938714027405 354.23553156852722 1549.8329544067383 3889.1257557868958 3388.7317867279053 5325.8615798950195 2723.0677514076233 534.23321533203125 727.91804122924805 20080.055296063423 14965.106556653976 1848.2007491588593 28728.763859510422 2309.8256621360779 1178.2731580734253 14792.227375268936 413.05259990692139 12099.382931470871 30766.351089000702 463.05744028091431 642.4264976978302 8585.0371897220612 9562.5037567615509 7960.2816224098206 8101.9668434858322 14710.242177248001 434.62908935546875 1295.9464002847672 1092.1914683580399 1181.5506525039673 2067.2867262363434 435.73482465744019 6592.3023066520691 8424.3529441356659 919.67113971710205 3530.976122379303 1973.5965621471405 2963.6215448379517 2036.2265496253967
leaf_count=23917 2275 723 2286 610 1790 181 14758 1733 191 2137 230 5741 989 252 83 221 543 147 77 162 308 979 1516 193 40 80 79 259 458 348 42 63 3535 1749 242 8223 256 156 1194 164 1216 1997 86 54 1921 1331 1112 2262 3384 96 207 237 36 944 46 597 494 112 233 169 115 149
internal_value=-0.000253409 0.0369173 -0.040901 0.0576214 0.0169494 -0.020356 -0.0573713 -0.0656163 -0.0200102 0.0498212 0.0374059 -0.0282771 -0.0100707 -0.00520377 0.00300418 0.0957804 0.023892 0.029897 0.044438 0.0289428 0.0135064 0.047227 -0.0221075 0.00826178 -0.0203495 0.0588121 0.0735938 0.033887 0.0367766 0.0223012 0.0358209 -0.0318136 -0.00252181 0.00405321 0.0425943 -0.0496732 0.0142063 0.00146812 0.0178307 0.0263868 0.0227757 0.0464082 -0.0244577 0.0327747 -0.0255883 0.00818511 0.0123296 -0.036528 -0.0326731 -0.00107324 0.0167615 0.00297904 0.0504683 -0.0288182 -0.0235005 0.041468 0.0454769 0.0374799 0.0443213 0.0290617 0.0537095 0.0368945
internal_weight=518847 271015 247833 133054 137961 110276 137556 66414.7 4596.38 110474 2138.4 62297.1 47979 36524.6 24586.8 22580 89680.9 45047.4 74802.2 11411.6 7030.95 63390.6 11937.8 7014.71 2872.68 18104.6 6620.51 38032.7 32878.6 8048.93 3542.69 2518.44 21044.1 48279.8 45285.9 71141.8 6432.45 3951.16 44633.5 3008.45 26891.6 32614.6 1641.33 12671.4 11454.3 32487.9 22925.4 31200.9 23098.9 20514.7 1757.38 1505.24 2731.38 10180.4 8113.14 24829.6 18237.3 9812.98 8893.3 5362.33 4380.64 4158.27
internal_count=95728 22790 72938 8072 14718 23886 49052 26071 2154 7241 421 13673 10213 7303 4409 831 8251 4051 5104 914 722 4190 2894 838 411 918 195 3213 2670 806 526 371 3883 6467 3272 22981 691 498 4200 484 2410 2239 242 1033 2910 4192 2861 7932 5670 3631 388 401 116 2506 1562 1864 1267 773 661 428 192 311
is_linear=0
shrinkage=0.05


Tree=14
num_leaves=63
num_cat=0
split_feature=17 17 21 16 16 16 24 27 16 17 2 15 23 17 13 26 2 23 12 26 23 20 27 24 2 2 27 2 2 23 0 24 17 2 24 23 2 0 15 15 27 9 16 26 12 26 21 2 26 2 2 2 2 26 0 8 27 2 2 23 24 2
split_gain=284992 38536.4 33349.2 14927.6 4663.81 3676.19 4080.52 5636.21 3637.96 2949.68 1789.24 1690.43 1606.48 1556.29 1405.86 1258.83 1083.09 1150.23 1080.97 1226.55 1075.18 1010.75 948.754 940.024 885.22 1196.11 722.24 708.994 1220.1 683.607 1393.14 667.723 665.26 652.204 1021.9 721.964 613.024 602.649 1208.47 4156.07 601.886 634.263 575.889 557.455 946.601 557.072 555.71 692.037 1254.31 550.902 980.6 534.689 588.079 510.936 492.188 466.397 949.61 517.577 586.819 445.962 443.176 706.869
threshold=5.4464285373687753 24.866071701049808 1.3988727927207949 172.50000000000003 33.250000000000007 0.50000000000075007 169.50000000000003 12.500000000000002 5.5000000000000009 54.160713195800788 1.5000000000000002 3.5000000000000004 11.454417228698732 10.075892925262453 11.500000000000002 27.444900512695316 1.5000000000000002 30.752467155456547 2.7500000000000004 38.681743621826179 25.818843841552738 187.50000000000003 48.500000000000007 105.50000000000001 4.5000000000000009 1.5000000000000002 35.500000000000007 1.5000000000000002 4.5000000000000009 18.264098167419437 10.500000000000002 145.50000000000003 0.69642856717109691 2.5000000000000004 26.500000000000004 41.569196701049812 4.5000000000000009 8.5000000000000018 4.5000000000000009 2.5000000000000004 12.500000000000002 12.750000000000002 71.500000000000014 51.995887756347663 4.5000000000000009 37.384046554565437 41.260126113891609 2.5000000000000004 14.29605293273926 1.5000000000000002 4.5000000000000009 2.5000000000000004 4.5000000000000009 0.17105262726545337 27.500000000000004 0.50000000000075007 10.500000000000002 2.5000000000000004 4.5000000000000009 33.337992668151863 35.500000000000007 2.5000000000000004
decision_type=2 2 2 2 2 2 2 2 2 2 2 2 2 2 2 2 2 2 2 2 2 2 2 2 2 2 2 2 2 2 2 2 2 2 2 2 2 2 2 2 2 2 2 2 2 2 2 2 2 2 2 2 2 2 2 2 2 2 2 2 2 2
left_child=2 4 5 9 13 6 -1 -8 24 14 -9 -12 27 49 26 16 17 42 19 -16 36 -5 23 -14 25 -4 46 -10 -29 -27 -31 -21 -7 35 -35 -17 -18 38 39 -20 45 -42 -6 59 -45 -36 53 48 -48 -2 -51 -25 -53 -3 -52 56 -15 -57 -59 -11 -22 -62
right_child=1 3 8 21 15 32 7 10 12 43 11 -13 22 55 18 33 20 -19 37 31 60 -23 -24 51 -26 29 -28 28 -30 30 -32 -33 -34 34 40 -37 -38 -39 -40 -41 41 -43 -44 44 -46 -47 47 -49 -50 50 54 52 -54 -55 -56 57 -58 58 -60 -61 61 -63
