tree
version=v4
num_class=1
num_tree_per_iteration=1
label_index=0
max_feature_idx=30
objective=tweedie
feature_names=Column_0 Column_1 Column_2 Column_3 Column_4 Column_5 Column_6 Column_7 Column_8 Column_9 Column_10 Column_11 Column_12 Column_13 Column_14 Column_15 Column_16 Column_17 Column_18 Column_19 Column_20 Column_21 Column_22 Column_23 Column_24 Column_25 Column_26 Column_27 Column_28 Column_29 Column_30
feature_infos=[1:31] [0:17] [0:6] [0:1] [0:1] [0:1] [0:1] [0:1] [0:371.875] [0:371.875] [0:371.875] [0:371.875] [0:371.875] [0:371.875] [0:371.875] [1:12] [0:371.875] [0:364.75] [0:364.5] [0:371.875] [0:371.875] [0:175.44413757324219] [0:190.42362976074219] [2.0018797004198868e-13:91.905548095703125] [0:192] [0.00051048252498731017:1.8684734106063843] [0:142.02302551269531] [1:52] [2023:2024] [0:1] [0:17]
tree_sizes=6510 6805 6818 6821 6807 6826 6806 6824 6816 6829 6822 6854 6841 6832 6817 6851 6845 6864 6863 6833 6860 6875 6863 6871 6844 6866 6881 6846 6891 6887 6878 6848 6859 6879 6902 6892 6876 6895 6890

Tree=0
num_leaves=63
num_cat=0
split_feature=19 21 19 19 19 16 21 2 23 23 0 15 14 2 26 6 23 2 29 10 0 16 19 10 2 10 26 24 17 24 2 26 17 26 12 29 25 19 26 10 19 2 19 26 2 2 2 8 23 14 2 24 26 23 23 22 8 17 2 26 20 24
split_gain=999796 89488.1 72447 16150.1 10627.7 10522.8 6652.87 4556.17 4198.84 3812.25 7424.18 3874.45 3366.49 2784.04 2666.35 2818.93 2625.25 2298.04 2253.01 2090.16 2014.93 1977.07 1942.38 2026.42 1797.62 1789.18 1551.1 2025.01 1465.95 1633.35 1437.39 1386.1 1356.93 1255.68 1258.2 3304.08 1207.25 1147.8 1137.3 1109.02 1107.7 1100.44 1046.48 1021.32 1659.82 948.241 878.369 832.167 825.548 801.096 1327.06 1167.78 860.842 780.339 760.396 738.678 731.108 702.853 691.628 686.842 667.23 643.271
threshold=9.8660712242126483 2.3571277856826787 33.875000000000007 81.732143402099624 17.723214149475101 10.500000000000002 1.2152366638183596 3.5000000000000004 21.826010704040531 13.45277261734009 25.500000000000004 2.5000000000000004 6.5000000000000009 3.5000000000000004 62.821546554565437 1.0000000180025095e-35 20.267857551574711 3.5000000000000004 0.91071426868438732 0.50000000000075007 14.500000000000002 0.50000000000075007 53.589286804199226 4.5000000000000009 1.5000000000000002 4.5000000000000009 24.517270088195804 145.50000000000003 0.76785713434219371 147.50000000000003 3.5000000000000004 62.821546554565437 3.1607142686843877 21.644737243652347 12.750000000000002 0.16071429103612903 1.4152675271034243 2.5446428060531621 3.5592105388641362 2.7500000000000004 145.21428680419925 1.5000000000000002 6.4375000000000009 6.8149669170379648 2.5000000000000004 3.5000000000000004 1.5000000000000002 81.500000000000014 21.538416862487797 20.812500000000004 1.5000000000000002 172.50000000000003 21.041117668151859 7.9812028408050546 7.2021851539611825 59.049100875854499 0.50000000000075007 14.736785411834719 1.0000000180025095e-35 1.1644736528396609 11.500000000000002 27.500000000000004
decision_type=2 2 2 2 2 2 2 2 2 2 2 2 2 2 2 2 2 2 2 2 2 2 2 2 2 2 2 2 2 2 2 2 2 2 2 2 2 2 2 2 2 2 2 2 2 2 2 2 2 2 2 2 2 2 2 2 2 2 2 2 2 2
left_child=1 6 4 14 12 8 9 16 17 21 -11 -12 19 25 22 -16 24 41 38 -2 28 -1 23 43 61 49 46 -28 -10 -30 57 47 45 55 -35 -36 -13 -19 -9 -18 -5 -3 -40 -4 -45 48 -27 59 -8 -6 -51 52 -52 -21 -26 -25 -32 -14 -55 -15 -61 -7
right_child=2 5 3 40 13 7 32 18 20 10 11 36 30 31 15 -17 39 37 -20 53 -22 -23 -24 33 54 26 27 -29 29 -31 56 -33 -34 34 35 -37 -38 -39 42 -41 -42 -43 -44 44 -46 -47 -48 -49 -50 50 51 -53 -54 58 -56 -57 -58 -59 -60 60 -62 -63
leaf_value=1.8234796389596533 1.9799317717227394 1.8649111661763542 2.032577779653113 2.0269766974052934 2.0016479986950086 1.9217331525690355 1.8499631840317738 1.921062924587571 1.9935831204053212 1.8299471302600669 1.8223979228778535 1.995056144626387 1.9262031435392253 1.9804077964667393 2.008781769178825 1.8779473153678592 1.9533498811722798 1.8410287890961483 2.0029139669709202 1.9154788571702848 1.8703768824072904 1.8330318685395595 2.0090020281499834 1.9939048908390091 1.9028894758203376 1.961946368660958 1.8695725945194241 1.9666273036655668 1.9394355175088784 1.8591640552448419 1.8633977530791042 1.8867730197679489 1.8725157175466951 1.9890614563047946 1.9710562930454376 1.8632637187867023 1.896399067791525 1.8628743307991289 1.8652243715157839 1.9122528525086695 2.0445774210215117 1.882100556722941 1.8872099627224017 2.0083208549962914 1.9383208060692367 1.8377921873820593 1.9821999886103729 1.9920549378119614 1.9306291262720847 1.9960219591968427 1.9551053073435976 1.9907385241677549 1.848011690045968 1.9190167534068701 1.9247417785047156 1.9440517219252924 1.9158520244691188 1.9470287550489802 1.9528301050799144 1.9430574210422407 1.9668477771537856 1.8865466050770807
leaf_weight=115338.33074688911 4891.8404903411865 17747.762298822403 3459.553991317749 15769.691921949387 7406.6596558094025 1443.8875875473022 33928.025358915329 1518.005695104599 762.47267413139343 4960.8122081756592 556.00205183029175 1404.1264038085938 9727.2478113174438 1907.8343722820282 719.84146475791931 959.49566173553467 4174.8204026222229 9808.2451255321503 373.20216846466064 2338.5125133991241 2070.4281973838806 102306.56613135338 25201.887126684189 22337.169833898544 7494.1773371696472 10844.255576372147 887.73970127105713 1359.4879522323608 2184.590395450592 891.6557924747467 697.42759919166565 777.01846861839294 4993.0585458278656 5430.3288247585297 4911.3964142799377 830.64441752433777 397.96285700798035 15556.932738304138 10738.353055000305 2706.9182722568512 20992.435046195984 19589.432703495026 10913.478049039841 7199.1399722099304 961.68878698348999 24272.905965089798 10628.376313686371 1397.4997134208679 319.45957493782043 2195.5371413230896 322.45051336288452 506.00705146789551 445.91617894172668 1811.1631281375885 8493.6666173934937 771.78326034545898 13649.773433923721 6953.3668780326843 9230.5565493106842 12494.1385409832 3865.1270501613617 12857.058565616608
leaf_count=23812 411 2993 55 771 407 319 6188 251 77 1822 211 146 1064 131 59 93 508 2143 34 292 575 20860 1625 1600 991 959 132 203 205 286 121 93 815 371 413 143 104 2357 2024 527 528 3006 1544 361 111 4693 722 90 66 127 28 56 107 258 992 59 1606 648 842 1396 358 1746
internal_value=1.8937 1.84869 1.98161 2.01001 1.9518 1.88325 1.8332 1.89841 1.86984 1.82916 1.86466 1.93769 1.93493 1.9669 1.99637 1.93406 1.90931 1.86604 1.8812 1.95196 1.91013 1.82797 1.99784 1.99171 1.90298 1.97555 1.96784 1.92829 1.93156 1.91617 1.92491 1.95226 1.84749 1.98558 1.9718 1.95546 1.97328 1.85443 1.87924 1.93719 2.03703 1.87393 1.87631 2.00977 2.00008 1.84536 1.97198 1.95485 1.85072 1.99235 1.97247 1.93184 1.89298 1.94173 1.9145 1.99224 1.9133 1.93489 1.94729 1.952 1.94868 1.8901
internal_weight=631685 417802 213883 109545 104338 129325 288477 60713.6 68611.5 224964 7318.9 2358.09 49299.9 55038 72782.9 1679.34 37170.5 62702.4 23543 18272.1 5909.15 217645 71103.6 45901.7 30288.8 34596.4 23719.9 2247.23 3838.72 3076.25 31027.8 20441.6 63513.4 34281.3 11172.4 5742.04 1802.09 25365.2 23169.8 6881.74 36762.1 37337.2 21651.8 11620.4 8160.83 58520.4 21472.6 19664.6 34247.5 10876.6 3469.91 1274.37 768.367 13380.2 15987.8 23109 14347.2 16680.6 11041.7 18267.1 16359.3 14300.9
internal_count=95535 79295 16240 6189 10051 20578 58717 8936 11642 46955 2283 461 5242 4809 4890 152 5083 10499 3853 1803 1143 44672 4738 3113 4048 2741 2016 335 568 491 3439 2068 11762 2586 927 556 250 4500 3819 1035 1299 5999 3568 527 472 10947 1681 1975 6254 725 318 191 135 1392 1983 1659 1727 1712 1100 1885 1754 2065
is_linear=0
shrinkage=1


Tree=1
num_leaves=63
num_cat=0
split_feature=19 21 19 19 23 19 2 17 24 27 15 23 19 19 2 21 13 19 19 9 23 2 19 29 12 15 24 2 21 2 17 8 22 24 8 12 23 2 29 12 8 18 27 2 19 2 2 13 2 17 2 25 16 2 8 8 17 21 21 2 25 27
split_gain=914924 86322.5 70619 17009.2 11145.4 9998.82 5374.36 5237.08 4350.1 8592.77 6062.06 3895.19 3024.44 2607.97 2585.34 2401.37 2772.46 2145.78 1723.66 1541.93 1505.15 1450.25 1290.74 1263.46 1233.86 1201.87 1766.34 1259.2 1162.9 1125.14 1124.54 1109.04 1144.1 968.116 926.062 846.763 844.777 842.317 1582.04 1188.62 808.25 793.987 788.931 762.315 736.292 728.031 1229.85 696.056 683.441 668.968 649.308 641.874 1786.41 627.18 678.576 610.397 602.842 592.229 563.635 678.964 609.568 530.392
threshold=9.7232141494750994 2.1373163461685185 33.875000000000007 81.732143402099624 5.755639076232911 17.723214149475101 3.5000000000000004 0.76785713434219371 168.50000000000003 12.500000000000002 3.5000000000000004 23.742011070251468 3.7500000000000004 5.3214285373687753 3.5000000000000004 11.719269275665285 21.500000000000004 53.589286804199226 5.6071429252624521 71.500000000000014 1.4656955003738406 3.5000000000000004 173.64285278320315 0.80357143282890331 96.500000000000014 11.500000000000002 147.50000000000003 1.5000000000000002 45.383571624755866 3.5000000000000004 0.035714287311588704 13.250000000000002 31.762230873107914 148.50000000000003 112.50000000000001 24.500000000000004 21.826010704040531 1.5000000000000002 0.30357143282890325 11.500000000000002 17.750000000000004 19.866071701049808 38.500000000000007 1.5000000000000002 4.3214285373687753 3.5000000000000004 1.5000000000000002 1.5000000000000002 3.5000000000000004 3.3750000000000004 1.0000000180025095e-35 1.6429706215858462 73.500000000000014 2.5000000000000004 0.50000000000075007 19.500000000000004 22.866071701049808 39.761600494384773 25.119647026062015 1.5000000000000002 1.4671308398246767 48.500000000000007
decision_type=2 2 2 2 2 2 2 2 2 2 2 2 2 2 2 2 2 2 2 2 2 2 2 2 2 2 2 2 2 2 2 2 2 2 2 2 2 2 2 2 2 2 2 2 2 2 2 2 2 2 2 2 2 2 2 2 2 2 2 2 2 2
left_child=1 7 5 17 12 15 11 8 30 -10 -11 13 21 35 31 45 41 19 33 28 -9 50 -5 -20 25 26 -13 -28 -4 43 -1 57 -33 36 42 -6 -8 -21 -39 -40 -35 48 51 -14 -22 46 -2 -12 55 -38 -3 56 -53 -18 -55 -17 -16 -7 59 -15 -61 -47
right_child=2 4 3 22 6 14 18 20 9 10 47 24 29 58 34 16 53 -19 23 37 44 -23 -24 -25 -26 -27 27 -29 -30 -31 -32 32 -34 40 -36 -37 49 38 39 -41 -42 -43 -44 -45 -46 61 -48 -49 -50 -51 -52 52 -54 54 -56 -57 -58 -59 -60 60 -62 -63
leaf_value=-0.070469541042770076 0.021845064705034823 -0.043389327523919989 0.090819472466417167 0.13146317328006996 -0.0035348222233611611 0.08235354243072987 -0.024135800080248276 -0.053491375316068651 -0.071413210223364845 0.102130425146918 -0.054744756235248243 0.071973654347438742 -0.017412818631106108 0.0080053811657518747 0.038191046492516811 0.072339376046963055 0.04398202408790234 0.10964103469928964 -0.003800943102273021 0.098896920805227884 -0.039799964691587746 -0.047809874955571707 0.15060096852547766 0.088614146360271748 -0.029264487993207022 0.11016493202313178 -0.018178260875044705 0.044244955655265539 0.11290883491776663 -0.026050325922516507 -0.06238356786442021 0.072415037347109523 0.024646589407693403 -0.046589251943411555 0.11602430354803379 -0.040497388263310827 0.05014164569972928 0.078369914149857556 0.045269769465933633 -0.053943095746782625 0.058553467610576629 0.083802059092063258 0.070193909409113506 0.0028105436146365994 -0.004096744522776169 0.017537270195174891 0.047797494478071245 0.040879762642660286 0.037565585283236391 -0.012024540145954832 -0.02312786468498771 0.058072908627448787 -0.069837202834792431 -0.037393501738862585 0.0206094454008315 0.031976012086517125 0.059499304001885148 0.10699119759251222 0.074592956949706607 0.032347892206359911 -0.017103886410003526 0.059993271957887388
leaf_weight=102850.27274227142 8380.685469865799 5109.5546863079071 35080.184632062912 19449.166327476501 15775.068062543869 14225.713600635529 7301.7698583602905 68262.984873533249 4649.3578157424927 1634.4851264953613 1181.9854986667633 2992.7287256717682 8908.4008197784424 7617.0217344760895 5734.0425868034363 5774.3847715854645 2426.8609979152679 25700.632676124573 10710.304256439209 1224.7101185321808 13127.359727859497 14875.259826183319 16285.257642030716 382.06941390037537 509.76800203323364 770.44830441474915 1350.46333360672 2008.0905227661133 7202.8299887180328 12867.80350112915 74090.031359672546 16127.453172922134 1360.5530309677124 5421.9496116638184 607.13893222808838 1717.2497727870941 750.79997611045837 1953.3119893074036 774.36544895172119 493.38783478736877 188.33439826965332 3822.924370765686 5162.0705187320709 9768.9125680923462 1622.765124797821 11479.234726190567 10033.083560466766 226.02580833435059 3122.4791007041931 1019.0154039859772 17509.652267694473 759.34324049949646 424.87249755859375 598.55528140068054 3172.3648180961609 1120.7478244304657 7910.9550292491913 2960.827198266983 466.32895278930664 7967.2014696598053 675.41734027862549 785.25360870361328
leaf_count=22012 918 937 2540 924 2720 1057 998 12854 1846 164 427 194 1292 967 624 522 287 1675 1551 73 2598 2819 375 46 139 65 396 385 270 1952 16818 1384 171 1890 26 487 70 169 79 84 32 264 459 1255 224 1294 896 47 409 158 2857 116 53 122 435 153 790 129 44 746 176 71
internal_value=-2.45948e-05 -0.0442846 0.0835355 0.111958 -0.0119528 0.0545293 0.00247473 -0.0607936 -0.0654839 -0.0286689 0.0366524 0.0135365 -0.0260843 0.00633209 0.0692402 0.0384958 0.0519583 0.0980278 -0.0154862 0.0916383 -0.0503613 -0.0356832 0.140189 -0.000610066 0.0458347 0.0512136 0.0440463 0.0191468 0.0945849 -0.0146742 -0.0670841 0.0775766 0.0687003 -0.0267245 0.0552041 -0.00716561 -0.0166245 0.0635989 0.0501514 0.00664574 -0.0430499 0.0644036 0.0533512 -0.00683568 -0.0358725 0.029701 0.0359876 -0.0393762 0.0569931 0.0143613 -0.0277065 0.0474839 0.0121612 0.0241602 0.0113952 0.0657842 0.0505484 0.086604 0.0204478 0.0188904 0.0284817 0.0202603
internal_weight=618462 404309 214153 108164 136664 105990 67624 267645 184632 7691.85 3042.5 41849.8 69039.6 34218.3 55273 50716.6 20038.3 72429.4 25774.2 46728.8 83013.1 37494.5 35734.4 11092.4 7631.5 7121.73 6351.28 3358.55 42283 31545.1 176940 34674.5 17488 14681.9 20598.4 17492.3 9071.59 4445.78 3221.07 1267.75 5610.28 13840.5 19991.3 18677.3 14750.1 30678.3 18413.8 1408.01 10017.6 1769.82 22619.2 14829.2 1184.22 6197.78 3770.92 6895.13 13645 17186.5 16726 16259.6 8642.62 12264.5
internal_count=95535 79166 16369 6189 22176 10180 11064 56990 41314 2484 638 6319 11112 5140 4809 5371 2192 4890 4745 3215 15676 6613 1299 1597 1179 1040 975 781 2810 4499 38830 2741 1555 3148 2068 3207 1226 405 332 163 1922 1348 2042 2547 2822 3179 1814 474 1084 228 3794 1583 169 844 557 675 1414 1186 1933 1889 922 1365
is_linear=0
shrinkage=0.05


Tree=2
num_leaves=63
num_cat=0
split_feature=19 21 19 19 19 16 17 23 27 15 23 14 23 17 14 10 0 7 10 17 12 19 19 19 7 14 10 19 25 21 14 17 24 7 18 27 17 24 7 8 14 29 24 17 23 10 21 29 27 0 14 14 16 8 17 16 23 0 15 25 25 19
split_gain=835976 84381.2 67208.4 14849.6 11713 10319.5 5506.65 4241.08 8213.95 4730.09 4064.98 2966.24 2925.44 2235.42 2174.74 2161.25 2036.21 1832.25 1787.85 1777.76 1768.07 1515.3 1499.15 1457.71 1337.02 1322.82 1477.59 1262.12 1261.31 1234.14 1161.25 1145.58 941.11 843.081 811.302 732.236 725.716 708.711 688.56 663.551 699.487 649.198 888.432 671.978 605.246 602.9 571.122 563.717 546.63 532.055 529.574 519.985 511.275 489.602 647.799 488.992 552.54 488.607 644.187 488.154 461.408 452.899
threshold=9.7232141494750994 2.1373163461685185 37.446428298950202 81.732143402099624 18.008928298950199 10.500000000000002 0.76785713434219371 13.45277261734009 12.500000000000002 3.5000000000000004 20.267857551574711 4.5000000000000009 20.267857551574711 3.0892857313156132 20.312500000000004 2.7500000000000004 8.5000000000000018 1.0000000180025095e-35 0.50000000000075007 0.76785713434219371 0.50000000000075007 1.8214285373687746 145.21428680419925 61.526784896850593 1.0000000180025095e-35 62.750000000000007 4.5000000000000009 26.437500000000004 1.6429706215858462 3.1617875038136849e-06 78.500000000000014 6.5758929252624521 159.50000000000003 1.0000000180025095e-35 4.7544643878936776 19.500000000000004 12.080357074737551 167.50000000000003 1.0000000180025095e-35 3.5625000000000004 10.500000000000002 0.55357143282890331 104.50000000000001 25.589285850524906 7.9812028408050546 78.500000000000014 21.816878318786625 0.69642856717109691 48.500000000000007 9.5000000000000018 10.500000000000002 18.500000000000004 32.562500000000007 17.750000000000004 37.450893402099616 31.500000000000004 28.074835777282718 7.5000000000000009 8.5000000000000018 1.6371989846229555 1.3872696757316592 1.2500000000000002
decision_type=2 2 2 2 2 2 2 2 2 2 2 2 2 2 2 2 2 2 2 2 2 2 2 2 2 2 2 2 2 2 2 2 2 2 2 2 2 2 2 2 2 2 2 2 2 2 2 2 2 2 2 2 2 2 2 2 2 2 2 2 2 2
left_child=1 6 4 23 11 10 7 29 -9 60 13 18 17 33 15 -6 19 31 -2 -12 35 -8 -5 25 36 26 -4 48 45 -1 -29 -7 39 61 -23 -18 -13 -22 -15 40 55 43 49 -17 -20 53 -21 -34 -16 -43 -33 -38 -19 -27 -55 56 -14 58 -11 -46 -10 -3
right_child=2 5 3 22 14 12 21 8 9 57 16 24 32 38 27 41 20 52 44 46 37 34 -24 -25 -26 28 -28 30 -30 -31 -32 50 47 -35 -36 -37 51 -39 -40 -41 -42 42 -44 -45 59 -47 -48 -49 -50 -51 -52 -53 -54 54 -56 -57 -58 -59 -60 -61 -62 -63
leaf_value=-0.070488185427860353 0.08013269217399871 -0.044092684402768693 0.11487622018331783 0.12493439847984592 0.097823150660689945 -0.0035463293316004077 -0.053535700828788814 -0.070734115310590762 0.12411916244431612 -0.044762327147963105 0.12014212768138724 0.022968835634289187 0.01513761706449402 -0.014681575770218331 0.044904143146784661 0.065100039024680298 0.051782293444316133 -0.019311177125879181 0.016060449148396022 -0.022988329152124665 -0.0069159602686098475 -0.040815115987452709 0.14590664828645358 0.1091516145017188 0.013915355455741569 0.10051400255689234 0.090327157619946516 0.071178839129885235 0.015056090786626243 -0.061880644762917103 0.023389487899122454 0.018635485470102804 0.0020189138356218913 -0.050426479589985335 -0.004179702848214486 -0.026459213876679839 0.045915141459403036 -0.055834704925008284 -0.030171520451876838 0.020200014073598151 0.0074980984424060067 0.063186567568717142 0.082466173638474929 0.082872475688735431 0.051707059817999182 0.037111285839127948 0.043174690462019209 0.059092885067227735 0.086946308030018946 0.0084994452894876574 -0.0042268945685505757 0.026928258844821581 0.042991691713218878 0.034366253493612824 0.082369150971707952 0.08402854129464904 0.070199936545432481 -0.054660123824576003 0.079600793513095944 0.0014775739831590581 0.067327921982978489 -0.028162788028458282
leaf_weight=95606.884774208069 4891.5643224716187 5928.136559009552 7998.6165769100189 15184.598835706711 9204.556839466095 19747.838634967804 58952.822201251984 4166.8983657360077 877.80749773979187 227.38846230506897 674.14212083816528 8515.3044319152832 843.01591944694519 26644.930144548416 12834.422531604767 12773.440312862396 1351.6870269775391 12157.484912633896 1685.8760108947754 472.3424654006958 1645.1309957504272 19893.413272857666 19637.232156515121 15249.773565769196 10475.768970727921 3076.7399983406067 26500.339639663696 16819.285417556763 789.98817372322083 73967.088808298111 1376.4242451190948 13369.075492143631 3638.012998342514 8495.0236539840698 1635.6843183040619 383.21777939796448 13085.282098054886 1345.7587399482727 9819.5142412185669 2739.7989463806152 717.90106678009033 681.24151039123535 1178.9603443145752 9160.7265391349792 8286.353661775589 736.02100872993469 1049.2092468738556 490.04521536827087 823.14748978614807 1278.815016746521 3124.5470223426819 4985.3244194984436 337.54125428199768 812.72453427314758 5293.8267459869385 1423.4184801578522 992.20679426193237 802.92709612846375 190.41742420196533 513.74959421157837 611.11977458000183 18095.36952495575
leaf_count=21288 390 1440 311 771 518 3075 11444 1733 52 83 46 1008 130 3849 1373 988 171 1988 229 129 287 4016 528 1030 1265 168 1864 1490 63 17743 166 1468 949 1878 216 102 1144 490 1554 376 98 46 135 628 815 80 136 82 69 153 449 581 47 86 408 101 75 298 28 62 89 3256
internal_value=-4.98219e-05 -0.0433924 0.0794842 0.110753 0.0543565 -0.0114635 -0.060229 -0.065173 -0.026674 0.0410825 -0.0236891 0.0367075 0.00411166 -0.0273542 0.0683507 0.0770939 0.0128383 -0.00111474 0.0551692 0.0526128 -0.00564893 -0.049389 0.136765 0.0957692 0.0290462 0.0912527 0.096022 0.0589398 0.0758813 -0.066734 0.0675653 0.0045778 0.0275979 -0.0368855 -0.038032 0.0344945 0.0350075 -0.0289384 -0.0188536 0.0391443 0.0521884 0.0694804 0.0481822 0.0725261 0.0435175 0.0807235 0.0226338 0.00880688 0.0474442 0.0275291 0.0143044 0.0406788 -0.0176248 0.0842146 0.0759871 0.0620287 0.0449289 -0.0318637 0.0119716 0.0487752 0.10087 -0.0320954
internal_weight=606268 392418 213850 95279.9 118570 135485 256932 176451 6876.56 2709.66 75904.5 52439.2 59580.9 68983 66131 34277.7 6921.49 48736.5 15377.5 2195.69 4725.79 80481.9 34821.8 60458 37061.7 45208.3 34499 31853.3 10709.3 169574 18195.7 36241.5 10844.4 32518.5 21529.1 1734.9 26585.9 2990.89 36464.4 6716.34 3976.54 25073.2 3139.02 21934.2 10486 9919.31 1521.55 4128.06 13657.6 1960.06 16493.6 18070.6 12495 9183.29 6106.55 3258.64 1835.22 1220.73 417.806 8800.1 1488.93 24023.5
internal_count=95535 79166 16369 5309 11060 22176 56990 41314 2283 550 13338 5494 8838 11977 5566 2468 1361 7027 1496 311 1050 15676 1299 4010 3998 2980 2175 3098 805 39031 1656 4992 1811 6574 4232 273 2733 777 5403 780 404 1950 334 1616 1106 742 265 1031 1442 199 1917 1725 2035 662 494 306 205 409 111 877 141 4696
is_linear=0
shrinkage=0.05


Tree=3
num_leaves=63
num_cat=0
split_feature=19 21 19 19 19 23 2 17 23 24 27 15 14 2 19 19 26 22 16 17 16 26 2 19 17 26 26 23 15 24 2 2 19 26 16 23 14 26 8 17 26 2 2 24 26 2 24 26 26 24 23 8 2 23 26 8 23 20 12 23 2 17
split_gain=763353 77951.9 67438.7 15532.4 12017.4 10033.5 5645.38 4885.63 3884.89 3820.75 7626.36 5337.29 2737.96 2710.37 2247 2201.08 2081.18 2005.38 1837.37 1645.47 1615 1491.33 1481.15 1466.3 1289.54 1288.22 1185.16 1138.57 1069.3 1645.19 1142.69 1018.44 1014.68 1001.76 963.166 921.132 905.654 881.436 912.466 850.653 795.757 1914.5 1606.06 5536.92 844.69 743.409 1309.42 946.013 732.96 726.785 899.991 725.82 708.346 718.44 857.98 671.76 665.864 614.458 1057.4 612.195 606.701 586.948
threshold=9.1517858505249041 2.0016113519668584 37.446428298950202 93.901782989501967 17.723214149475101 4.3627820014953622 3.5000000000000004 0.76785713434219371 23.742011070251468 169.50000000000003 12.500000000000002 3.5000000000000004 4.5000000000000009 3.5000000000000004 5.3214285373687753 62.651784896850593 4.1677629947662362 62.408823013305671 157.50000000000003 3.2321428060531621 33.750000000000007 62.821546554565437 3.5000000000000004 5.6071429252624521 0.035714287311588704 4.1677629947662362 2.9013158082962041 1.5465225577354433 11.500000000000002 147.50000000000003 1.5000000000000002 3.5000000000000004 203.53571319580081 4.1677629947662362 39.750000000000007 30.752467155456547 63.500000000000007 1.4144736528396609 32.562500000000007 0.035714287311588704 24.078947067260746 1.5000000000000002 3.5000000000000004 145.50000000000003 54.772203445434577 1.5000000000000002 27.500000000000004 6.6685855388641366 22.856907844543461 148.50000000000003 21.826010704040531 17.750000000000004 1.0000000180025095e-35 8.7161655426025408 39.791118621826179 0.50000000000075007 33.337992668151863 0.50000000000075007 11.500000000000002 36.024435043334968 3.5000000000000004 3.3750000000000004
decision_type=2 2 2 2 2 2 2 2 2 2 2 2 2 2 2 2 2 2 2 2 2 2 2 2 2 2 2 2 2 2 2 2 2 2 2 2 2 2 2 2 2 2 2 2 2 2 2 2 2 2 2 2 2 2 2 2 2 2 2 2 2 2
left_child=1 7 4 15 12 19 8 9 14 24 -11 -12 20 25 39 16 26 40 -19 31 -2 37 52 49 -1 -6 -4 -9 29 -10 -31 -3 -5 -22 -25 -35 -23 -15 57 -7 -18 -42 43 -43 -44 46 47 -41 -47 50 -8 -51 -14 -54 -55 -24 -37 58 59 -39 -21 -52
right_child=2 5 3 32 13 6 23 27 28 10 11 -13 22 21 -16 -17 17 18 -20 60 33 36 55 34 -26 -27 -28 -29 -30 30 -32 -33 -34 35 -36 56 -38 38 -40 45 41 42 44 -45 -46 48 -48 -49 -50 51 61 -53 53 54 -56 -57 -58 -59 -60 -61 -62 -63
leaf_value=-0.070325378693685867 0.032282803464507341 -0.030349170168574635 0.091869198613544423 0.12819029873436308 0.10127257868005586 -0.056231247423343012 -0.02611433349826367 -0.051793810397069012 0.06169545118385461 -0.071411605874747305 0.094279385886527761 -0.044942031585795017 0.017641003294614283 0.079980786155214048 0.014955302774505439 0.10697288896903234 0.091183045238190305 0.0090046241341876134 0.099188924276778778 -0.013811756277602841 0.086205963681849962 0.035828193954616859 -0.027907971426970615 -0.0087412326550233999 -0.061263874813272973 0.069303962433893626 0.12994749438091621 -0.032954617793662849 0.09463007189104776 -0.024850682110709652 0.034163167292600986 -0.049582861269257143 0.14710489219439785 0.062681995929314019 0.052676153981955146 -0.030962048124417392 -0.065862276440340151 0.030482953141314745 0.061335036813081639 -0.010431791998667075 0.10207241659165903 -0.056725855658800173 0.081041949712848782 0.098527405947492139 0.030928051847711344 0.0046949875738622505 -0.022346812988800903 0.068234659717074375 -0.063194042761369834 -0.045053051048262988 0.045380849704525904 0.05412892820925598 0.022267140135861702 0.048278370892924673 -0.014509291417171711 0.017028485333385763 0.041036662385570619 0.048185179881408476 -0.0067211569667155763 0.092985494170628818 -0.029906871948181115 -0.012611706151793529
leaf_weight=93237.980948209763 7240.3040380477905 17382.955475091934 4399.6489946842194 15733.178672075272 3431.4474692344666 868.86915588378906 11194.125651597977 63371.967457532883 3042.9144330024719 4209.1147291660309 1613.2469372749329 1199.4804360866547 4942.2258322238922 2787.9349758625031 19971.431101322174 19226.92098903656 21102.493699073792 1698.4423475265503 845.30908918380737 14516.659333467484 3246.1197447776794 456.12918210029602 875.10509133338928 11686.606163263321 67980.849536418915 39230.66370677948 3842.8793222904205 9190.0844972133636 846.53096508979797 1339.4177765846252 2113.1428034305573 11402.996854543686 13080.088603973389 4562.8577227592468 674.23779463768005 484.04393577575684 419.27666640281677 1388.618757724762 9841.0406637191772 791.75395178794861 4730.4442524909973 1066.1007642745972 6511.9648613929749 1242.6421823501587 967.42623376846313 12080.291936397552 9425.1361477375031 737.35342502593994 410.10686206817627 5809.8857004642487 760.09328246116638 189.69827818870544 4603.502819776535 11857.036410570145 569.82678604125977 16442.819334030151 949.70836162567139 8237.0249378681183 1606.0191311836243 545.74199652671814 9815.8015766143799 1021.683180809021
leaf_count=22006 814 3160 187 689 135 316 1744 12779 212 1846 162 444 520 166 2415 1262 1605 132 74 1892 199 50 147 1784 16770 3120 81 1795 84 415 431 2365 298 416 78 46 54 181 901 230 193 149 432 112 95 1982 1704 115 97 2116 70 32 515 1082 96 1923 148 744 301 37 1429 158
internal_value=-7.365e-05 -0.0431604 0.0743595 0.106176 0.0500697 -0.0129114 -0.00204764 -0.0602546 0.00811387 -0.0649323 -0.0288221 0.0349139 0.0328691 0.0641887 0.00252878 0.0927383 0.0868387 0.0819124 0.0390008 -0.0298786 0.0499731 0.0512115 0.0256926 -0.0187885 -0.0665048 0.0718776 0.109636 -0.0494083 0.0417967 0.0348976 0.0112682 -0.0379697 0.136782 0.0638258 -0.00538715 0.0516985 -0.0128962 0.0535113 0.0500943 -0.00767873 0.0849756 0.0759475 0.0633126 0.0268431 0.0745649 -0.00587703 -0.0153837 0.0275219 0.00246105 -0.0275176 -0.0208611 -0.0419086 0.034311 0.0391474 0.0453983 0.0147563 0.0167248 0.0406972 0.0232671 0.0481558 -0.0203055 0.0121391
internal_weight=595049 376884 218165 94447.5 123717 136082 82963.3 240803 51626.9 168241 7021.84 2812.73 55773.6 67943.9 44284.9 65634.3 46407.4 38164.8 2543.75 53118.4 16483 25281.8 39290.5 31336.3 161219 42662.1 8242.53 72562.1 7342.01 6495.48 3452.56 28786 28813.3 9242.73 12360.8 5996.61 875.406 24406.4 21618.4 24313.5 35621.1 14518.6 9788.13 2308.74 7479.39 23444.6 10954.2 1529.11 12490.4 18975.5 12975.9 5999.58 21972.6 17030.4 12426.9 17317.9 1433.75 11777.4 3540.38 1934.36 24332.5 1781.78
internal_count=95535 78631 16904 5309 11595 22829 13983 55802 8001 41228 2452 606 5906 5689 6859 4322 3060 2792 206 8846 1623 2434 4283 5982 38776 3255 268 14574 1142 1058 846 5525 987 809 1862 610 104 2330 2164 4444 2586 981 788 261 527 4128 2049 345 2079 4120 1972 2148 2213 1693 1178 2070 194 1263 519 218 3321 228
is_linear=0
shrinkage=0.05


Tree=4
num_leaves=63
num_cat=0
split_feature=19 21 19 19 19 23 19 2 23 27 15 23 19 14 2 19 10 26 19 22 26 21 10 23 23 2 26 19 2 26 23 23 29 12 2 12 10 10 18 19 25 2 22 14 21 25 23 26 2 2 6 23 26 18 21 2 27 13 8 12 2 29
split_gain=696715 76179.2 63474.6 15889.1 10745.1 9313.36 4969.33 4449.28 3634.35 6934.11 4385.46 3002.15 2606.57 2463.47 2365.58 2303.25 2218.11 1995.24 1825.08 1809.42 1652.02 1617.9 1602.02 1580.53 1503.02 1373.37 1296.6 1234.26 1211.51 1211.28 1194.58 1185.34 1068.7 1057.87 1054.89 1049.32 1414.48 1015.79 1014.83 962.043 911.641 1380.66 1385.09 834.107 769.182 732.783 729.471 696.661 1748.81 1380.41 3820.54 1269.6 762.526 692.155 686.086 1038.68 680.983 699.311 642.713 642.286 602.548 602.014
threshold=9.1517858505249041 2.0016113519668584 37.446428298950202 99.285713195800795 18.008928298950199 5.5258457660675058 0.82142856717109691 3.5000000000000004 13.45277261734009 12.500000000000002 3.5000000000000004 23.742011070251468 3.1785713434219365 4.5000000000000009 3.5000000000000004 62.651784896850593 4.5000000000000009 4.1677629947662362 4.3214285373687753 62.408823013305671 24.517270088195804 3.1617875038136849e-06 9.5000000000000018 23.742011070251468 36.578006744384773 3.5000000000000004 62.821546554565437 3.7500000000000004 3.5000000000000004 2.9013158082962041 30.752467155456547 1.5465225577354433 0.8392857313156129 0.50000000000075007 3.5000000000000004 96.500000000000014 0.50000000000075007 34.500000000000007 14.662946224212648 203.53571319580081 1.6429706215858462 2.5000000000000004 25.586076736450199 63.500000000000007 12.467977523803713 1.2038351297378542 18.040883064270023 24.078947067260746 1.5000000000000002 3.5000000000000004 1.0000000180025095e-35 29.405779838562015 54.772203445434577 15.037946224212648 25.119647026062015 1.5000000000000002 38.500000000000007 16.500000000000004 0.50000000000075007 24.500000000000004 3.5000000000000004 0.55357143282890331
decision_type=2 2 2 2 2 2 2 2 2 2 2 2 2 2 2 2 2 2 2 2 2 2 2 2 2 2 2 2 2 2 2 2 2 2 2 2 2 2 2 2 2 2 2 2 2 2 2 2 2 2 2 2 2 2 2 2 2 2 2 2 2 2
left_child=1 6 4 15 13 12 8 11 21 -10 -11 18 28 22 16 17 40 29 59 47 30 -1 44 -22 -21 53 37 33 -3 -4 46 -8 -29 38 -14 36 61 56 -9 -5 41 -6 -43 -28 -2 -25 -18 -19 -49 50 51 -50 -51 -15 55 -20 -16 -58 -27 -7 -46 -13
right_child=2 5 3 39 14 7 31 27 9 10 -12 35 34 25 26 -17 20 19 54 24 23 -23 -24 45 -26 58 43 32 -30 -31 -32 -33 -34 -35 -36 -37 -38 -39 -40 -41 -42 42 -44 -45 60 -47 -48 48 49 52 -52 -53 -54 -55 -56 -57 57 -59 -60 -61 -62 -63
leaf_value=-0.070356380079463474 0.038960946063621389 -0.02837548310345437 0.087079700098321278 0.12523577734206712 0.084934197666694453 -0.0055905007839200001 -0.05061911472379408 -0.021470579206612737 -0.070629554727201324 0.092039539587504257 -0.038513679921387864 0.034892573322023966 -0.009452188843492625 0.026463930383187808 0.037135409201851731 0.10262329442223823 0.057720221714967192 0.086406274174274281 0.00011647905427725108 0.0094583584962237774 -0.061573210117722148 -0.060246199299745173 0.031861022354381666 -0.018331395869164716 0.090538416042539926 -0.027498127033887716 0.033903754777006322 -0.0093818391764625315 -0.048664227048610766 0.12573175376882759 0.0031352815631572844 -0.03081962683633201 0.077493019007366409 -0.041736603326578275 -0.026936918151780537 -0.029797656893148779 0.013474031909024145 0.065520842408403113 0.047507419849722232 0.14429741221418471 0.11427481324628348 0.076323035027401495 -0.044231199936049091 -0.065377775478403927 0.080224087561928142 0.054041878075706651 0.07457308458481815 0.09715937025678778 0.010395463873861545 0.076550629305090809 -0.057526218991693516 0.1102983992938834 0.029129299059918935 0.044767354922660707 0.070691196045669411 0.022808368717093075 0.07824186320460795 0.039390336375285898 0.016444930121104099 -0.039828502382477461 0.041394403177795601 0.073954908058505617
leaf_weight=86688.661350488663 2449.7595119476318 18991.762640714645 4409.3877837657928 14067.725794553757 9612.1554534435272 12878.99916934967 56535.975885868073 2384.361635684967 3774.1612386703491 1478.4077398777008 1137.3278179168701 1469.2884938716888 21546.012765884399 14892.516331911087 11602.529986619949 20553.132597208023 12923.058063745499 21154.495411157608 9272.1712489128113 1684.3527708053589 454.55166482925415 72944.781313180923 8375.6152210235596 430.36484336853027 864.38505172729492 874.21505165100098 455.79768896102905 15472.218181371689 12018.66429066658 3774.9741413593292 775.70073747634888 8732.7059504985809 361.29890370368958 6422.079404592514 14387.233664751053 507.5469696521759 2377.9798746109009 7864.6898629665375 685.75444674491882 12678.257227420807 2257.3041605949402 527.99490451812744 432.62856149673462 393.10378074645996 4823.7827796936035 1856.3331196308136 12820.791020154953 4721.4949519634247 482.46825981140137 6548.4659757614136 854.68772506713867 933.27927422523499 975.6518611907959 7913.9396131038666 517.76432919502258 11054.919352769852 2440.9021797180176 2210.8570530414581 16934.81206703186 1531.8855040073395 1264.5015530586243 3018.437406539917
leaf_count=21288 253 3570 187 613 632 2295 11973 607 1733 141 421 213 3104 1521 1242 1338 1201 1605 1226 126 98 18505 945 49 80 151 49 2450 2625 81 64 1741 39 1600 2378 139 502 662 77 298 50 33 88 53 330 230 740 193 104 432 93 64 95 747 48 1201 177 198 1964 467 118 288
internal_value=-9.69339e-05 -0.0422449 0.0706076 0.101697 0.0472245 -0.0123832 -0.0596612 0.000656435 -0.0642568 -0.0272755 0.0352817 0.0105176 -0.0256196 0.0313702 0.0608251 0.0886814 0.0680592 0.0825041 0.00444912 0.0777011 0.060454 -0.0657369 0.0474038 0.0234904 0.0369808 0.0246923 0.0486275 -0.015942 -0.0362401 0.104921 0.0642737 -0.0479705 -0.00739471 -0.0301971 -0.0164534 0.0395301 0.0446588 0.0507651 -0.0060529 0.134277 0.0853979 0.0792224 0.0220404 -0.0120937 0.0626455 0.0404189 0.0661157 0.0806096 0.0721566 0.0600952 0.0259091 0.0762842 0.0704062 0.032817 0.0139078 0.012458 0.0436219 0.0597892 0.0142864 -0.00923253 0.0721675 0.0611765
internal_weight=584481 366190 218291 93702.8 124588 134898 231292 67954.7 166023 6389.9 2615.74 42629 66943.7 57529.1 67058.8 66956.8 42090.9 46403.6 35255.7 38219.3 29260.8 159633 16913.7 2741.25 2548.74 40615.5 24967.9 25325.7 31010.4 8184.36 26519.5 65268.7 15833.5 9492.2 35933.2 7373.25 6865.71 24119 3070.12 26746 12830.1 10572.8 960.623 848.901 8538.04 2286.7 25743.8 35670.5 14516 9794.55 2270.44 1415.75 7524.12 22806.5 20844.9 20327.1 16254.3 4651.76 17809 14410.9 6088.28 4487.73
internal_count=95535 78631 16904 5309 11595 22829 55802 11152 42088 2295 562 6379 11677 6029 5566 4398 3185 3060 5237 2792 2382 39793 1646 377 206 4383 2381 4773 6195 268 2005 13714 2489 2284 5482 1142 1003 2279 684 911 803 753 121 102 701 279 1941 2586 981 788 261 168 527 2268 2475 2427 1617 375 2115 2762 448 501
is_linear=0
shrinkage=0.05


Tree=5
num_leaves=63
num_cat=0
split_feature=19 19 18 19 16 23 23 27 17 15 2 19 26 26 23 17 10 17 2 10 24 26 26 2 19 19 23 23 25 16 26 12 29 27 25 2 18 10 8 2 16 24 23 25 13 18 25 27 27 15 0 0 24 26 17 13 18 24 8 29 23 26
split_gain=636292 70381.3 58601.7 19747.7 9688.21 8195.11 5354.48 7101.03 5078.13 4328.27 3999.43 3082.18 2946.96 2511.29 2278.33 2144.28 2068.93 2048.91 2022.58 2139.4 1902.25 1483.71 1446.34 1798.02 1289.53 1279.55 1255.37 1207.53 1151.62 1262.55 1135.48 1217.61 2720.61 1100.74 1723.35 1021.5 1011.66 1050.07 981.273 891.331 1065.79 891.279 1187.04 866.47 823.483 741.439 724.385 700.01 1778.7 672.93 660.843 654.684 645.066 1010.81 641.893 640.567 823.344 636.537 591.875 588.303 583.359 570.282
threshold=7.5803573131561288 31.830357551574711 1.6495535969734194 93.901782989501967 33.750000000000007 4.3627820014953622 13.45277261734009 12.500000000000002 0.48214285075664526 3.5000000000000004 3.5000000000000004 53.589286804199226 41.168584823608406 62.821546554565437 23.742011070251468 11.437500000000002 4.5000000000000009 3.2321428060531621 3.5000000000000004 28.500000000000004 35.500000000000007 1.1644736528396609 6.8149669170379648 2.5000000000000004 203.53571319580081 2.6071428060531621 1.4656955003738406 28.074835777282718 1.4671308398246767 72.500000000000014 21.644737243652347 12.750000000000002 0.16071429103612903 38.500000000000007 1.4903597831726076 3.5000000000000004 35.468750000000007 0.50000000000075007 20.812500000000004 1.5000000000000002 27.500000000000004 153.50000000000003 20.973919868469242 1.589035212993622 70.500000000000014 1.3127537251689249e-12 1.4671308398246767 10.500000000000002 8.5000000000000018 5.5000000000000009 14.500000000000002 25.500000000000004 104.50000000000001 5.0855264663696298 16.147320747375492 0.50000000000075007 8.6093750000000018 89.500000000000014 0.50000000000075007 0.76785713434219371 9.1502580642700213 12.696546077728273
decision_type=2 2 2 2 2 2 2 2 2 2 2 2 2 2 2 2 2 2 2 2 2 2 2 2 2 2 2 2 2 2 2 2 2 2 2 2 2 2 2 2 2 2 2 2 2 2 2 2 2 2 2 2 2 2 2 2 2 2 2 2 2 2
left_child=2 4 6 11 15 17 8 -8 45 -9 14 13 18 16 25 50 22 35 19 27 -14 -20 -3 -24 -5 55 -10 47 -21 61 -18 -32 -33 -11 -35 -4 37 -16 -23 40 -27 42 -12 -22 -15 -1 60 48 -6 -45 -2 -50 53 -13 -17 56 -7 -55 -43 -44 -41 -30
right_child=1 3 5 24 12 10 7 9 26 33 41 52 20 44 36 54 30 -19 21 28 43 38 23 -25 -26 39 -28 -29 29 -31 31 32 -34 34 -36 -37 -38 -39 -40 46 -42 58 59 49 -46 -47 -48 -49 51 -51 -52 -53 -54 57 -56 -57 -58 -59 -60 -61 -62 -63
leaf_value=-0.070275348554374048 0.0037746987905037024 0.11924233750431482 -0.030640794935947003 0.11939524285902997 0.059976538764859401 -0.0089192834541342685 -0.070573523659272205 0.085734778030234562 -0.054068161965799694 -0.036320958733906547 -0.020363470389027544 0.10902565129569064 -0.07129407366233341 0.043854255969267335 0.053502080775155253 0.026385222574701352 0.075025943261527131 -0.018815162180971491 0.072319700648033933 0.050410193611576386 0.035605942720130977 0.020739410508828708 0.090222816519308593 0.023352436390740638 0.14119784521719095 -0.0076208742723278163 -0.036289424412094977 0.083478174867747723 0.057313852912212894 -0.052189106020516234 0.073205322537573253 0.055416533431883901 -0.033971354954978196 -0.07111730698171212 0.099226850586719081 -0.047763082959213332 -0.045603139878232862 0.0053527780092455877 0.045839959271717585 0.0089172069100237703 0.057241992014928272 -0.059478725788926802 0.0043096595829643682 -0.066550706051642899 -0.044186487790240314 -0.061822931019818977 -0.026277938591162404 0.065691705312838966 -0.071255067656514112 0.017434466751827495 0.019341792110440383 0.027527837868546342 0.095866424588463506 0.076586120548364278 0.041656884047601025 -0.02586004802790234 0.069188835332021026 0.026493087764234258 -0.026003196463473512 0.064489748699690971 0.03025776088735916 -0.0069150031339578772
leaf_weight=82315.04772734642 12151.343487977982 3580.7316288948059 21904.688963651657 15262.18877696991 2374.4834041595459 1818.2327847480774 3600.5417120456696 1729.5983560085297 74777.99547457695 1876.3427364826202 16241.685651063919 1372.9863059520721 530.0762403011322 498.95249319076538 3844.3152959346771 19465.503054141998 26497.645048618317 24798.041457414627 3228.4591073989868 8114.0569248199463 5154.3810007572174 6788.7110342979431 7804.3480417728424 1154.7946147918701 12318.108369350433 12383.425242185593 11459.601381063461 9217.001793384552 933.51668214797974 603.12785243988037 6199.7937853336334 6013.4762206077576 990.88401031494141 228.48040890693665 420.05812668800354 14473.42592716217 373.96440577507019 1605.3003334999084 9138.6181671619415 8874.0581510066986 666.45399689674377 2012.8199479579926 2273.0562589168549 388.93597960472107 565.61694717407227 38021.807035923004 1058.2742342948914 14731.734237194061 410.68318247795105 613.39575386047363 15531.888597249985 282.33087563514709 26505.632288455963 1546.0905179977417 10651.676889896393 5924.3531694412231 413.21176028251648 1077.3138265609741 3844.5406968593597 493.48371839523315 5010.5511548519135 548.09054088592529
leaf_count=21198 1687 64 4165 689 165 427 1736 174 16915 684 2514 30 133 41 426 1855 1893 3479 199 707 551 822 415 129 298 1947 2707 471 108 85 425 479 165 95 45 3139 128 368 921 1037 88 828 315 65 73 10806 291 1175 97 87 1731 30 1834 59 1021 1309 48 64 1300 52 658 88
internal_value=-0.000118751 0.0637665 -0.043446 0.0924373 0.0373415 -0.0166761 -0.0594275 -0.0189062 -0.0609682 0.0248258 -0.0045728 0.0803582 0.0508949 0.0731011 0.00484127 0.0225547 0.0746502 -0.0298992 0.0546178 0.0614137 0.0195073 0.0414124 0.0923624 0.0816071 0.129138 0.000165214 -0.0517061 0.0687805 0.0418946 0.00874267 0.0690536 0.0570638 0.0427681 -0.0169155 0.0391974 -0.0374542 0.0338618 0.0393223 0.0351433 0.00524294 -0.00430421 -0.0204629 -0.0152067 0.0273354 -0.00292029 -0.0676052 0.0135804 0.0611653 0.0394129 -0.0151882 0.0125091 -0.0310297 0.0930383 0.0742618 0.0317876 -0.0172614 0.00556904 0.0560331 -0.0375149 0.0150638 0.01662 0.0335651
internal_weight=574690 232247 342443 111389 120858 128014 214429 7855.02 206574 4254.48 66837.7 83808.3 63057.6 53306.2 41972.1 57800.4 52241.7 61176.2 56370.8 37215 6686.79 19155.8 12539.9 8959.14 27580.3 36148.6 86237.6 27016.2 10198.8 2084.74 39701.8 13204.2 7004.36 2524.88 648.539 36378.1 5823.58 5449.62 15927.3 27992.8 13049.9 24865.6 19008.2 6156.71 1064.57 120337 14942.9 17799.2 3067.5 1002.33 27683.2 693.014 30502 3996.39 30117.2 8155.8 2231.44 2623.4 5857.36 2766.54 13884.6 1481.61
internal_count=95535 18656 76879 6658 11998 22519 54360 2734 51626 998 11736 5671 5704 3684 6727 6294 3570 10783 4868 2926 836 1942 608 544 987 5805 19622 1938 988 281 2962 1069 644 824 140 7304 922 794 1743 4021 2035 5009 2881 703 114 32004 1986 1467 292 152 3418 127 1987 153 2876 1784 475 123 2128 367 1695 196
is_linear=0
shrinkage=0.05


Tree=6
num_leaves=63
num_cat=0
split_feature=19 19 18 19 16 23 23 27 17 2 15 19 26 17 26 17 23 10 2 10 24 26 2 26 19 29 24 27 23 22 2 19 2 26 12 29 29 27 2 23 24 23 8 13 19 17 17 18 26 2 26 24 22 22 24 24 26 24 27 15 8 24
split_gain=581165 69974.7 51894.5 19614.3 10080.8 8264.43 4607.26 4728.44 4200.28 3403.48 3369.69 3105.51 2650.35 2295.56 2227.24 2158.74 2153.7 1959.78 1837.63 1997.26 1761.47 1410.63 1629.1 1292.77 1189.27 1156.6 1352.9 1136.64 1136.12 1077.26 1068.29 1024.08 1048.5 1013.95 1084.84 2425.71 911.235 899.28 868.773 826.606 817.433 859.078 808.583 750.717 749.907 723.654 731.404 951.486 700.555 1353.28 1721.33 1717.14 679.312 654.921 629.34 622.087 946.048 612.088 1466.53 747.95 597.297 571.508
threshold=7.0089285373687753 31.830357551574711 1.433035731315613 99.285713195800795 33.750000000000007 4.3627820014953622 17.895676612854007 12.500000000000002 0.26785714924335485 3.5000000000000004 3.5000000000000004 53.589286804199226 41.168584823608406 11.437500000000002 62.821546554565437 3.1607142686843877 23.742011070251468 4.5000000000000009 3.5000000000000004 5.5000000000000009 35.500000000000007 6.8149669170379648 2.5000000000000004 1.1644736528396609 203.53571319580081 0.55357143282890331 180.50000000000003 38.500000000000007 1.6936090588569643 14.932188034057619 3.5000000000000004 1.964285731315613 1.5000000000000002 21.644737243652347 12.750000000000002 0.16071429103612903 0.55357143282890331 48.500000000000007 1.0000000180025095e-35 20.973919868469242 150.50000000000003 21.826010704040531 13.250000000000002 70.500000000000014 15.437500000000002 0.10714286193251611 1.2678571343421938 21.261160850524906 4.3301973342895517 1.5000000000000002 25.462170600891117 145.50000000000003 10.474654197692873 59.049100875854499 144.50000000000003 104.50000000000001 5.0855264663696298 171.50000000000003 12.500000000000002 3.5000000000000004 95.812500000000014 89.500000000000014
decision_type=2 2 2 2 2 2 2 2 2 2 2 2 2 2 2 2 2 2 2 2 2 2 2 2 2 2 2 2 2 2 2 2 2 2 2 2 2 2 2 2 2 2 2 2 2 2 2 2 2 2 2 2 2 2 2 2 2 2 2 2 2 2
left_child=2 4 6 11 13 15 8 -8 57 16 -9 14 18 39 17 30 31 21 19 48 -14 -3 -23 -20 -5 38 -27 -12 -10 40 -4 54 52 53 -35 -36 -18 42 -21 -2 41 -11 -25 -16 -22 -38 -47 -48 -6 -50 -51 -52 -33 -19 -7 56 -13 -1 -59 -60 -44 -58
right_child=1 3 5 24 12 9 7 10 28 29 27 55 20 -15 43 -17 36 33 23 25 44 22 -24 37 -26 26 -28 -29 -30 -31 -32 32 -34 34 35 -37 45 -39 -40 -41 -42 -43 60 -45 -46 46 47 -49 49 50 51 -53 -54 -55 -56 -57 61 58 59 -61 -62 -63
leaf_value=-0.06919452980858469 0.0080013300949038375 0.11455435897853428 -0.031453060777050616 0.11618951644762479 0.094512264899343834 -0.0070397566043028034 -0.07006892891295112 0.086886413289868403 -0.05536411603324716 -0.021028162891780958 -0.037593773584853649 0.10413745329230172 -0.071287970401473028 0.029863575146472029 0.041254563466685192 -0.019278548610751321 0.0087337707756275137 0.072173517455584785 0.067506768861271091 0.034091047169454179 -0.0084950942486708755 0.085467649888174069 0.02202457772815956 0.011940799185630076 0.13780495326992367 -0.0082528153019033462 0.086303736651370519 0.050144016424275684 -0.035798396949173777 0.079945039819654229 -0.047542243129409606 -0.010353858046908616 0.011415501397467239 0.069019004702374293 0.05212761006888568 -0.032887824540152731 -0.011850956209251223 0.071748140169292332 0.058025046238019379 0.031134453425690524 -0.038649640235867117 0.013388604904489102 0.034604774415760084 -0.043104799651833225 0.034391276864813608 0.11328411325379778 0.022039223749549582 0.090140828791453229 0.082845005179889186 0.063467765875487067 -0.064809440564717033 0.051607702560974002 0.053433854340368271 0.027236417834411691 -0.040330624233287093 0.091463424058852674 0.072263094893256663 -0.071385896562886395 0.048125191535379391 -0.047085252674270509 0.091641291684410389 0.024970922188801228
leaf_weight=93112.30690073967 29708.179352283478 3541.9919216632843 26049.140379190445 13702.578197002411 2775.6162648200989 3509.6288237571716 2311.2705694437027 1273.2149052619934 87019.728662252426 14621.922252416611 1554.0585978031158 1365.810661315918 507.02265238761902 30619.937418460846 503.80990934371948 24642.826993465424 2371.1474440097809 25846.086063146591 3288.4012937545776 5066.9895777702332 1283.8458371162415 7826.172779083252 1163.0389013290405 4540.6385650634766 11998.670042037964 1653.1302769184113 489.48384428024292 483.10477662086487 8118.9927353858948 259.36325263977051 17096.936795711517 12170.261347293854 14936.782829046249 6245.9220683574677 6071.7807269096375 972.85404515266418 413.07341313362122 1377.0950903892517 15127.646724939346 4437.8506100177765 5730.3902213573456 2069.0917513370514 9760.0669949054718 551.21642112731934 4939.5687575340271 507.09737181663513 1416.5400459766388 803.83844947814941 6393.5799827575684 4896.9876790046692 583.99766993522644 689.75238800048828 431.2226185798645 838.71136426925659 2383.5197856426239 27917.970135688782 1556.4490089416504 1672.7147870063782 503.48501515388489 347.97967195510864 481.13306951522827 1085.6752862930298
leaf_count=25718 3571 64 5203 613 88 539 1168 117 21326 2324 592 30 134 2912 41 3532 503 1834 203 496 217 415 129 560 298 198 48 95 2042 27 3876 2026 2071 425 479 165 109 114 1130 679 2160 271 1055 73 492 29 194 43 405 396 85 96 61 59 866 1910 59 852 82 147 25 64
internal_value=-0.000140044 0.0589352 -0.043622 0.0879842 0.0338228 -0.0190392 -0.0598202 -0.0152049 -0.0611348 -0.00578668 0.0231101 0.0764677 0.0479201 0.0199232 0.0691066 -0.0310862 0.00318085 0.0705519 0.0514166 0.0578604 0.01824 0.0878116 0.0772626 0.0389301 0.126286 0.0483159 0.013379 -0.0167727 -0.0536948 -0.0211835 -0.0378295 -0.00159381 0.00245461 0.0651394 0.0538453 0.0403841 0.0321368 0.0331109 0.0520218 0.0110087 -0.0223568 -0.0167612 0.0295068 -0.0028195 0.0255442 0.0497979 0.0591354 0.0467234 0.0717546 0.06672 0.050002 -0.001777 -0.00816698 0.0707622 -0.020509 0.0888148 0.0703473 -0.0685355 -0.0442079 0.00920465 0.037293 0.0528471
internal_weight=565619 239810 325810 111189 128621 129413 196397 5621.65 190775 61623.9 3310.38 85487.5 63855 64766 53561.6 67788.9 38943.1 52506.6 57124.5 37677.2 6730.44 12531.2 8989.21 19447.3 25701.2 22337.3 2142.61 2037.16 95138.7 22680.8 43146.1 33431.4 27538.3 39975.4 13290.6 7044.63 5511.7 16158.9 20194.6 34146 22421.4 16691 14781.8 1055.03 6223.41 3140.55 2727.48 2220.38 15339.9 12564.3 6170.74 1273.75 12601.5 26684.8 5893.15 31925.9 4007.93 95636.5 2524.18 851.465 10241.2 2642.12
internal_count=95535 19562 75973 6658 12904 23834 52139 1972 50167 11223 804 5747 5742 7162 3684 12611 6441 3570 4899 2942 843 608 544 1957 911 1872 246 687 23368 4782 9079 5563 4158 2962 1069 644 878 1754 1626 4250 4755 2595 1640 114 709 375 266 237 1070 982 577 181 2087 1893 1405 2063 153 26799 1081 229 1080 123
is_linear=0
shrinkage=0.05


Tree=7
num_leaves=63
num_cat=0
split_feature=19 19 21 19 19 21 2 23 23 27 27 19 23 26 19 14 2 10 26 19 25 10 26 24 19 29 12 10 2 26 21 2 8 26 2 14 10 27 23 10 24 27 26 26 15 21 2 23 26 18 24 23 24 24 27 2 21 19 21 20 8 19
split_gain=530588 65067.9 52961.2 18041.1 10616.4 5390.37 4773.32 3948.75 3572.95 6404.46 2832.38 2449.24 2268.99 2090.3 2081.36 1858.25 1828.21 2203.15 1770.26 1656.78 1305.55 1301.23 1282.53 1832.31 1254.62 1247.28 1131.43 1426.44 1080.22 1077.45 1051.26 1006.25 947.693 1206.27 850.643 848.328 818.419 813.333 798.353 780.24 765.637 762.004 998.995 750.106 712.571 748.722 706.717 693.594 688.812 683.779 677.691 668.347 879.347 664.553 658.452 637.226 636.4 634.449 619.666 600.506 593.654 561.863
threshold=6.8660714626312265 33.875000000000007 2.0016113519668584 99.285713195800795 14.866071224212648 0.83323410153388988 3.5000000000000004 19.213346481323246 13.45277261734009 12.500000000000002 13.500000000000002 50.669643402099616 11.703947544097902 4.1677629947662362 3.6071428060531621 5.5000000000000009 3.5000000000000004 4.5000000000000009 62.821546554565437 2.5446428060531621 1.6429706215858462 196.00000000000003 25.462170600891117 145.50000000000003 1.8214285373687746 0.87500000000000011 34.500000000000007 0.50000000000075007 1.5000000000000002 17.75657939910889 3.1617875038136849e-06 3.5000000000000004 112.50000000000001 62.821546554565437 1.0000000180025095e-35 4.5000000000000009 86.500000000000014 11.500000000000002 30.752467155456547 8.5000000000000018 104.50000000000001 48.500000000000007 1.1644736528396609 7.4671051502227792 11.500000000000002 26.037060737609867 3.5000000000000004 7.5743796825408944 5.0855264663696298 19.430803298950199 104.50000000000001 21.826010704040531 147.50000000000003 159.50000000000003 24.500000000000004 2.5000000000000004 4.3491013050079355 24.419643402099613 19.012227058410648 11.500000000000002 13.250000000000002 1.6785714626312258
decision_type=2 2 2 2 2 2 2 2 2 2 2 2 2 2 2 2 2 2 2 2 2 2 2 2 2 2 2 2 2 2 2 2 2 2 2 2 2 2 2 2 2 2 2 2 2 2 2 2 2 2 2 2 2 2 2 2 2 2 2 2 2 2
left_child=2 4 5 11 12 8 7 14 30 -10 -11 13 43 20 34 39 17 35 36 51 -3 -5 29 -24 46 -21 27 44 -16 38 -1 -17 33 41 -4 60 -15 -37 57 -14 48 42 49 47 45 -9 -7 -2 -13 -18 -38 -8 -53 -28 -50 -39 -30 -19 -33 -44 -6 -36
right_child=1 3 6 21 16 24 19 26 9 10 -12 40 15 18 28 31 32 22 -20 25 -22 -23 23 -25 -26 -27 53 -29 56 -31 -32 58 -34 -35 61 37 50 55 -40 -41 -42 -43 59 -45 -46 -47 -48 -49 54 -51 -52 52 -54 -55 -56 -57 -58 -59 -60 -61 -62 -63
leaf_value=-0.070112956957200753 0.009106257317109635 0.072715593647415741 -0.035918322646569849 0.11142497864399517 0.088689721379948849 -0.046766734749789665 -0.047526442740094904 0.023138990058665862 -0.070443524471094601 0.077768490608588051 -0.040981701701647583 0.093460557963893048 0.05173073956844676 0.064328708040812019 -0.012252748336861097 0.027629398843005245 0.024825373963782101 0.03617186600509089 -0.011525293148163591 -0.022553287074813046 0.11590666946175088 0.13422521634135462 -0.036349042150029376 0.047095316165231896 -0.034804812471952211 0.080987217413977658 0.0097587133550865179 0.0023162595418010847 -0.0021060891802654512 0.060904030184707095 -0.060073541821628718 0.0087767040915024078 0.098106266680409324 -0.023861935092958739 -0.027749479665741084 0.012821717014915995 0.010639786249703584 0.069960789272239962 -0.010629009244337247 0.02787394099638716 0.086297801372525018 0.065216992144535094 0.026363795338792618 -0.0028892940317436326 0.095762222032283018 0.067084926980243084 -0.056955167890522719 0.031297754660371359 0.021693679539627454 0.080154293955165684 0.066600060618163939 0.012300376605496165 -0.056028203885149057 -0.055381953017245578 0.067630473038787775 0.025119592200742832 0.018292206413850008 0.055745029951528115 -0.034667705385630465 0.048353669970069353 0.048736599655473785 -0.011044137061293263
leaf_weight=74942.719443321228 17214.109229326248 4385.0564067363739 6949.4017264842987 13636.741148471832 5389.2740747928619 40871.921456098557 11359.705458521843 2402.4349613189697 3256.8410278558731 1530.6136486530304 746.29677271842957 1570.4987859725952 7662.8100521564484 33616.47994017601 13324.863751649857 9748.716873884201 811.97444343566895 12213.500257015228 828.82913494110107 27804.926382064819 2921.7934799194336 11660.894829750061 1141.3078904151917 1550.4130795001984 14394.508906841278 292.97914361953735 1177.7108206748962 2509.7235341072083 8394.4954135417938 10211.195158481598 40091.674278974533 7408.0307717323303 593.85807108879089 862.7477171421051 7187.6003794670105 916.37782192230225 1345.3603751659393 5319.2358803749084 725.81786561012268 6208.4358296394348 30261.866719961166 2083.525999546051 17900.294597148895 10039.979889392853 693.48075151443481 1625.6393368244171 29238.406672477722 4425.983654499054 1112.2919485569 1795.5703990459442 904.44872283935547 1145.0065598487854 798.41244721412659 585.34475541114807 2620.8469438552856 932.66002321243286 7021.0894958972931 6272.9569206237793 922.05333566665649 3757.8191909790039 1128.6885235309601 16797.765987873077
leaf_count=21294 1925 210 1491 612 238 9518 2952 390 1733 152 301 44 709 2418 1989 1042 70 1031 92 5121 44 299 157 224 3181 34 173 607 1095 596 12378 1038 26 113 1658 94 104 395 65 731 2101 162 1871 1308 64 117 7159 412 69 95 92 129 340 220 104 117 822 559 163 335 96 2856
internal_value=-0.000159707 0.0555049 -0.0429229 0.0851582 0.0328459 -0.0579396 -0.0149449 -0.00685998 -0.0647267 -0.0254768 0.0388452 0.0734625 0.0178883 0.0655715 -0.0115149 0.0272899 0.0457757 0.0519162 0.0607049 -0.0283545 0.0899999 0.12194 0.0447545 0.011714 -0.0482554 -0.0214708 0.024022 0.0327776 -0.001827 0.0477766 -0.0666146 0.0167262 0.0356596 0.0342932 -0.0205152 0.0687168 0.0623743 0.0568291 0.0407967 0.0410558 0.0832233 0.0361982 0.033704 0.00840592 0.0489652 0.0408868 -0.0510164 0.0136463 0.0656673 0.0629413 0.033156 -0.042891 -0.0157853 -0.0118875 0.053953 0.0632765 0.00718498 0.0428162 0.00396428 0.0301812 0.0817797 -0.0160511
internal_weight=557246 242102 315144 104865 137237 205073 110071 68669.6 120568 5533.75 2276.91 79567.5 63630.1 44002 59675.2 31950 73607.2 45801.4 36695.1 41401 7306.85 25297.6 32115.2 2691.72 84504.8 28097.9 8994.33 7231.28 28740.4 29423.5 115034 18078.8 27805.8 27211.9 30934.8 13686.2 35866.3 7168.27 19212.3 13871.2 35565.5 26349.2 24265.7 31680.1 4721.56 4028.07 70110.3 21640.1 5303.64 2607.54 2249.81 13303.1 1943.42 1763.06 3733.14 6251.9 15415.6 18486.5 8330.08 21658.1 6517.96 23985.4
internal_count=95535 19761 75774 6189 13572 55716 20058 11482 35858 2186 453 5278 7328 2960 9911 3683 6244 3572 2706 8576 254 911 2632 381 19858 5155 1571 1178 3906 2251 33672 2243 2672 2646 6005 940 2614 606 1655 1440 2318 2533 2371 3645 571 507 16677 2337 217 165 196 3421 469 393 173 512 1917 1590 1201 2206 334 4514
is_linear=0
shrinkage=0.05


Tree=8
num_leaves=63
num_cat=0
split_feature=16 21 17 16 16 17 17 17 24 0 2 2 9 14 17 23 0 17 17 10 23 2 2 2 29 12 2 29 10 17 25 2 21 17 20 2 0 23 2 14 2 8 10 10 25 17 23 10 25 17 20 13 2 2 24 13 14 12 22 2 24 12
split_gain=483049 56543.7 51341.3 18612.2 7418.32 6319.12 5674.41 3881.63 3408.59 5323.55 2809.2 2391.58 2337.4 1791.24 1786.71 1675.29 1635.98 1839.83 1601.89 1447.58 1315.99 1174 1105.07 1085.14 1152.94 1018.6 998.556 1157.18 997.385 993.674 958.341 935.58 920.186 895.356 865.133 762.185 736.872 735.339 687.384 684.768 659.598 1220.23 711.583 675.861 649.368 646.557 641.411 636.026 609.901 609.165 574.685 692.207 574.165 566.573 983.73 539.761 524.632 521.037 518.521 540.241 512.712 502.008
threshold=17.750000000000004 2.0016113519668584 54.321428298950202 33.750000000000007 175.31250000000003 0.76785713434219371 5.3035714626312265 27.660714149475101 169.50000000000003 25.500000000000004 3.5000000000000004 3.5000000000000004 15.500000000000002 17.750000000000004 0.035714287311588704 11.703947544097902 9.5000000000000018 0.98214286565780651 10.223214149475099 0.50000000000075007 1.5465225577354433 1.0000000180025095e-35 3.5000000000000004 3.5000000000000004 0.87500000000000011 90.125000000000014 1.5000000000000002 0.16071429103612903 13.250000000000002 3.0892857313156132 1.6429706215858462 3.5000000000000004 45.383571624755866 22.866071701049808 187.50000000000003 1.5000000000000002 27.500000000000004 33.337992668151863 1.0000000180025095e-35 50.500000000000007 3.5000000000000004 1.5000000000000002 80.812500000000014 34.500000000000007 1.6429706215858462 2.4464285373687749 23.057565689086918 9.5000000000000018 1.6429706215858462 6.185357093811036 70.500000000000014 24.500000000000004 4.5000000000000009 1.5000000000000002 27.500000000000004 0.50000000000075007 16.500000000000004 61.500000000000007 2.0368621349334721 1.5000000000000002 35.500000000000007 0.50000000000075007
decision_type=2 2 2 2 2 2 2 2 2 2 2 2 2 2 2 2 2 2 2 2 2 2 2 2 2 2 2 2 2 2 2 2 2 2 2 2 2 2 2 2 2 2 2 2 2 2 2 2 2 2 2 2 2 2 2 2 2 2 2 2 2 2
left_child=1 5 3 18 50 8 10 13 14 55 15 37 28 19 -1 21 17 -17 22 23 -7 -3 47 -5 -25 40 -27 -28 32 -12 33 38 -9 35 -6 -15 -24 -11 -8 -32 42 -42 -14 -43 60 -23 -40 56 -21 -22 51 -4 53 -20 -55 -10 -2 -37 61 -60 -30 -18
right_child=2 6 4 7 34 20 31 12 9 11 29 -13 25 30 -16 16 58 -19 52 48 49 45 36 24 -26 26 27 -29 44 -31 39 -33 -34 -35 -36 57 -38 -39 46 -41 41 43 -44 -45 -46 -47 -48 -49 -50 -51 -52 -53 -54 54 -56 -57 -58 -59 59 -61 -62 -63
leaf_value=-0.069881121629424531 0.027870412126123491 -0.03245561803564509 0.090094791953338374 0.070788330465193894 0.11345648901898285 -0.046747081160830567 -0.0066018684263979693 0.06882545771420949 -0.067771396566445222 0.039415770954855281 -0.041366268059366801 -0.067346316774887602 0.061896756231312106 0.047136549386667559 -0.058020472165748606 0.11080884836287526 0.015432471694389719 0.014730161486667646 0.019160372962904126 0.044078404102048531 -0.030997374444574982 -0.022845940201686125 -0.012510042895741959 0.010088778128607296 0.097024726899687261 0.075474112938978613 0.041507185584644328 -0.047861576252942212 0.049191851401581416 -0.023420389091544175 0.01941504496118605 -0.0066244186406985289 0.098066290297198697 0.046071054136919726 0.13491652101581147 0.019446995193364715 0.03131770192378678 0.10926840066644881 0.011423603021555803 -0.065512255355193422 -0.020715216595753969 0.038963448284118712 0.012649934896037 0.059269904556192424 0.029476481902707009 -0.007719863649817563 0.041373917118388184 0.0019579219793034257 0.007505613103805377 0.0078504045003411765 0.098968577473749153 0.073720513618948116 0.014038759228952695 -0.026696516365621866 0.036652759337977077 0.013805491728173408 -0.015563344517464647 -0.03513280321758902 -0.018283333080974493 0.019148477680148532 0.071763695600762997 -0.043318476516152012
leaf_weight=73175.553675055504 8248.1560964584351 9513.6330140829086 10527.524127244949 9615.4849002361298 12586.974844455719 54298.944333672523 4694.5664856433868 5331.217095375061 3485.0198558568954 1270.0192272663116 14926.417847394943 460.51526343822479 22225.036868333817 2664.2264683246613 56183.473370313644 691.3775315284729 488.32969808578491 1778.6903085708618 10101.892061471939 22958.392640352249 7537.0172550678253 10326.943827629089 7241.9476325511932 1586.3947997093201 501.1878342628479 548.9688777923584 715.56308197975159 731.49122333526611 3217.9345247745514 15974.117422103882 534.97731471061707 13064.917375802994 5463.1982944011688 7697.3267502784729 7572.1445007324219 7907.8829514980316 1104.4291722774506 535.98894071578979 14882.667618751526 425.14412784576416 634.48635959625244 7609.4365649223328 759.15118169784546 8904.6825926303864 1259.266229391098 22365.265099048615 2030.9481954574585 4989.9891657829285 1199.9770290851593 1164.6794710159302 4713.4316892623901 16838.741238594055 9280.171459197998 636.79433250427246 15841.092720508575 214.96750330924988 758.60829305648804 461.95699071884155 1657.5931906700134 2300.5576131343842 11703.072031736374 1417.5698964595795
leaf_count=22006 938 1810 577 616 515 12779 685 303 1880 269 3855 193 1594 212 16770 46 104 390 1009 1944 1688 2199 1194 178 40 35 88 109 223 2905 75 2010 146 676 171 919 143 45 1786 56 96 647 75 692 80 3193 271 689 128 182 262 1257 1017 162 1338 65 137 84 408 416 695 460
internal_value=-0.000178299 -0.0407126 0.0540355 0.0415464 0.0977513 -0.056936 -0.0130021 0.0524463 -0.063026 -0.0260709 -0.0202141 0.0342633 0.0603578 0.0426041 -0.0647303 -0.0129526 0.00753255 0.0416568 0.0182009 0.0492577 -0.043854 -0.0169977 0.00769183 0.0636936 0.0309969 0.0529965 0.0181233 -0.0036709 0.0718524 -0.0320902 0.030485 0.00393784 0.0836323 0.0329824 0.121524 0.0238484 -0.00670751 0.0601957 0.0103241 -0.01822 0.0547304 0.0473016 0.0602708 0.0499159 0.0639888 -0.0124985 0.0150222 0.0162781 0.0422622 -0.0257975 0.0828093 0.0800226 0.0247484 0.0284869 0.0342031 -0.0630294 0.0242108 0.0164307 -0.00684598 0.00347214 0.0668994 -0.0282651
internal_weight=549538 314440 235098 182860 52238.8 198326 116114 124656 135326 5966.51 81440.5 2266.52 69103.5 55553 129359 50540 8334.12 2470.07 58203.1 35861.4 63000.6 42205.8 22343.1 11703.1 2087.58 42128.8 1996.02 1447.05 26974.7 30900.5 19691.5 34673.1 10794.4 18731.4 20159.1 11034.1 8346.38 1806.01 21608.2 960.121 40132.8 17148.6 22984.2 16514.1 16180.3 32692.2 16913.6 13996.8 24158.4 8701.7 32079.7 27366.3 35860 26579.8 16477.9 3699.99 9006.76 8369.84 5864.05 3958.15 14921 1905.9
internal_count=95535 76415 19120 16338 2782 55877 20538 9711 41228 2452 15786 507 4783 4928 38776 9026 1824 436 6627 2906 14649 7202 3101 834 218 3336 232 197 1447 6760 2022 4752 449 1891 686 1215 1337 314 2742 131 3104 1435 1669 1339 998 5392 2057 1764 2072 1870 2096 1834 3526 2509 1500 1945 1075 1003 1388 824 918 564
is_linear=0
shrinkage=0.05


Tree=9
num_leaves=63
num_cat=0
split_feature=19 19 21 19 19 23 17 23 27 27 2 19 23 26 23 2 10 8 17 21 25 26 26 24 2 2 2 16 8 26 29 24 26 10 12 25 2 25 21 2 21 2 13 10 26 24 8 19 2 25 23 16 10 29 12 24 26 21 25 11 15 23
split_gain=442542 56748.9 47109.1 16907.2 9441.17 4889.51 4738.56 3428.64 5565.75 2653.29 2621.12 2088.09 1936.49 1730.95 1719.44 1689.38 1895.71 1474.82 1436.24 1425.43 1424.87 1232.71 1195.03 1645.65 1161.95 970.264 1041.06 903.812 887.97 1108.79 870.683 862.409 2170.71 1759.2 859.178 834.452 1317.78 2233.69 803.12 798.669 1088.53 796.71 748.006 743.2 741.248 709.042 725.999 691.504 674.432 662.817 660.73 628.294 587.456 586.847 579.634 578.878 681.214 587.143 570.828 599.548 557.897 743.776
threshold=6.4375000000000009 33.875000000000007 1.7919204235076907 99.285713195800795 14.017857074737551 4.3853383064270028 0.62500000000000011 13.45277261734009 12.500000000000002 16.500000000000004 3.5000000000000004 59.464284896850593 23.742011070251468 4.1677629947662362 20.267857551574711 3.5000000000000004 4.5000000000000009 186.62500000000003 2.3616071939468388 3.1617875038136849e-06 1.6429706215858462 47.363487243652351 25.462170600891117 145.50000000000003 1.5000000000000002 3.5000000000000004 1.5000000000000002 36.500000000000007 112.50000000000001 62.821546554565437 0.55357143282890331 104.50000000000001 41.168584823608406 91.625000000000014 24.500000000000004 1.6429706215858462 1.5000000000000002 1.4671308398246767 15.356542587280275 1.5000000000000002 16.90429782867432 3.5000000000000004 26.345000267028812 15.500000000000002 16.052632331848148 150.50000000000003 0.50000000000075007 1.3928571343421938 3.5000000000000004 1.3913584351539614 21.826010704040531 72.500000000000014 0.50000000000075007 0.33928571641445165 23.500000000000004 27.500000000000004 7.8815791606903085 7.2458252906799325 1.4110719561576845 138.50000000000003 11.500000000000002 44.680099487304695
decision_type=2 2 2 2 2 2 2 2 2 2 2 2 2 2 2 2 2 2 2 2 2 2 2 2 2 2 2 2 2 2 2 2 2 2 2 2 2 2 2 2 2 2 2 2 2 2 2 2 2 2 2 2 2 2 2 2 2 2 2 2 2 2
left_child=2 4 6 11 14 18 7 19 -9 49 12 13 34 20 25 16 35 -5 41 -1 -3 42 24 -24 44 26 -2 45 29 43 -14 32 33 -15 39 36 -6 -38 -26 40 -7 -4 52 -17 -18 50 -47 -8 -20 -10 -12 -31 -16 -39 -33 56 -28 -57 -34 -60 61 -32
right_child=1 3 5 17 15 10 47 8 9 -11 27 -13 30 31 21 28 22 -19 48 -21 -22 -23 23 -25 38 -27 55 -29 -30 51 60 54 58 -35 -36 -37 37 53 -40 -41 -42 -43 -44 -45 -46 46 -48 -49 -50 -51 -52 -53 -54 -55 -56 57 -58 -59 59 -61 -62 -63
leaf_value=-0.069928249038525972 0.0049340661506921939 0.065234569840208367 -0.029124990225547067 0.10165189990515258 0.069346225293332772 -0.01297584263633208 -0.050199863335666978 -0.070305214644392877 0.091785629412200601 -0.045783288465619916 -0.019535517031893376 0.077567910648312921 0.0052375856335708151 0.057491847753644201 0.054919026666704285 0.021466914070781429 0.02398888757077779 0.12622080414654052 -0.015068888513648231 -0.058411325835269257 0.10757099273633786 -0.0085770556608957809 -0.036408745926961694 0.040335363767134438 0.042581989249485724 0.00047350341989547788 0.0323502509827365 0.07452452496225391 0.090971431979799955 0.019421078906642335 0.05281301731065996 0.070682770282881363 0.025137606180963126 -0.0057059930856384758 -0.037764674018055895 0.088058968014728567 0.053592071193536255 0.038059478192556034 0.065798558619158648 0.0075483360020209295 0.056050661100349952 -0.049200723097502445 0.0052618891370848075 0.037778219626040756 0.045507974487742506 -0.059441619797300331 -0.022423039590837371 -0.039072996948369042 -0.028965846904715473 0.026553328276632138 0.012343067527874868 -0.064081167800232638 0.030872099477999716 -0.043965876161709577 0.055753311148562995 0.018611739547067647 -0.057017908796183542 0.039284153317475617 -0.069863577998353368 0.012637495174655395 0.088186617694928249 -0.0026380387473763835
leaf_weight=67996.312051534653 13691.150606870651 5395.8192629814148 12712.819756150246 13444.272834300995 7185.0702745914459 11884.495338559151 42852.0057066679 2975.8342926502228 1033.0464580059052 755.62111175060272 11802.436574816704 25023.441380500793 2259.0258586406708 17698.253468990326 3751.723555803299 12042.621633052826 9991.4460535049438 11263.087184906006 22386.327273845673 44502.998373508453 3154.0668067932129 1962.0642626285553 1202.8202350139618 1663.2941403388977 9641.5862634181976 18785.314543485641 392.12456059455872 248.23204970359802 592.95092701911926 420.14608001708984 1965.1194543838501 11710.317716598511 792.99905300140381 1174.0335960388184 1626.7480170726776 2298.7088134288788 4262.4664039611816 287.23654556274414 6081.8756594657898 14661.390875220299 599.00356841087341 8092.4563235044479 1963.0934517383575 16640.412710428238 6680.4351260662079 2106.2869670391083 3571.1823979616165 20749.81059885025 14316.544917583466 626.37935507297516 1884.3034672737122 483.77620840072632 7881.5856127738953 896.02826857566833 14701.828456401825 9502.7591409683228 465.15141558647156 5381.6708250045776 493.86613512039185 396.30421590805054 617.92781734466553 873.22247338294983
leaf_count=21288 1608 251 2761 610 421 2316 10745 1733 73 328 2053 1580 477 757 303 1216 964 301 3333 14344 48 352 164 240 720 2400 74 27 26 53 148 951 40 88 510 59 331 40 335 2323 71 2088 250 1534 432 979 1295 5044 2484 123 249 69 1019 187 1448 913 150 413 82 33 54 227
internal_value=-0.000195589 0.048761 -0.0418524 0.0766735 0.0283805 -0.01629 -0.0575716 -0.0635063 -0.0245476 0.0318409 -0.0054998 0.0655724 0.00279983 0.0601644 0.0140155 0.0397793 0.045401 0.112857 -0.0264404 -0.0653729 0.0808633 0.0284679 0.0390759 0.00812675 0.0418137 0.00935162 0.0150178 -0.0200934 0.0304288 0.0292124 0.0293807 0.0563948 0.0487081 0.0535603 -0.00248112 0.0603366 0.0552848 0.0367229 0.0515658 -0.000365325 -0.00965948 -0.0369357 0.033814 0.0309309 0.0326138 -0.0213102 -0.0361646 -0.0465704 -0.0204903 0.0671934 -0.0151461 -0.0252905 0.0386312 -0.024039 0.062375 0.0237871 -0.0161502 0.0260883 -0.00569596 -0.0331611 0.0451546 0.0357585
internal_weight=542495 249396 293100 105248 144148 111608 181492 117890 5390.88 2415.05 54099.4 80540.9 34486.9 55517.5 63776.6 80370.9 50191 24707.4 57508.1 112499 8549.89 15558.5 35261.5 2866.11 32395.3 48218.2 29432.9 19612.4 30179.9 29587 5715.3 46967.6 20555.5 18872.3 28771.6 14929.5 12630.8 5445.73 15723.5 27144.9 12483.5 20805.3 13596.4 28683 16671.9 19364.2 5677.47 63601.8 36702.9 1659.43 13686.7 903.922 11633.3 1183.26 26412.1 15741.7 857.276 14884.4 1683.17 890.17 3456.27 2838.34
internal_count=95535 20462 75073 6189 14273 21395 53678 37889 2257 524 10729 5278 6126 3698 7482 6791 3893 911 10666 35632 299 1924 2855 404 2451 5558 3158 4603 2898 2872 906 3399 1000 845 5220 1038 979 558 1055 4710 2387 4849 1572 2750 1396 4576 2274 15789 5817 196 2302 122 1322 227 2399 1550 224 1326 155 115 429 375
is_linear=0
shrinkage=0.05


Tree=10
num_leaves=63
num_cat=0
split_feature=19 19 21 19 19 23 21 24 27 2 23 2 23 26 19 2 2 10 19 19 26 26 26 24 2 23 0 17 24 26 10 2 2 16 26 26 17 21 28 10 27 25 2 26 17 16 0 28 10 24 19 12 17 0 23 23 2 24 25 26 24 2
split_gain=403766 51296.9 46147 14120.5 10489 5085.49 4312.97 3505.94 6749.56 2372.71 2256.73 2025.47 1827.39 1702.86 1543.89 1513.24 1507.82 1689.6 1482.01 1458.46 1469.22 1171.14 1095.76 1295.53 1031.86 1018.81 945.663 1155.21 905.479 1792.34 1718.05 900.883 885.798 817.887 817.286 815.817 808.622 780.025 764.151 763.756 752.715 746.686 1084.23 1235.2 730.13 719.438 718.044 694.024 682.37 671.607 641.879 641.529 632.753 629.077 622.654 614.561 613.98 1088.44 863.009 810.258 673.141 604.367
threshold=6.4375000000000009 37.446428298950202 1.6885468363761904 99.285713195800795 16.794643402099613 4.3627820014953622 0.6580542027950288 170.50000000000003 12.500000000000002 3.5000000000000004 10.585996150970461 3.5000000000000004 23.742011070251468 4.1677629947662362 203.53571319580081 3.5000000000000004 3.5000000000000004 4.5000000000000009 2.5446428060531621 62.651784896850593 4.1677629947662362 2.9013158082962041 24.517270088195804 145.50000000000003 1.5000000000000002 30.752467155456547 9.5000000000000018 0.76785713434219371 104.50000000000001 41.168584823608406 88.500000000000014 3.5000000000000004 3.5000000000000004 36.500000000000007 5.0855264663696298 7.4671051502227792 0.41071428358554846 7.2458252906799325 2023.5000000000002 3.5625000000000004 38.500000000000007 1.6429706215858462 2.5000000000000004 25.462170600891117 40.183034896850593 2.7500000000000004 27.500000000000004 2023.5000000000002 15.500000000000002 150.50000000000003 2.5446428060531621 0.50000000000075007 22.361607551574711 8.5000000000000018 36.024435043334968 21.826010704040531 1.5000000000000002 27.500000000000004 1.4671308398246767 6.6685855388641366 154.50000000000003 3.5000000000000004
decision_type=2 2 2 2 2 2 2 2 2 2 2 2 2 2 2 2 2 2 2 2 2 2 2 2 2 2 2 2 2 2 2 2 2 2 2 2 2 2 2 2 2 2 2 2 2 2 2 2 2 2 2 2 2 2 2 2 2 2 2 2 2 2
left_child=2 4 6 19 10 18 7 -1 -9 12 35 46 36 -12 -5 48 17 41 31 20 21 -3 24 -24 25 51 27 -14 29 30 38 -4 45 49 -28 37 -7 -2 -22 -17 52 42 53 -44 -32 -8 47 -10 -15 55 -51 -19 54 -6 -18 -11 57 59 -58 -38 -60 -20
right_child=1 3 5 14 16 9 32 8 11 33 13 -13 26 15 -16 39 40 22 61 -21 28 -23 23 -25 -26 -27 34 -29 -30 -31 44 -33 -34 -35 -36 -37 56 -39 -40 -41 -42 -43 43 -45 -46 -47 -48 -49 -50 50 -52 -53 -54 -55 -56 -57 58 -59 60 -61 -62 -63
leaf_value=-0.067572316774530489 0.0068137459445833425 0.061595074035650892 -0.028377778313117819 0.096644748958292004 0.038852937329250881 -0.046985989319841277 -0.048563975143470474 -0.071404798379925055 -0.038283601027424029 -0.01883067684104189 0.058574851262358223 -0.069561024614191211 0.11636187659449795 0.033564679487800148 0.12188910203695305 -0.013422162225769968 0.011388688249346324 0.060977807861442648 -0.014249535671680358 0.07492523779993733 0.060768751691383321 0.099772979901032025 -0.027098776128714547 0.039745286312353051 0.053432818402048103 -0.024825653223403892 0.085810153677425449 0.032830490380821496 0.06129383871168656 -0.0061856370124786161 0.033404722169305429 -0.047463592728960224 -0.05539761156998229 0.070305068804411827 0.0031286783677664368 -0.0038597224674606677 -0.0056603679132154073 0.025665556729349268 0.020419257871581494 0.014363539003459509 0.046397072986058802 0.087191288747911794 0.051250629157512176 -0.054850323150889148 -0.040225531507465329 -0.034790377544108485 0.096290777198116406 0.068555677603298185 0.015562489694650274 -0.054806994499749073 -0.020615746818814493 0.033080048487263175 0.034900020943155606 0.067974301767833575 0.050700369166980452 0.011674460933459155 0.0096120019228984627 -0.015013303191915038 -0.061146556519919272 0.061243557126941385 -0.0032758492544591872 -0.028258967588495838
leaf_weight=83253.244300842285 19576.898820877075 4582.5791063308716 16072.053635120392 13407.738414287567 2383.7203822135925 1011.9469422101974 34811.943712830544 3003.4564278125763 241.62187266349792 12910.118121147156 3304.7014651298523 308.662278175354 539.77668619155884 18176.559274435043 11106.029639720917 3256.7342157363892 6941.7674787044525 2477.7142922878265 19739.495707392693 20814.290739536285 11841.058338880539 3588.2393860816956 1226.1138732433319 1770.2787013053894 14992.63595199585 679.41217184066772 329.56420993804932 1770.4006004333496 23641.148324012756 1497.9627401828766 688.51489019393921 10056.253565907478 33699.440361618996 249.98852491378784 3119.2259845733643 11350.68058848381 937.22250962257385 7623.6108114719391 1303.885555267334 10269.41376042366 7605.2531607151031 2404.5603277683258 716.07041525840759 443.28034543991089 656.98052835464478 13047.812739610672 1003.5560917854309 406.48972976207733 7413.5342309474945 2399.460399389267 3210.697918176651 12283.572993278503 12960.501717805862 8430.3694221973419 1177.4568698406219 1892.4505999088287 13926.813930273056 11681.351626396179 787.31898188591003 873.80265545845032 1386.2152795791626 12624.189030647278
leaf_count=28732 2109 187 3481 613 193 389 9128 1846 91 2201 203 123 23 1817 298 570 729 188 3045 1338 470 81 163 241 974 63 10 231 2019 135 46 2579 9254 27 649 1411 278 793 63 1277 608 55 50 93 59 3259 78 43 848 1138 1159 980 1197 500 91 249 1888 2097 244 137 395 2299
internal_value=-0.000211731 0.0460966 -0.0408874 0.0755123 0.028699 -0.0165087 -0.0574749 -0.0651384 -0.0243105 -0.00588368 0.0161561 0.0478432 0.00180442 0.0241134 0.108086 0.0212005 0.0419761 0.0474144 -0.0268671 0.0638733 0.0590594 0.0783712 0.0412473 0.012393 0.0440878 0.035011 0.0276407 0.0523896 0.0550758 0.0458782 0.0512604 -0.0357251 -0.0491852 -0.0194132 0.0110523 0.00739969 -0.00305802 0.0120982 0.0567682 0.00767299 0.0329109 0.0617494 0.0566332 0.0106704 -0.00255074 -0.0448097 0.0698125 0.0287274 0.0283502 -0.0205153 -0.0352465 0.0377666 0.0280433 0.0615593 0.0170952 -0.0149302 -0.00155433 -0.00942131 0.00503851 0.0266361 -0.0242568 -0.0197149
internal_weight=535888 250593 285295 93128.4 157465 115518 169776 88217 4963.79 57026.4 80972.1 1960.33 36363.6 42420.9 24513.8 39116.2 76492.7 47807.7 58492 68614.7 47800.4 8170.82 33429.7 2996.39 30433.3 15440.7 5758.97 2310.18 39629.6 15988.4 14490.4 26128.3 81559.2 20662.7 3448.79 38551.2 30604.7 27200.5 13144.9 13526.1 28685 14378 11973.4 1159.35 1345.5 47859.8 1651.67 648.112 25590.1 20412.7 5610.16 14761.3 21079.7 10814.1 8119.22 14802.6 29592.7 13492.4 16100.3 1811.03 2173.53 32363.7
internal_count=95535 20462 75073 5309 15153 22519 52554 30913 2181 11115 9028 335 6341 4715 911 4512 6125 3500 11404 4398 3060 268 2609 404 2205 1231 913 254 2792 773 638 6060 21641 4774 659 4313 5428 2902 533 1847 2625 891 836 143 105 12387 212 134 2665 4747 2297 1168 2017 693 820 2450 5039 2512 2527 415 639 5344
is_linear=0
shrinkage=0.05


Tree=11
num_leaves=63
num_cat=0
split_feature=19 19 21 19 19 21 23 23 27 19 27 2 23 14 19 26 23 14 17 10 10 19 26 2 2 2 12 10 2 21 17 26 21 2 12 21 2 2 19 21 12 25 17 18 2 8 29 25 23 2 26 2 23 25 23 17 23 21 2 10 20 27
split_gain=368721 50573.4 40100.9 16137.7 7810.78 4511.52 4108.51 3409.96 5388.22 2070.39 2060.11 2002.51 1703.66 1636.14 1582.61 1578.35 1496.22 1422.48 1384.44 1356.26 1339.16 1126.58 965.338 907.927 891.46 887.561 784.639 984.646 747.594 701.825 698.561 697.746 650.571 641.576 626.81 852.808 609.249 600.945 597.668 587.051 579.705 571.943 560.387 623.294 549.116 630.324 612.162 542.976 532.771 705.413 524.336 516.552 829.616 703.314 516.223 488.255 483.684 483.677 476.413 435.613 430.849 423.903
threshold=5.7500000000000009 31.294643402099613 1.6885468363761904 99.285713195800795 13.366071224212648 0.6580542027950288 4.3853383064270028 13.45277261734009 12.500000000000002 50.669643402099616 16.500000000000004 3.5000000000000004 20.267857551574711 47.750000000000007 256.05356597900396 62.821546554565437 23.742011070251468 17.250000000000004 2.1473213434219365 1.5000000000000002 4.5000000000000009 21.008928298950199 47.363487243652351 3.5000000000000004 1.5000000000000002 3.5000000000000004 96.500000000000014 0.50000000000075007 3.5000000000000004 1.2394561767578127 0.035714287311588704 6.8149669170379648 3.1617875038136849e-06 2.5000000000000004 28.500000000000004 14.960861682891847 1.5000000000000002 3.5000000000000004 2.2589286565780644 11.327875614166262 92.750000000000014 1.4110719561576845 0.41071428358554846 21.261160850524906 1.5000000000000002 5.5000000000000009 0.26785714924335485 1.3872696757316592 30.752467155456547 1.5000000000000002 19.503289222717289 1.5000000000000002 20.267857551574711 1.4671308398246767 41.569196701049812 28.165178298950199 7.2021851539611825 7.3904840946197519 1.0000000180025095e-35 30.812500000000004 2.7500000000000004 18.500000000000004
decision_type=2 2 2 2 2 2 2 2 2 2 2 2 2 2 2 2 2 2 2 2 2 2 2 2 2 2 2 2 2 2 2 2 2 2 2 2 2 2 2 2 2 2 2 2 2 2 2 2 2 2 2 2 2 2 2 2 2 2 2 2 2 2
left_child=2 4 5 9 12 7 18 32 -9 13 47 16 23 20 -5 44 30 19 33 37 31 -19 50 24 -2 29 27 41 58 -7 -8 -3 -1 36 35 38 -4 -6 -13 -21 54 -18 -43 -44 46 -46 -15 -10 -41 -50 -14 52 -32 -53 -11 -39 -26 -55 -20 -52 -25 -37
right_child=1 3 6 14 17 25 11 8 10 40 -12 34 22 15 -16 -17 26 21 28 39 -22 -23 -24 60 56 -27 -28 -29 -30 -31 51 -33 -34 -35 -36 61 -38 55 -40 48 -42 42 43 -45 45 -47 -48 -49 49 -51 59 53 -54 57 -56 -57 -58 -59 -60 -61 -62 -63
leaf_value=-0.069718583526183542 0.0023039830079955347 0.090863340339946821 -0.036834113548989404 0.093734245873134878 0.060448992614154151 -0.047465132417406318 -0.052141913941718791 -0.070138081067337862 0.090962278712400507 0.067696259981511533 -0.062708552756741809 -0.039754737744894075 0.043348230708009521 0.033668393079531442 0.12034545333823471 -0.036425959650828975 0.00759827474252916 0.015637255696771126 -0.027953110044850762 0.025498744104888855 0.051335572612803165 0.033890670198555975 -0.0076111756609985913 -0.0074964336141585793 0.0092430809916401718 -0.05454925910871733 -0.038571986995707706 -0.0086907452342314378 -0.029285154840129952 -0.033545418478420318 -0.015176434291317981 0.062104607483765256 -0.058836909230453073 -0.044978701010805998 -0.050641284237233443 0.030471604735071968 -0.010601453149568436 0.0084832300059169297 -0.015324402567803428 0.042247065232132924 0.050544929351089909 0.098486624653024768 0.025029035935742485 0.080249172713283856 -0.012555578771996588 0.03735988154011851 0.072587044920570248 0.033431859194018948 -0.015406305653188401 0.037569880032833375 0.024951352978253204 0.0092648551692653801 0.02826084858613381 -0.0043682244141312132 0.099591160325896877 0.066070631122375281 0.025978957421100204 -0.054492208806467324 -0.010967619347689592 -0.031270922284848547 0.0077077708695526149 -0.030413959608732406
leaf_weight=61826.219132065773 14855.387372493744 3501.6284871101379 6022.9004751443863 15660.382573127747 8754.1621875762939 34244.811822533607 724.89701306819916 2697.394421339035 825.02189302444458 30140.379637002945 410.88860368728638 3286.9593074321747 4731.3778359889984 1792.0865445137024 8721.0497131347656 702.36897039413452 853.18429851531982 15077.202796459198 5375.2278895378113 11669.526452302933 29810.624769210815 19247.887837409973 1957.1754324436188 13176.471029043198 7472.3786640167236 32541.960126757622 440.83273673057556 1186.4364694356918 14833.534258961678 12327.918429017067 9854.0310195684433 5341.7003231048584 17720.699951171875 10862.711262345314 1529.166498541832 1280.8767786026001 3500.6561596393585 1109.0998227596283 10504.591611504555 19518.351224422455 4908.6158232688904 572.32346606254578 1553.973412156105 761.52625823020935 680.69392228126526 8844.8558115959167 2324.4903106689453 818.23747658729553 975.95131230354309 1761.1509211063385 8126.8904469013214 11184.778279781342 1236.3122460842133 1345.514057636261 1328.4802122116089 550.16062903404236 10228.809596300125 748.48601281642914 17797.859502434731 358.95355796813965 7207.3546457290649 367.05707979202271
leaf_count=21294 1797 65 1428 690 544 9344 317 1733 53 1927 207 1077 380 114 221 85 116 1581 936 905 2034 1740 366 1930 851 9254 131 302 2808 3039 2027 295 7487 2819 572 167 713 117 2314 1518 322 43 223 35 100 720 103 139 128 144 1154 1608 198 385 69 32 932 243 2742 59 782 76
internal_value=-0.000226344 0.0421777 -0.0412599 0.0672005 0.0227839 -0.0567883 -0.0172807 -0.0648374 -0.0236849 0.0573633 0.0373192 -0.00634924 0.0103885 0.0510559 0.103257 0.0366297 0.00131863 0.0335168 -0.0261597 0.0394332 0.0564084 0.0258736 0.025158 0.00615477 0.0113358 -0.0482111 0.0252743 0.0309929 -0.0205202 -0.0437813 -0.00380692 0.073501 -0.0672952 -0.0366721 -0.0201139 -0.0170874 -0.0271937 0.055219 -0.0211494 0.0345862 0.0665509 0.0435773 0.0542007 0.0432167 0.0403934 0.033792 0.0556567 0.0623536 0.0393498 0.0186818 0.0300105 -0.00236704 -0.0103321 0.00428558 0.0690458 0.0276058 0.018915 -0.0223022 -0.0149086 0.0225697 -0.00212039 0.0168999
internal_weight=529773 260536 269237 113757 146778 163413 105824 84298.5 4751.54 89375.9 2054.15 47430.9 68114.8 52998.4 24381.4 14344.5 30462.3 78663.5 58392.9 44338.4 38654 34325.1 15174.4 52940.4 32556.6 79114.7 5368.28 4927.44 38006.6 46572.7 25094 8843.33 79546.9 20386.3 16968.7 15439.5 9523.56 10413.4 13791.6 33925 36377.5 3741.01 2887.82 2315.5 13642.1 9525.55 4116.58 1643.26 22255.5 2737.1 13217.2 24369.1 11090.3 13278.8 31468.9 1659.26 17701.2 2094 23173.1 8485.84 20383.8 1647.93
internal_count=95535 21705 73830 6745 14960 52550 21280 30913 2132 5834 399 9834 8251 3516 911 1122 5628 6709 11446 3388 2394 3321 1959 6292 3580 21637 850 719 6486 12383 4778 360 28781 4960 4206 3634 2141 693 3391 2695 2318 417 301 258 1037 820 217 192 1790 272 1593 4461 2225 2236 1996 149 1783 628 3678 1213 2712 243
is_linear=0
shrinkage=0.05


Tree=12
num_leaves=63
num_cat=0
split_feature=19 19 21 19 19 21 23 24 27 2 19 2 23 10 14 26 23 19 14 10 10 19 2 26 2 2 0 17 26 17 2 23 21 26 12 21 26 2 24 10 0 2 26 21 2 24 12 26 25 2 29 25 2 27 24 26 21 26 2 27 0 27
split_gain=336655 46233.2 38075.9 15082.3 7222.42 4718.03 3706.42 3361.59 6066.59 1909.32 1855.29 1787.53 1628.67 1619.69 1448.36 1413.53 1371.07 1285.74 1265.74 1220.21 1212.31 1005.18 893.85 856.942 832.793 839.978 787.594 1010.52 731.237 719.599 709.316 693.766 658.747 648.136 635.701 658.844 626.521 617.354 594.231 586.453 574.149 563.619 554.038 540.219 531.081 528.179 527.612 512.099 581.971 491.674 549.843 533.562 623.459 510.9 488.669 611.258 523.283 483.067 479.659 454.107 450.404 631.922
threshold=5.6071429252624521 31.294643402099613 1.6885468363761904 99.285713195800795 13.366071224212648 0.6580542027950288 4.3853383064270028 170.50000000000003 12.500000000000002 3.5000000000000004 50.669643402099616 3.5000000000000004 20.267857551574711 196.00000000000003 47.750000000000007 62.821546554565437 27.097274780273441 2.1071428060531621 17.250000000000004 4.5000000000000009 1.5000000000000002 22.446428298950199 3.5000000000000004 19.861842155456547 3.5000000000000004 1.5000000000000002 9.5000000000000018 0.76785713434219371 5.0855264663696298 0.035714287311588704 3.5000000000000004 0.76327538490295421 3.1617875038136849e-06 6.8149669170379648 28.500000000000004 30.985638618469242 22.856907844543461 3.5000000000000004 104.50000000000001 75.500000000000014 8.5000000000000018 1.0000000180025095e-35 56.65460395812989 11.327875614166262 3.5000000000000004 104.50000000000001 51.500000000000007 21.394736289978031 0.89036229252815258 1.5000000000000002 0.26785714924335485 1.4671308398246767 3.5000000000000004 15.500000000000002 27.500000000000004 7.8815791606903085 5.5866787433624276 47.363487243652351 1.0000000180025095e-35 28.500000000000004 26.500000000000004 48.500000000000007
decision_type=2 2 2 2 2 2 2 2 2 2 2 2 2 2 2 2 2 2 2 2 2 2 2 2 2 2 2 2 2 2 2 2 2 2 2 2 2 2 2 2 2 2 2 2 2 2 2 2 2 2 2 2 2 2 2 2 2 2 2 2 2 2
left_child=2 4 5 10 12 7 17 32 -9 16 14 36 24 -5 19 49 29 37 20 33 44 42 31 -14 25 -2 27 -18 -28 -8 58 -7 -1 -3 35 -11 -10 -4 39 -12 -23 -22 -20 -43 -6 -35 -40 48 -45 50 -16 53 -53 -51 55 -27 -56 -25 -19 -44 61 -26
right_child=1 3 6 13 18 22 9 8 11 34 38 -13 23 -15 15 -17 26 30 21 -21 41 40 -24 57 60 54 28 -29 -30 -31 -32 -33 -34 45 -36 -37 -38 -39 46 -41 -42 43 59 47 -46 -47 -48 -49 -50 51 -52 52 -54 -55 56 -57 -58 -59 -60 -61 -62 -63
leaf_value=-0.06953505813515623 0.0017575361637397801 0.086095276137457086 -0.028993493204789701 0.086849018444104309 0.056882603585147289 -0.047859510455281778 -0.052146904984180655 -0.071402323952019925 0.04022856835956324 -0.019373606779506284 0.057877493583416262 -0.069388950470831323 0.04047888009675904 0.11285398819120239 0.03169709684160564 -0.035326242290567265 0.10952936734368759 -0.027889863515150853 0.017960025430515981 0.048281205000505506 0.017603664612183212 0.017435934097760949 -0.053673547657052484 0.020858076766804925 -0.0076424641975447105 0.023071632072279021 0.078997891272405141 0.028120683431420442 1.6225222394151256e-05 -0.0020066743170045081 -0.028733317703309627 -0.035287418308617938 -0.058327290807648105 0.044569842459541813 -0.051743765358985998 0.030632276951345235 0.10376062229202898 -0.047535534217479199 0.071816305447334514 0.021805429685832569 0.038747529771706139 0.026174093292580927 -0.068009660898872656 0.061879323464511193 0.026093928048424409 0.076139544235173606 0.058782875859344934 0.02464442148887731 0.038930696172480614 0.017278455602864319 0.068429047020812719 -0.027907674727926979 0.03136015619985566 0.045697368311254968 0.0094927293753896622 -0.057637147363535896 0.026998581533615496 -0.0064781037729267051 -0.010769193336194057 0.013276855555701765 0.014678157518029073 0.034328788650088371
leaf_weight=59018.908481836319 15324.690573692322 3510.6216764450073 11844.337723135948 13501.499201774597 8835.8060503005981 26764.62387239933 736.47367453575134 2720.2634898424149 1013.5938649177551 14062.489901065826 3935.7641127109528 292.29664254188538 5176.6852488517761 10803.957010746002 1808.0048027038574 688.41481375694275 526.95335984230042 5300.7403987646103 17313.783191680908 30104.044300079346 5314.2944371700287 4253.6873955726624 31447.269905209541 8326.6297450065613 16860.58129119873 465.32320117950439 330.55338764190674 1375.3221263885498 2523.6420143842697 24107.912737250328 14631.199139714241 18630.299105763435 16912.743826150894 3022.3642840385437 1447.9063529968262 690.18342399597168 630.11019265651703 7237.3471829891205 15747.299716472626 1580.9816167354584 12322.827698230743 10356.424511432648 346.51859521865845 3718.2395267486572 1667.4514603614807 2368.2513582706451 15414.590198516846 4024.3185179233551 10798.330952167511 2215.3830199241638 2342.0566339492798 738.09515118598938 1109.3992917537689 5541.0541000366211 7468.962082862854 471.29381132125854 9967.3042821884155 2004.7677130699158 17927.548631429672 339.28599429130554 3307.7053377628326 946.2050621509552
leaf_count=21319 1873 65 2702 612 544 7326 327 1846 176 3461 136 123 417 299 114 85 22 958 1731 2034 498 443 9254 1210 2322 94 10 165 523 4454 2871 5057 7413 147 568 78 36 2003 979 81 1039 784 58 125 149 148 1122 415 873 183 103 135 128 374 812 159 787 378 2835 50 395 107
internal_value=-0.000239614 0.0395345 -0.0406053 0.0634575 0.0212364 -0.0560577 -0.0169278 -0.0645106 -0.023266 -0.00633881 0.0540298 0.044372 0.0095707 0.0984126 0.0480845 0.0345533 0.00121367 -0.0254449 0.0315819 0.0530937 0.0371374 0.0243965 -0.047192 0.0238758 0.00552297 0.0104014 0.0258042 0.0507176 0.00918781 -0.00349504 -0.0201099 -0.0427008 -0.0670395 0.0693622 -0.0201375 -0.0170322 0.0646317 -0.0360283 0.0626916 0.0475458 0.0332802 0.0325738 0.0162138 0.0353262 0.0519977 0.0584509 0.0653713 0.0404366 0.0448126 0.0380532 0.052438 0.0318325 0.00767969 0.0375837 0.0176107 -0.0175582 0.0195008 0.0155535 -0.0146772 -0.0278343 -0.00226289 -0.00541042
internal_weight=524216 264043 260173 114432 149611 157430 102743 80587.9 4656.26 45801.4 90126.3 1936 70320.1 24305.5 53447.7 14442.4 29600.9 56941.2 79291 39005.3 44714.9 34576.1 76842.2 15508.1 54812.1 33697.6 4756.47 1902.28 2854.2 24844.4 37859.5 45394.9 75931.7 8901.24 16200.6 14752.7 1643.7 19081.7 36678.6 5516.75 16576.5 34211.6 17999.6 28897.3 10503.3 5390.62 31161.9 18540.9 14516.6 13754 4150.06 9603.93 1847.49 7756.44 18372.9 936.617 17436.3 10331.4 23228.3 685.805 21114.5 17806.8
internal_count=95535 22008 73527 6745 15263 52550 20977 30913 2181 9608 5834 335 8554 911 3516 1122 5501 11369 6709 2394 3388 3321 21637 2005 6549 3725 720 187 533 4781 6664 12383 28732 360 4107 3539 212 4705 2318 217 1482 2695 1839 2197 693 295 2101 1413 998 1037 217 820 263 557 1852 253 1599 1588 3793 108 2824 2429
is_linear=0
shrinkage=0.05


Tree=13
num_leaves=63
num_cat=0
split_feature=19 19 21 19 19 23 21 24 27 19 17 2 26 23 23 23 26 23 20 26 2 2 2 10 24 17 2 8 22 24 10 2 26 8 10 13 23 10 2 17 24 8 26 2 27 2 26 13 10 26 26 23 13 27 21 2 23 2 27 27 24 29
split_gain=307543 43203.2 35155 14014.7 7033.64 4550.19 3486.29 3446.62 5924.72 2431.74 1614.3 1602.19 1500.91 1586.52 1426.86 1401.85 1430.37 1386.84 1028.51 900.147 880.729 857.324 899.648 818.267 1365.2 993.279 773.21 1467.31 735.519 825.043 729.883 842.407 1258.72 1132.69 712.749 726.337 707.442 723.818 676.853 667.01 638.262 716.397 634.511 767.184 628.93 627.634 570.591 564.509 556.379 1182.26 553.127 550.678 531.817 511.9 604.195 503.305 491.868 481.871 481.456 480.517 466.782 465.371
threshold=5.3214285373687753 31.294643402099613 1.3998769521713259 123.65178680419923 12.580357074737551 4.3627820014953622 0.53498607873916637 170.50000000000003 12.500000000000002 62.651784896850593 2.1473213434219365 3.5000000000000004 4.1677629947662362 30.752467155456547 27.097274780273441 14.784187316894533 41.168584823608406 20.267857551574711 187.50000000000003 19.861842155456547 3.5000000000000004 3.5000000000000004 1.0000000180025095e-35 93.062500000000014 145.50000000000003 40.183034896850593 3.5000000000000004 0.50000000000075007 20.28428936004639 104.50000000000001 0.50000000000075007 1.5000000000000002 6.8149669170379648 1.5000000000000002 0.50000000000075007 31.500000000000004 36.024435043334968 34.500000000000007 3.5000000000000004 0.035714287311588704 148.50000000000003 0.50000000000075007 21.394736289978031 1.0000000180025095e-35 49.500000000000007 3.5000000000000004 47.363487243652351 101.50000000000001 23.500000000000004 39.791118621826179 30.971217155456547 7.2021851539611825 3.5625000000000004 48.500000000000007 38.367370605468757 1.0000000180025095e-35 41.569196701049812 1.0000000180025095e-35 38.500000000000007 49.500000000000007 97.500000000000014 0.91071426868438732
decision_type=2 2 2 2 2 2 2 2 2 2 2 2 2 2 2 2 2 2 2 2 2 2 2 2 2 2 2 2 2 2 2 2 2 2 2 2 2 2 2 2 2 2 2 2 2 2 2 2 2 2 2 2 2 2 2 2 2 2 2 2 2 2
left_child=2 4 6 9 17 10 7 -1 -9 12 20 14 13 -3 39 59 30 21 -5 -19 55 22 -2 26 25 -25 48 -28 -18 -30 31 50 -33 52 35 53 37 -29 -12 -7 -13 -42 43 -32 -44 -8 -10 56 -14 57 -17 -24 -34 54 -16 -4 -11 -50 -23 -6 -45 -43
right_child=1 3 5 18 15 11 45 8 46 47 38 40 23 -15 34 16 28 19 -20 -21 -22 58 51 24 -26 -27 27 36 29 -31 42 32 33 -35 -36 -37 -38 -39 -40 -41 41 61 44 60 -46 -47 -48 -49 49 -51 -52 -53 -54 -55 -56 -57 -58 -59 -60 -61 -62 -63
leaf_value=-0.067919681321266689 -0.0062756592729819706 0.041024819463955503 -0.044035394187972976 0.089924668587524098 0.018964146154623406 -0.051576760593827944 -0.045088640345883745 -0.071400978614063651 0.033058869807515517 0.066355870888671661 -0.014723367387451641 -0.0132031614916946 0.057753417666744238 0.080186781231710302 0.019925550265711661 0.048511745933947678 0.028206807305024135 0.039643022718201235 0.11391196995299269 0.01292118905712936 -0.046468497139751867 -0.0083749291759768127 0.0054627937996126865 0.024126457815242253 0.056512218822670705 -0.051218039944737115 -0.021245983903524803 0.024851544646596876 -0.038440857960952757 0.014557410459345572 0.014831016345043578 0.061969567687209515 0.013948841469328732 0.039101092352156058 -0.016391262424970226 -0.0041437975017844476 0.070120653394511498 0.04559857945701571 -0.029165540884227372 -0.0035869380208879823 -0.058942211200761797 -0.024056943757874229 0.021694668610938082 0.051563175082386038 0.066120961377390222 -0.054892799886952649 0.10716881331054795 0.049244808734592575 0.033482101342414007 -0.018563094446567792 0.080673189131710898 0.019775004269426605 -0.041518026543226852 0.090652652103902498 0.075341445523964323 -0.024963244310949609 0.095677204637734589 0.05137053374947434 0.0086630626557375173 0.045395698522238383 0.035513736875459494 0.070524418470408953
leaf_weight=65706.503306269646 7538.526932477951 4349.6477837562561 4492.9686570167542 12455.63094997406 28631.885557174683 745.81712400913239 39791.001421451569 2587.6422704458237 1552.8909639120102 19888.454183101654 21097.197978615761 11067.23469042778 13796.097815036774 6392.1080174446106 1634.90243268013 3236.4162240028381 3295.9734034538269 4659.475301027298 7008.9084358215332 9738.8745324611664 12202.035176753998 15401.08750474453 12350.701794862747 966.28618240356445 1373.3508551120758 797.61261773109436 1002.8689692020416 6807.2216022014618 1187.3602344989777 1921.1083419322968 2973.8979094028473 2890.4827289581299 921.67496252059937 2880.755402803421 843.75113093852997 925.26398420333862 1855.7826571464539 11011.744049072266 13185.50473511219 23771.15120947361 1895.6518230438232 2961.2172235250473 12438.973238229752 7757.3884787559509 850.49422121047974 27749.851334691048 311.39023172855377 4658.4675917625427 4976.0231657028198 710.00319147109985 2287.0330052375793 14745.840848445892 812.041419506073 539.51118612289429 703.23547387123108 15066.458373308182 1546.4372229576111 15571.011370420456 5672.744430065155 1829.0478718280792 10927.54770731926 135.07613241672516
leaf_count=26115 991 229 1159 510 2612 335 11873 1846 279 1199 3576 1861 724 140 220 244 347 381 171 1537 3436 2184 1461 60 126 67 106 539 187 223 284 112 85 255 227 188 110 849 2717 4391 996 1184 1246 389 52 8856 21 302 402 84 78 1452 127 33 36 3455 67 1060 745 156 820 18
internal_value=-0.00025121 0.0366974 -0.0403388 0.0598916 0.0194578 -0.0194371 -0.057228 -0.065035 -0.0224534 0.0520246 -0.0278039 -0.00721772 0.0471432 0.0643343 -0.00023382 0.0291414 0.0339518 0.00773867 0.0985676 0.0215708 -0.0359255 0.00416333 0.00900154 0.0440053 0.0191513 -0.00995308 0.045404 0.0377313 0.0117551 -0.00569251 0.0369146 0.0470178 0.0361017 0.0198884 0.0251671 0.0343896 0.0407384 0.0376746 -0.0202787 -0.00504885 -0.0198998 -0.0347406 0.033147 0.0384251 0.0245426 -0.0491175 0.0454882 0.0650444 0.0499289 0.0448482 0.0618407 0.0132519 -0.0120398 0.0467765 0.0366179 -0.0293463 0.0684756 0.0470402 -0.00378838 0.0205527 0.0421794 -0.0199094
internal_weight=519083 270117 248966 115168 154949 111267 137699 70158.4 4451.92 95703.1 66044.2 45222.8 69609.8 10741.8 29163.6 84842.1 54381.1 70107.3 19464.5 14398.3 31761.5 55708.9 34635.1 58868 3137.25 1763.9 55730.8 20677.6 6404.44 3108.47 47976.7 13028.4 7504.95 4614.47 4646.66 3802.91 19674.7 17819 34282.7 24517 16059.2 4991.95 34948.3 21658.8 13289.5 67540.9 1864.28 26093.4 35053.1 21257 5523.45 27096.5 1733.72 2877.65 2338.14 19559.4 21434.9 20547 21073.8 30460.9 18684.9 3096.29
internal_count=95535 22713 72822 6745 15968 23832 48990 28261 2146 6064 14343 9489 4496 369 5430 7217 4449 8751 681 1918 8050 6833 3904 4127 253 127 3874 1604 757 410 3692 901 579 467 704 477 1498 1388 6293 4726 4059 2198 2791 1493 1298 20729 300 1568 2270 1546 322 2913 212 289 256 4614 1266 1462 2929 2768 1209 1202
is_linear=0
shrinkage=0.05


Tree=14
num_leaves=63
num_cat=0
split_feature=17 17 21 16 16 23 25 17 23 27 16 17 13 27 17 23 26 12 9 20 22 0 2 24 0 27 27 2 2 2 2 15 15 13 27 27 0 13 27 2 2 26 2 24 26 0 27 14 0 22 8 25 27 8 27 3 2 20 23 2 13 21
split_gain=280461 36150 35079.9 13909.5 5588.98 4344.54 3509.82 2473.91 1979.19 3148.04 1871.93 1744.39 1715.24 1707.36 1610.67 1581.33 1309.37 1265.65 1286.08 1105 1049.94 970.261 833.722 807.134 971.276 1396.95 806.835 774.841 829.621 759.862 824.51 727.948 972.152 658.701 632.153 5073.07 1210.09 625.61 810.543 622.66 607.841 963.63 2304.72 2266.2 824.92 584.686 698.447 583.557 581.075 575.781 553.213 672.906 833.589 589.316 548.768 545.981 617.071 989.014 793.97 636.727 604.511 541.102
threshold=5.5178570747375497 27.660714149475101 1.3469051122665407 175.31250000000003 33.750000000000007 3.4525376558303837 1.0016002058982851 64.160717010498061 17.895676612854007 12.500000000000002 1.5000000000000002 2.1473213434219365 17.750000000000004 16.500000000000004 11.437500000000002 19.213346481323246 62.821546554565437 6.5000000000000009 65.500000000000014 187.50000000000003 0.94805046916008007 8.5000000000000018 3.5000000000000004 147.50000000000003 7.5000000000000009 48.500000000000007 35.500000000000007 3.5000000000000004 1.0000000180025095e-35 3.5000000000000004 1.5000000000000002 3.5000000000000004 2.5000000000000004 36.500000000000007 8.5000000000000018 11.500000000000002 25.500000000000004 157.50000000000003 8.5000000000000018 1.5000000000000002 1.5000000000000002 24.078947067260746 3.5000000000000004 145.50000000000003 30.971217155456547 26.500000000000004 49.500000000000007 35.812500000000007 26.500000000000004 0.41391608119010931 5.5000000000000009 1.4949021935462954 39.500000000000007 83.500000000000014 17.500000000000004 1.0000000180025095e-35 2.5000000000000004 3.5000000000000004 23.057565689086918 1.0000000180025095e-35 59.500000000000007 45.383571624755866
decision_type=2 2 2 2 2 2 2 2 2 2 2 2 2 2 2 2 2 2 2 2 2 2 2 2 2 2 2 2 2 2 2 2 2 2 2 2 2 2 2 2 2 2 2 2 2 2 2 2 2 2 2 2 2 2 2 2 2 2 2 2 2 2
left_child=2 4 6 7 14 11 -1 12 10 -10 -8 22 26 -11 27 20 34 18 47 37 -7 31 -4 39 25 -25 61 28 -2 30 -22 32 -19 -16 -14 36 -36 -5 -39 -17 44 -42 43 -43 -37 46 -29 50 49 -26 -6 53 -53 -52 -40 56 58 60 -23 -60 -58 -3
right_child=1 3 5 19 17 15 8 -9 9 13 -12 -13 16 -15 33 23 -18 21 -20 -21 29 55 -24 24 48 -27 -28 45 -30 -31 -32 -33 -34 -35 35 40 -38 38 54 -41 41 42 -44 -45 -46 -47 -48 -49 -50 -51 51 52 -54 -55 -56 -57 57 -59 59 -61 -62 -63
